1.0,0.090142861282,0.0463987883623,0.0197316968394,-0.0687962719115,1.0,-0.0883832775664,0.073235229155,0.0202230023486,0.0416145155592,1.0,0.0939819704324,0.0664885281601,-0.0575321778643,-0.0636350065586,1.0,-0.0391515514081,0.00495128632645,-0.0136109962716,-0.0417541719604,1.0,-0.0721012278696,-0.041571070293,-0.0267276313413,-0.00878600315659,1.0,-0.0600652435683,0.00284688768272,0.0184829137724,-0.090709917456,0.0215089703803,1.0,-0.0869896814029,0.0897771074507,0.0931264066149,0.0616794696233,-0.0390772461653,1.0,0.0368466053024,-0.0119695012521,-0.075592353031,-0.000964617977746,-0.093122295777,
0.838107677158,0.0780174639758,-0.0254932031599,0.0223465557355,-0.0499080635618,0.803665876891,-0.17009108218,-0.0201721427426,-0.0631811005511,-0.0394739345367,0.784846005929,-0.059212448663,-0.012920487891,-0.242252674739,-0.251516811907,0.82297018971,-0.0720935457833,-0.10122412191,-0.0247539285495,-0.0490414231006,0.796962272755,-0.233353286632,-0.0909309872144,-0.233542333189,-0.21302136063,0.245158158968,-0.615639410044,-0.468820826667,-0.335251595658,-0.57609691973,-0.325949905465,0.40940984829,-0.52042478388,-0.358734254946,-0.374884207081,-0.366832990406,-0.475302431592,0.752156878208,-0.155056877866,-0.259502174936,-0.410133631329,-0.240885603406,-0.447474708489,
0.623626230628,0.192442915134,-0.190500573822,0.225807823903,0.178409156816,0.5675766189,-0.277511489608,-0.130884914114,-0.17871991061,-0.154829053921,0.515091898378,-0.483342864144,-0.00340083004018,-0.833344924424,-0.863430744721,0.613351769647,-0.0451695944874,-0.26281882323,0.0621070669254,0.0434688182796,0.557237360523,-0.685136616699,-0.032528561953,-0.882285461822,-0.881502065157,-0.0370734633644,-0.95449127154,-0.38734812542,0.399280451084,-0.741302026414,0.487441393981,0.333868183473,-0.531493379798,-0.410480111174,-0.501597479718,-0.38409383765,-0.591777141762,0.901181318312,0.0295854066283,-0.391394569878,-1.02094528603,-0.197679680725,-1.13470126528,
0.265100435725,0.416316884877,-0.538947319614,0.671058168921,0.658509777583,0.394425745902,-0.412621151209,-0.192809457462,-0.361100960502,-0.353479902589,0.895759508546,-0.854310020976,0.513635121319,-1.59344592876,-1.66869604628,0.416309089151,0.0951533337839,-0.4935956507,0.342423319818,0.330192949632,1.01514285293,-1.05599425625,0.564171110416,-1.68033144297,-1.72454130603,-0.249135997343,-1.65100943209,-0.153663690881,1.79302715402,-1.14082292496,1.9731671567,0.290048450551,-0.455511850238,-0.391245672252,-0.726946923766,-0.331124868207,-0.839338030557,0.955040122083,0.394179239819,-0.666278521126,-1.95026751227,-0.0330716461998,-2.11397449943,
-0.0257735273594,0.497778059413,-0.750675811769,0.885066935489,0.910478511766,0.348636661291,-0.500940862355,-0.207786155659,-0.511719157821,-0.53900568477,1.22029772856,-0.937239323648,0.844753839572,-1.9179046803,-2.0385394262,0.282522249363,0.162809649369,-0.626089522774,0.492174237034,0.488409919876,1.33326562946,-1.14179548301,0.914006821731,-2.02297860014,-2.10982796052,-0.496613782093,-2.16295257124,-0.0950433326498,2.39197419811,-1.49885385482,2.60840825551,0.264995541991,-0.402178262089,-0.284456246447,-0.869015892265,-0.297532443488,-1.00443301682,0.89186495206,0.641365763467,-0.944326472948,-2.55537521232,0.0904260537702,-2.73504499304,
-0.25104831297,0.523582222564,-0.860019989355,0.987762027362,1.06325357875,0.365495455054,-0.553075745831,-0.222061798702,-0.620676431699,-0.697677522487,1.42225963414,-0.93240224065,1.03231399726,-2.07903361346,-2.25439262643,0.17465206443,0.194036586746,-0.697006625982,0.567578244786,0.581210161729,1.50877500456,-1.14221338722,1.10919738307,-2.19796998245,-2.33404089062,-0.70984021296,-2.48689206153,-0.0897926378863,2.64170991935,-1.74482990717,2.87515129475,0.242579740171,-0.402819680006,-0.137688310438,-0.898555013579,-0.295910128529,-1.06451944962,0.832841683631,0.857126358171,-1.18266908516,-3.03313905047,0.203851274203,-3.21327344978,
-0.460262996164,0.525440065396,-0.92869775902,1.04998290765,1.18762251158,0.427645314452,-0.577688738799,-0.238770142118,-0.696997192752,-0.834604020553,1.57488943892,-0.891240923541,1.17285315093,-2.18737768028,-2.42300453881,0.0730155505692,0.212002627981,-0.74182782348,0.617252721128,0.656210970564,1.61397461323,-1.11517842262,1.2542496451,-2.32684627968,-2.51235652023,-0.889909029383,-2.72061068328,-0.0961021041697,2.77559275435,-1.93200263214,3.02316440117,0.223444095229,-0.425774764469,0.0129834318996,-0.885072991646,-0.299522555724,-1.10698392329,0.785675427645,1.06222468065,-1.38632628216,-3.4485129,0.314280629594,-3.61693455753,
-0.670158600305,0.51261197413,-0.975639688071,1.09277835739,1.30335768215,0.523801559098,-0.58036268734,-0.261420645289,-0.746174695642,-0.953161253786,1.69949242617,-0.828639487584,1.29077710169,-2.27111467916,-2.56885329255,-0.0289341437803,0.221177105027,-0.773519661945,0.653382592967,0.72336532662,1.65568525697,-1.08524248539,1.37350558268,-2.44773803114,-2.67540670754,-1.04277389044,-2.89928650239,-0.106392135638,2.85799403031,-2.08190167354,3.12240336305,0.208734315562,-0.46569915029,0.159355186291,-0.851598834282,-0.299926206314,-1.1822576801,0.744021813701,1.25440730386,-1.56309301419,-3.81713532878,0.417988989132,-3.95804894194,
-0.890033259262,0.491744816159,-1.00739044596,1.12710689294,1.42138868937,0.648179743678,-0.567572166636,-0.293600826589,-0.775257271586,-1.06079402841,1.81699583476,-0.747670578476,1.39599555168,-2.33567183284,-2.69735039926,-0.13332269961,0.223633334231,-0.797815381993,0.680913326415,0.785839199438,1.62773020942,-1.07229481301,1.47462826979,-2.58255780482,-2.83909648584,-1.17324522057,-3.03907530415,-0.119022163608,2.91231751866,-2.20484434551,3.20045567205,0.201912007011,-0.53240602206,0.308778425082,-0.788209916076,-0.297990384797,-1.32820065183,0.705890065172,1.4358201204,-1.72043126424,-4.15196452624,0.515929309049,-4.24092193821,
-1.12662466784,0.471158148004,-1.02521972191,1.16366184615,1.55406179729,0.798265611639,-0.54693043976,-0.338620192724,-0.792987326563,-1.16808458755,1.95525964871,-0.646636226306,1.49444924351,-2.38040070069,-2.81222831155,-0.239816841488,0.222226587457,-0.816764071057,0.704300804216,0.847262340895,1.52286601561,-1.09778154582,1.56274970877,-2.7541106292,-3.02217224839,-1.28476202669,-3.14959584114,-0.133102404163,2.94857419579,-2.30701480493,3.2717411289,0.204358856866,-0.640205861984,0.471935177324,-0.66499521588,-0.298684945707,-1.59171889702,0.678901407026,1.61523968905,-1.86208179437,-4.46545664123,0.615751860207,-4.46408063685,
-1.38153265758,0.46108913837,-1.02779652494,1.21536206363,1.71635196299,0.969389284891,-0.526839784156,-0.399435886853,-0.808860635678,-1.28562760728,2.13841877196,-0.529724030961,1.58747627098,-2.41282751393,-2.92804487592,-0.344499365804,0.221383150912,-0.829702285854,0.729736705522,0.913709924058,1.36339337289,-1.17377259102,1.65327414123,-2.98005788702,-3.24228497735,-1.38113953061,-3.23901076406,-0.147740689186,2.97150668555,-2.39399114566,3.34437911752,0.211994361769,-0.800257405414,0.654085972946,-0.447065763167,-0.307798787689,-2.01809507896,0.681330299761,1.80505995952,-1.98533877124,-4.7628774019,0.730233637565,-4.62336517084,
-1.65265693049,0.465563431444,-1.01662557228,1.28939266995,1.91514423732,1.15506262569,-0.510478132758,-0.474785083494,-0.826753364025,-1.41513472695,2.36934405523,-0.413236963329,1.67207126862,-2.4543389957,-3.06994377716,-0.43887125682,0.225234744567,-0.834865231036,0.763437491374,0.99078299902,1.22726513849,-1.28238281493,1.77871745024,-3.25020916488,-3.49447183768,-1.47147365447,-3.31638708569,-0.164706985229,2.98095153386,-2.47376034163,3.41932380522,0.216974103918,-1.01314963058,0.849616826405,-0.126295889371,-0.327723149463,-2.60176089574,0.724577467229,2.00748079435,-2.08386016557,-5.03480141526,0.864354879393,-4.72516789258,
-1.93925120754,0.477555697914,-1.00054065048,1.38169004621,2.14264715332,1.34964243548,-0.494324885993,-0.5560482843,-0.845235665425,-1.55007739269,2.63928584749,-0.309851367789,1.74959542597,-2.52063263081,-3.2510539632,-0.515843763615,0.233648762548,-0.832853429383,0.806380442575,1.07755961026,1.17466418762,-1.3953441321,1.95494982187,-3.53593580917,-3.75600958626,-1.56623766541,-3.38809505262,-0.188275927637,2.97303107063,-2.55362515165,3.4929390291,0.212468658568,-1.27175364676,1.047378456,0.272351045457,-0.358170028634,-3.27576264729,0.798713741054,2.20951550575,-2.15499674648,-5.26671306814,1.00841719275,-4.78830420484,
-2.23621955231,0.488058011706,-0.991243733307,1.48658472105,2.38694428189,1.54430523184,-0.475265980116,-0.631100733042,-0.866083211982,-1.68579752089,2.93636498567,-0.222583550432,1.82647729418,-2.61561061549,-3.46870404966,-0.576342523675,0.24246445594,-0.827992413398,0.854276203814,1.16739728993,1.19432214151,-1.50132767383,2.15906003121,-3.8145219052,-4.00794063104,-1.66560621187,-3.45462932101,-0.218636514455,2.94883293122,-2.63452538112,3.56367309438,0.193337226437,-1.5643115691,1.23481761049,0.710870537317,-0.398393905849,-3.96421699364,0.885685914681,2.39704946484,-2.20167603193,-5.4547488004,1.149505517,-4.82945391965,
-2.53030922174,0.490881414978,-0.997869291641,1.60049185371,2.63619110073,1.72820346204,-0.451563235099,-0.689330706869,-0.892511766939,-1.81860408304,3.23953539072,-0.149447541206,1.90824480087,-2.73762039155,-3.711914903,-0.626628216189,0.246823813887,-0.826071497714,0.901714269401,1.25277969356,1.25149114879,-1.59804502091,2.35822565222,-4.06991651917,-4.23696171849,-1.76196129595,-3.5141234937,-0.251288740972,2.91577720396,-2.71308107892,3.63264608678,0.15906592784,-1.86941521451,1.39772925837,1.14683387323,-0.443946589045,-4.61270707268,0.968530375569,2.56127270447,-2.2309197707,-5.60664668455,1.27710833121,-4.85820083852,
-2.80602595277,0.483344026118,-1.02404177917,1.72027683555,2.87895416613,1.893166448,-0.422870294351,-0.725653930853,-0.925907047244,-1.94427570869,3.52698214383,-0.0848839228237,1.99789049974,-2.87988328197,-3.96430515261,-0.67193421559,0.244166012996,-0.831062659221,0.945481608384,1.32898132322,1.32178828893,-1.68421668843,2.53316547115,-4.29309573146,-4.43609696924,-1.84922220753,-3.56584368628,-0.281906570395,2.88111266417,-2.78630999675,3.70093444534,0.11519856326,-2.16279664791,1.52723401252,1.54746445903,-0.488082077453,-5.19234646386,1.03680784911,2.6993233432,-2.24984143389,-5.73325115347,1.38546592554,-4.87953983922,
-3.05401197401,0.465843013681,-1.06816308691,1.84290724691,3.10676999784,2.03627540519,-0.390385105206,-0.74107349546,-0.965809622797,-2.0597558296,3.78702324887,-0.0231147147114,2.09590882187,-3.0336090985,-4.21062805684,-0.714458245651,0.234778859563,-0.843858620231,0.985100363949,1.39489752828,1.39277740858,-1.75943369345,2.67919438006,-4.48288924748,-4.60513708534,-1.9255791122,-3.61044912298,-0.30848529486,2.84869967566,-2.85315989046,3.76867216065,0.0686950502441,-2.42886514843,1.62355292263,1.89888107748,-0.526267016462,-5.6957903042,1.08828456188,2.8131176399,-2.26295478774,-5.84241075785,1.47432938881,-4.89614460643,
-3.27267513424,0.44029059699,-1.12610050711,1.96589032324,3.31534955416,2.15890286164,-0.355783401453,-0.739808849923,-1.01077945189,-2.16383452746,4.01780708463,0.0392299831431,2.20069709553,-3.19192281213,-4.44160488961,-0.754607346511,0.220380776141,-0.863258886225,1.02147443308,1.45159127413,1.4591802295,-1.8244168215,2.79918641373,-4.6429383247,-4.74777344071,-1.99188247443,-3.64912878671,-0.33079289424,2.81967432305,-2.91392099358,3.8354469829,0.0243252156069,-2.66260735169,1.69235997953,2.20136794575,-0.557128057907,-6.12852866796,1.12542783768,2.90672916775,-2.27257024797,-5.93856031643,1.54664608832,-4.90954083222,
-3.46493244804,0.408845267149,-1.19336171538,2.08751475315,3.50368198142,2.26432788053,-0.320417517999,-0.726613903596,-1.05918183748,-2.25666903216,4.22233624959,0.103254945761,2.30949711927,-3.35072763021,-4.65357983988,-0.792342449773,0.202777424759,-0.887357788182,1.05565449546,1.50071077439,1.51930155056,-1.8804914628,2.89806796819,-4.77832118326,-4.86869456409,-2.04981489805,-3.68302345823,-0.349353076599,2.79390967266,-2.96937824236,3.90076748027,-0.0155340994931,-2.86530372373,1.74046429028,2.46123030092,-0.581053474838,-6.5007329082,1.15169469371,2.98432138797,-2.28000946928,-6.02429816153,1.60596642348,-4.92065809564,
-3.63509011598,0.373321430705,-1.26596791642,2.20676577624,3.67267630461,2.35601149214,-0.285139888049,-0.70562041816,-1.10962539582,-2.33918258763,4.40496580043,0.168939578733,2.41926536304,-3.5078706781,-4.84629496375,-0.827714987035,0.183327433847,-0.914320922617,1.08837687241,1.54374621492,1.57302438355,-1.92908924869,2.9804430534,-4.89381132919,-4.97217248279,-2.10098662334,-3.71304912565,-0.364836439575,2.77092341818,-3.02034029788,3.96426571066,-0.0500534652266,-3.0406456884,1.77376401002,2.68585570904,-0.599031688245,-6.82278800852,1.16989662812,3.04931006834,-2.28626399958,-6.10143816446,1.65522407332,-4.93009189577,
-3.78728280658,0.335039948801,-1.34065485041,2.32312500251,3.82416938091,2.43686856131,-0.250403753786,-0.680091596094,-1.16108716481,-2.41264418351,4.56985786559,0.235936195338,2.52719129046,-3.66228071831,-5.02113133246,-0.86089858676,0.162922134962,-0.942636548552,1.12006529429,1.58187996592,1.62085564652,-1.97150749605,3.04999957285,-4.9933566665,-5.06168486515,-2.14669160447,-3.7399051117,-0.37783942752,2.75022905292,-3.06748861312,4.02572227848,-0.0792603062279,-3.19275816765,1.79676563555,2.88181026702,-0.612129221159,-7.10371907291,1.18201055737,3.10430039256,-2.29214392549,-6.17137428226,1.69657350167,-4.93823790517,
-3.92497365021,0.29489238616,-1.41486250336,2.43638305522,3.96032390498,2.50914181767,-0.216410608913,-0.652484557618,-1.21287118559,-2.47839906548,4.72048949793,0.30388343083,2.63093446336,-3.81344981012,-5.18010435883,-0.892097627992,0.142122374041,-0.971138823889,1.15094807388,1.61603592895,1.66350799592,-2.00883922704,3.1095491488,-5.0800749066,-5.13995333825,-2.18792019722,-3.7641246258,-0.388842288025,2.73142360997,-3.1113662163,4.08503437765,-0.103605363532,-3.32544345335,1.81272352729,3.05442608414,-0.621304038466,-7.35094181375,1.18943301788,3.15126448994,-2.29826082276,-6.23517564073,1.73158510278,-4.94536738383,
-4.05091697221,0.253469284435,-1.48666299671,2.54649824126,4.08328641217,2.57451007706,-0.183225623574,-0.624583633996,-1.26451582472,-2.53770705942,4.85960726272,0.372465329454,2.72869411073,-3.96115297797,-5.32534021018,-0.921490445231,0.121287983783,-0.998965673673,1.18114897194,1.64694538043,1.70171888703,-2.0419764589,3.16120837373,-5.15639262497,-5.20908539586,-2.22542621944,-3.78611992674,-0.398220417169,2.71419156461,-3.15240336986,4.1421800598,-0.123704565517,-3.44196608217,1.8239279572,3.20790685537,-0.627352595355,-7.57043484493,1.19320820348,3.19171331604,-2.30502145778,-6.29364400513,1.76144096724,-4.9516725062,
-4.1672666154,0.211179215555,-1.55466631981,2.65350399956,4.19501032869,2.63423849477,-0.150852203492,-0.597637751886,-1.31570940386,-2.59166204048,4.98933824595,0.441389354235,2.81918822444,-4.10529669337,-5.45881556532,-0.949219470251,0.100662866216,-1.02550633614,1.21073475897,1.67519013377,1.73617318066,-2.07163696784,3.20657259012,-5.22419477618,-5.27071381144,-2.25978814379,-3.80621492049,-0.406264986361,2.69829003315,-3.19094484744,4.19719041336,-0.140195892087,-3.54504051051,1.83197210294,3.34554471468,-0.630910033168,-7.76699103326,1.19414854642,3.22681462036,-2.31265900129,-6.34738096171,1.78705603784,-4.95729442977,
-4.27570425822,0.168335190855,-1.61792293729,2.75745788402,4.29718276186,2.6893017315,-0.119275697337,-0.57248318099,-1.36623287802,-2.64116787386,5.11132944957,0.510356821525,2.90159104108,-4.24584213617,-5.5822445405,-0.975402332894,0.0804234287342,-1.05035245756,1.23973721484,1.701229357,1.76747312127,-2.09839509419,3.24685220657,-5.2849505586,-5.32610991265,-2.29145592811,-3.82466800074,-0.413202407992,2.68353209601,-3.22727153523,4.25012932182,-0.153669370225,-3.63688628566,1.83795714156,3.46992069033,-0.632471063945,-7.94444954911,1.1928889814,3.25747175388,-2.32127952776,-6.39685224425,1.80914626701,-4.962340769,
-4.37754929233,0.125207160721,-1.67583634208,2.85842023397,4.3912127067,2.74046882782,-0.0884860745904,-0.549644961013,-1.41592753868,-2.68694779042,5.22686714209,0.579047271479,2.97545931342,-4.38277486418,-5.69704980144,-1.00014499349,0.060704095734,-1.07325597329,1.26816489644,1.72541970521,1.79613079319,-2.12271012227,3.28297352352,-5.3398123683,-5.37627104888,-2.32078588662,-3.8416883259,-0.419210779578,2.66977191611,-3.26161648918,4.30107916359,-0.164639129296,-3.71930033844,1.8426388798,3.58306468412,-0.632416156661,-8.1058894574,1.18991701515,3.28438176026,-2.33090415155,-6.44243736109,1.82827215909,-4.96689647528,
-4.47384379357,0.0820475761579,-1.72809128668,2.95645074996,4.4782519526,2.78835784809,-0.0584866585555,-0.529416072343,-1.46467933119,-2.7295694955,5.33696582353,0.647118440424,3.04066289413,-4.51610096606,-5.80437939232,-1.02355025656,0.0416097945344,-1.09409431314,1.29601167552,1.74803320946,1.82257125925,-2.14495048829,3.3156519661,-5.38969183167,-5.42198715574,-2.34806628352,-3.85744761732,-0.424432892976,2.65689271705,-3.29417661526,4.35013116488,-0.173537028595,-3.79372848494,1.84653002279,3.68658032238,-0.631036155371,-8.2537863456,1.18559810972,3.3080827593,-2.34149992736,-6.48446350583,1.8448726432,-4.97103065008,
-4.56541564469,0.0390993678034,-1.77459659822,3.05161374082,4.55923052807,2.83347094183,-0.029294426615,-0.511917484248,-1.51241184925,-2.76947470398,5.4424317705,0.714216808795,3.09732369859,-4.64585436948,-5.90514450333,-1.04572147797,0.0232216522852,-1.11284200608,1.32326393018,1.76927382825,1.84714066779,-2.16541365645,3.34544511866,-5.43531761475,-5.46389107061,-2.37353559233,-3.87208878271,-0.428985828618,2.64479793095,-3.32512098559,4.39737927757,-0.180716499093,-3.86133052572,1.84997146635,3.78174388142,-0.628553269652,-8.39013764709,1.18020079601,3.32899421701,-2.35300073204,-6.52322772881,1.85929399908,-4.97480086157,
-4.65292501438,-0.00340511407699,-1.81543797681,3.14398563669,4.6348959239,2.87621800768,-0.000936256740296,-0.497144052905,-1.55908255486,-2.80700700165,5.54390957011,0.77999242441,3.14576095255,-4.77210479373,-6.00006289405,-1.06676306405,0.00559981191029,-1.12954699558,1.34990639511,1.78929237774,1.87011655565,-2.18434200391,3.37279132652,-5.47727902595,-5.50249630118,-2.3973950666,-3.88573225034,-0.432967558904,2.63340526276,-3.3545966287,4.44291654299,-0.186461009201,-3.92303755067,1.85318263382,3.86958365781,-0.625138353092,-8.51656248322,1.1739202656,3.34745058677,-2.36532164769,-6.55901108498,1.87181414836,-4.97825591838,
-4.73689925811,-0.0452482194772,-1.85083639833,3.23366084114,4.70585014868,2.91693409894,0.0265558510939,-0.485000788935,-1.60467926271,-2.84243542349,5.64191827945,0.84411314044,3.18643995481,-4.89496090522,-6.08969972653,-1.08677924687,-0.0112144099711,-1.14431020431,1.37592640781,1.80819948963,1.89171890715,-2.20193520768,3.39803809784,-5.51605864809,-5.53822514851,-2.41981715093,-3.89848065544,-0.436461254571,2.62264303713,-3.38273252022,4.48683307326,-0.190994374842,-3.97960112583,1.85629768127,3.95094310669,-0.620924752417,-8.63438107188,1.16689859517,3.36372793953,-2.37836953072,-6.59208682829,1.88266179047,-4.98143768538,
-4.81776017861,-0.0862310562019,-1.88111011748,3.3207541599,4.77258179427,2.95589329584,0.0531489752424,-0.475332294466,-1.64921582102,-2.87597320078,5.73688080023,0.906275849987,3.21992406113,-5.01456750074,-6.17450242451,-1.10587211965,-0.0271961252361,-1.15726773639,1.40131652752,1.82607646426,1.91212105664,-2.21835968262,3.42146330139,-5.55205659628,-5.57142949638,-2.44095109455,-3.91042234939,-0.43953805014,2.61244806251,-3.40964239024,4.52921501265,-0.194491361892,-4.03163430388,1.859391961,4.02652957464,-0.616018982147,-8.74467777845,1.15924083801,3.37806361584,-2.39205092588,-6.62272387056,1.89203049036,-4.98438231195,
-4.89584607607,-0.126176452684,-1.90664061338,3.40539975756,4.83549230852,2.99332019429,0.0788123916954,-0.467946518011,-1.69272707201,-2.90779216992,5.82914779997,0.966214382263,3.24683200239,-5.13109811893,-6.25482899637,-1.1241394946,-0.0423341925218,-1.16857584511,1.4260757693,1.84298408969,1.93145974561,-2.23375564294,3.44329120965,-5.58560848824,-5.60240612333,-2.46092686054,-3.92163407036,-0.442258918781,2.60276432318,-3.43542682839,4.57014406586,-0.19708769717,-4.07964476103,1.86250146533,4.0969503367,-0.610508599546,-8.8483509877,1.15102728301,3.390669756,-2.40627753856,-6.65118673746,1.90008859354,-4.98712110976,
-4.97142974937,-0.164930835582,-1.92784380065,3.48774759325,4.89491683418,3.02939935205,0.103519702154,-0.46263316609,-1.73526363471,-2.93803370127,5.91901656515,1.02370480044,3.26780311964,-5.24474528439,-6.33097048882,-1.14167286079,-0.0566285426913,-1.17839899289,1.45020983453,1.85896962878,1.94984384098,-2.24824234022,3.4637047586,-5.61699877961,-5.63140800458,-2.47985809488,-3.93218301215,-0.444676112709,2.5935420062,-3.46017501473,4.60969735536,-0.198889097128,-4.12406083122,1.86563694853,4.1627380487,-0.604467868405,-8.94615228027,1.1423226867,3.40174210316,-2.42096930072,-6.67773339594,1.90698616098,-4.98968122416,
-5.04473292994,-0.202365336724,-1.94514744753,3.56795852222,4.95114044346,3.06428277775,0.127250248049,-0.459177108005,-1.77688702907,-2.96681698427,6.00674508914,1.07856901005,3.2834718065,-5.35571025146,-6.40316854293,-1.15855555004,-0.0700877834853,-1.18690107149,1.47373072275,1.87407223891,1.96736146728,-2.26192196077,3.48285495137,-5.6464707278,-5.65865271849,-2.4978445998,-3.94212845228,-0.446834419335,2.58473659694,-3.48396625982,4.64794748472,-0.199979254845,-4.16525151389,1.86879387411,4.22436793967,-0.597961889648,-9.03871691604,1.13318329077,3.41146548081,-2.43605528847,-6.70261213725,1.91285995927,-4.99208617739,
-5.11593748348,-0.238376445956,-1.95897477561,3.64619897463,5.00441060866,3.09809558412,0.149990078193,-0.457367451428,-1.8176654238,-2.99424531793,6.09256185516,1.13067729795,3.29445062702,-5.46419341934,-6.47162896529,-1.17486114474,-0.082727216786,-1.19423946351,1.49665602322,1.88832709052,1.98408555322,-2.27488256021,3.50086806392,-5.67423390937,-5.68432876599,-2.51497450212,-3.95152304575,-0.448772318436,2.57630796743,-3.50687142408,4.68496274741,-0.200426853964,-4.20354154589,1.87195907382,4.28226889641,-0.591049761964,-9.12658729579,1.1236622067,3.42001698307,-2.45147298687,-6.72605824634,1.91783716349,-4.99435632006,
-5.18519382553,-0.27288646959,-1.96973338193,3.72263570386,5.05494656074,3.1309400523,0.171732678719,-0.457003241345,-1.85767005412,-3.02041084502,6.17667185897,1.17995005173,3.30132025895,-5.57038603507,-6.53653209802,-1.19065216115,-0.0945672937038,-1.20056136905,1.51900806789,1.90176840554,2.00007797095,-2.287200306,3.51785114677,-5.70046994433,-5.70860036803,-2.53132614615,-3.96041385496,-0.450523023878,2.56821950562,-3.52895421437,4.72080744379,-0.200291641095,-4.23922244486,1.87511488602,4.33683019906,-0.583787099896,-9.21023081855,1.11381348514,3.42756748521,-2.46716649626,-6.74829076082,1.922038075,-4.99650920555,
-5.25262712296,-0.305843974294,-1.97780822537,3.79743080329,5.10294600424,3.16289846851,0.192479612031,-0.457896783404,-1.89697222054,-3.04539800256,6.25925944111,1.22635861595,3.30462395047,-5.67446352023,-6.59804064815,-1.20597908626,-0.105632486808,-1.20600176366,1.5408130254,1.91443156982,2.01539252665,-2.29894121443,3.53389620568,-5.72533688524,-5.73161113461,-2.54696966755,-3.96884316403,-0.452115353238,2.56043738518,-3.55027232237,4.75554227114,-0.199629483993,-4.27256022183,1.87824147699,4.38840528072,-0.576228009885,-9.29005333427,1.10369498204,3.43428179346,-2.48308425913,-6.76950941747,1.92557793406,-4.99855989519,
-5.31834188186,-0.337224255662,-1.98355741404,3.87073710863,5.14858957621,3.19403516615,0.212241139356,-0.459875447872,-1.93564075207,-3.06928585898,6.34048857632,1.26992504706,3.30486442099,-5.77658065703,-6.65630551327,-1.22087989334,-0.115950543352,-1.21068244147,1.56209995195,1.92635441591,2.03007706152,-2.31016251382,3.54908335998,-5.74897260395,-5.75348689106,-2.56196820073,-3.97684911469,-0.453574376362,2.5529300678,-3.57087836684,4.78922474391,-0.198496268664,-4.30380034496,1.88131799074,4.4373136135,-0.568426491407,-9.36640920186,1.09337001095,3.4403176628,-2.49917682259,-6.78989190895,1.92856782602,-5.00052120335,
-5.3824254473,-0.367029676954,-1.98730975852,3.94269417031,5.19204346402,3.22439821787,0.23103681209,-0.462782572166,-1.97373985972,-3.09214947192,6.42050143272,1.31072043715,3.30250176562,-5.87686879925,-6.71147001044,-1.23538017159,-0.125552063812,-1.21471174623,1.58289979533,1.93757774802,2.04417488269,-2.32091373558,3.5634832112,-5.77149743391,-5.77433788425,-2.57637871193,-3.98446619602,-0.454921830954,2.54566808187,-3.59082061964,4.82190959649,-0.196950500052,-4.3331705278,1.88432309031,4.48384164238,-0.560437207804,-9.43960880393,1.08290774446,3.44582396584,-2.5153950617,-6.80959170018,1.93111470649,-5.00240389578,
-5.44495080492,-0.395289552817,-1.98936337873,4.01342507076,5.23346067205,3.25402115712,0.248895927582,-0.466477835407,-2.01132737156,-3.11406041782,6.49941617773,1.34886151239,3.29795165436,-5.97543513689,-6.76367279855,-1.24949395292,-0.134470318049,-1.21818473932,1.60324436218,1.9481451983,2.0577256954,-2.33123761646,3.5771586047,-5.79301628008,-5.79426055271,-2.59025250657,-3.99172562039,-0.456176339715,2.53862405701,-3.61014352315,4.85364912316,-0.195054569537,-4.36088195331,1.88723532728,4.52824351728,-0.552315627655,-9.5099242346,1.07238239786,3.45093839854,-2.53168915842,-6.82873673209,1.93332066057,-5.00421685852,
-5.50597893078,-0.422059194816,-1.98998497861,4.08303437096,5.27298147166,3.28292497004,0.265857686611,-0.470837279086,-2.04845339286,-3.13508669012,6.57732503907,1.3845053805,3.29158375041,-6.07236383883,-6.81304970316,-1.26322521394,-0.142741180482,-1.22118366916,1.62316528908,1.95810254786,2.07076617099,-2.34117087971,3.59016593094,-5.81362037082,-5.81333901143,-2.60363550693,-3.99865561692,-0.457353500282,2.53177293734,-3.62888803353,4.8844934226,-0.192874796008,-4.38712955005,1.89003361115,4.57074215823,-0.544117620261,-9.57759375194,1.06187137135,3.45578517224,-2.54800845259,-6.84742928537,1.93528162101,-5.00596725521,
-5.56556082502,-0.447417826546,-1.98940967155,4.1516073659,5.31073352959,3.31112042176,0.281970886485,-0.475753016788,-2.08515945404,-3.15529220282,6.65429345293,1.41784255677,3.28372068073,-6.16771868925,-6.85973461742,-1.2765699122,-0.150403054107,-1.22377867963,1.64269308376,1.96749669033,2.0833302602,-2.35074494529,3.60255608543,-5.83338878661,-5.83164636668,-2.61656841688,-4.00528167197,-0.458465933188,2.52509226711,-3.64709184099,4.91449053301,-0.190480478578,-4.41209186289,1.89269787608,4.61153093358,-0.535898653141,-9.64282546001,1.05145268209,3.4604731182,-2.56430208537,-6.86574709996,1.93708585071,-5.00766068809,
-5.62373930081,-0.471465277254,-1.98784140446,4.21921064516,5.34683208392,3.33861062137,0.297293037434,-0.481132616454,-2.1214781886,-3.17473614206,6.73036078012,1.44908865468,3.27463802625,-6.26154669363,-6.90385965129,-1.2895183269,-0.157496670042,-1.22602872852,1.66185631042,1.97637443394,2.0954493443,-2.35998660001,3.61437518402,-5.8523898578,-5.84924593725,-2.62908687991,-4.01162674055,-0.45952336203,2.51856244511,-3.66478952154,4.94368646497,-0.187942277063,-4.43593091708,1.89520990012,4.65077598863,-0.527712764209,-9.70580055467,1.04120211412,3.46509451855,-2.58052019763,-6.88374562652,1.938812512,-5.00930137239,
-5.68055057546,-0.494317593174,-1.98545407432,4.2858937657,5.38138036935,3.36539363434,0.311888881787,-0.486898139047,-2.15743353504,-3.19347237134,6.80554265944,1.47847530801,3.26456569045,-6.35388209852,-6.9455547153,-1.30205744652,-0.164064690906,-1.22798269034,1.68068097713,1.9847813214,2.10715230089,-2.36891863968,3.62566510938,-5.87068248196,-5.86619242102,-2.64122170283,-4.01771144568,-0.460532771817,2.51216687375,-3.68201266536,4.9721251546,-0.185330250232,-4.45879230481,1.89755415123,4.68861908241,-0.519611469611,-9.76667634123,1.0311905103,3.46972481237,-2.5966153712,-6.90146111108,1.94053058826,-5.01089232719,
-5.73602570519,-0.5161018907,-1.98239337809,4.35169171007,5.41447033719,3.391464932,0.325828396182,-0.492984854405,-2.19304139864,-3.21154902941,6.87983471777,1.50624096279,3.25369075232,-6.44475033728,-6.98494673526,-1.31417317626,-0.170151100333,-1.22968060237,1.69919015285,1.99276060132,2.11846554306,-2.37756048185,3.63646394568,-5.88831737771,-5.88253301621,-2.65299917686,-4.02355427495,-0.461498658978,2.50589196732,-3.69879001192,4.9998483688,-0.182711845016,-4.48080557644,1.89971851897,4.72518070024,-0.511642735462,-9.82558912516,1.02148153366,3.47442315677,-2.61254401748,-6.91891413278,1.94229831536,-5.0124355797,
-5.79019189976,-0.536950875948,-1.9787793356,4.41662775434,5.44618361137,3.41681950931,0.339184439419,-0.499339701512,-2.22831066195,-3.22900838554,6.95321714544,1.5326221468,3.242161634,-6.53417154466,-7.02215869034,-1.32585220613,-0.175800412316,-1.23115499504,1.71740380735,2.00035242934,2.12941307172,-2.38592873914,3.64680634139,-5.90533826941,-5.89830848746,-2.66444149297,-4.02917177724,-0.462423360504,2.49972701987,-3.71514760642,5.02689559424,-0.180150064651,-4.50208491974,1.90169482279,4.7605631995,-0.503850103142,-9.88265699732,1.01213007991,3.47923369305,-2.62826749856,-6.93611322629,1.94416315905,-5.01393237538,
-5.8430737402,-0.556997468101,-1.97470932727,4.48071639732,5.4765925764,3.44145357053,0.352030255316,-0.50591959503,-2.2632444089,-3.24588695479,7.025659585,1.5578457201,3.23009321033,-6.62216343129,-7.05730864554,-1.33708345709,-0.181056770788,-1.23243223645,1.73533884153,2.00759332617,2.14001656302,-2.39403774053,3.65672382664,-5.92178298588,-5.91355415848,-2.67556722727,-4.03457875849,-0.463307435122,2.49366395629,-3.73110898055,5.05330393703,-0.177701969652,-4.52273006277,1.90347904152,4.79485378826,-0.496272022326,-9.93798248816,1.0031813812,3.48418729785,-2.64375286842,-6.95305829416,1.94616227694,-5.01538338423,
-5.89469430343,-0.576369908139,-1.97026142796,4.54396607998,5.50576149382,3.46536575121,0.364437046014,-0.512689692341,-2.29784122856,-3.26221583497,7.09712584037,1.5821224652,3.21757239786,-6.70874344216,-7.09050891138,-1.3478590881,-0.185963026237,-1.23353382134,1.75300926154,2.01451588287,2.15029549818,-2.40189998973,3.66624510092,-5.93768445502,-5.92830081272,-2.68639186402,-4.03978847299,-0.464150065516,2.48769700123,-3.74669535351,5.07910805179,-0.175417595076,-4.5428273241,1.90507126152,4.8281272005,-0.488941416262,-9.99165504441,0.994670738131,3.48930358728,-2.65897321228,-6.96974361262,1.94832334724,-5.01678889359,
-5.94507617883,-0.595187636699,-1.96549780666,4.60638152061,5.53374756901,3.48855789772,0.376471802498,-0.519621725894,-2.33209648542,-3.27802120724,7.16757803895,1.605642217,3.20466377865,-6.7939302228,-7.12186541743,-1.3581750922,-0.190559873182,-1.2344775463,1.77042644898,2.02114868183,2.16026733285,-2.40952655383,3.67539630014,-5.95307157998,-5.94257548868,-2.69692832462,-4.04481280637,-0.464949453779,2.48182230174,-3.7619258461,5.10434011075,-0.173339307385,-4.56245074202,1.90647538013,4.86044799579,-0.481885480227,-10.0437532822,0.986623762034,3.49459297195,-2.67390762433,-6.98616032787,1.95066563054,-5.01814897924,
-5.99424234979,-0.613558110823,-1.96046798921,4.66796558271,5.56060192196,3.51103545854,0.388195528214,-0.526692481537,-2.36600347422,-3.2933249382,7.23698002641,1.62857058151,3.191414902,-6.8777444811,-7.15147733903,-1.3680315369,-0.194885115578,-1.23527853081,1.78759948497,2.02751639213,2.16994769606,-2.41692738069,3.68420124666,-5.96796999042,-5.95640216337,-2.70718747663,-4.04966244667,-0.46570318866,2.47603753525,-3.77681770025,5.12902981649,-0.171501577401,-4.58166322898,1.90769862341,4.89187246353,-0.475125695955,-10.0943469811,0.979056994189,3.50005861138,-2.68854089575,-7.00229841551,1.95320114353,-5.01946364943,
-6.04221691165,-0.631574619775,-1.95521183168,4.72872066593,5.58637044294,3.53280755755,0.399661932715,-0.533882473733,-2.39955440977,-3.30814522754,7.30529990739,1.65104716733,3.17786102383,-6.96020936383,-7.17943697749,-1.37743251606,-0.198973103863,-1.23595006344,1.80453549516,2.03363999611,2.1793506056,-2.42411154878,3.69268168321,-5.98240267007,-5.96980232534,-2.71717860333,-4.05434704103,-0.466408570024,2.47034152825,-3.79138649653,5.15320445681,-0.169931113569,-4.60051771216,1.90875094452,4.92245014964,-0.468678032108,-10.1434988013,0.971978777536,3.50569817115,-2.70286299501,-7.01814812738,1.95593585002,-5.02073295884,
-6.08902560411,-0.64931506919,-1.94976210897,4.78864966056,5.61109453383,3.55388682327,0.410916617142,-0.541174840682,-2.43274123062,-3.32249725606,7.37251174954,1.67318516266,3.16402915496,-7.04135047436,-7.20582986625,-1.38638588325,-0.202854363744,-1.23650426992,1.82123999174,2.03953710646,2.18848868536,-2.43108745669,3.70085748929,-5.99639046854,-5.98279544453,-2.72690982106,-4.05887533626,-0.467062882051,2.46473390438,-3.8056463636,5.17688899717,-0.168647281626,-4.61905823289,1.90964436604,4.95222504713,-0.462553293507,-10.1912657206,0.965390276051,3.51150533291,-2.71686841807,-7.03370098273,1.9588708025,-5.02195709237,
-6.13469614834,-0.666841637178,-1.94414667374,4.84775653381,5.63481174757,3.5742890447,0.421996729338,-0.54855446056,-2.46555621661,-3.33639380111,7.43859653684,1.6950720381,3.14994137793,-7.1211956478,-7.23073506127,-1.39490283313,-0.206555416648,-1.23695261296,1.83771719608,2.04522233825,2.19737337158,-2.4378629625,3.70874687872,-6.00995251051,-5.99539935049,-2.73638843663,-4.06325530282,-0.467663611682,2.45921477442,-3.81961017451,5.20010620385,-0.167662731086,-4.63732098757,1.91039232013,4.98123650457,-0.456757579356,-10.237700205,0.95928655836,3.51747104283,-2.73055547533,-7.04895037588,1.96200319232,-5.02313642049,
-6.17925839271,-0.684201166206,-1.93839018084,4.90604662674,5.65755634342,3.59403271603,0.432931035875,-0.556007275467,-2.4979924336,-3.34984579783,7.50354249633,1.71677113474,3.13561745242,-7.19977458101,-7.25422556922,-1.40299739019,-0.210098776932,-1.23730624179,1.85397033129,2.05070770617,2.20601509808,-2.4444454834,3.71636657655,-6.0231065171,-6.00763053228,-2.74562124209,-4.06749424235,-0.46820861262,2.45378447532,-3.83328972613,5.2228767905,-0.166984152822,-4.65533529967,1.91100902852,5.00951991019,-0.451292812137,-10.2828511352,0.953657681562,3.52358450715,-2.74392556965,-7.06389187727,1.96532728431,-5.02427152939,
-6.22274428384,-0.701426136679,-1.9325154005,4.9635267383,5.67935977647,3.61313852283,0.443740340372,-0.56351980125,-2.53004402691,-3.36286283478,7.56734493521,1.73832390153,3.12107676606,-7.27711839219,-7.2763688696,-1.41068585533,-0.213503101099,-1.23757621404,1.87000187847,2.05600302348,2.21442345441,-2.45084206587,3.7237319752,-6.03586905519,-6.01950437353,-2.75461474753,-4.07159887952,-0.468696218102,2.44844336092,-3.84669589951,5.24521958063,-0.166613101869,-4.67312451786,1.91150895165,5.03710720658,-0.44615730297,-10.3267645197,0.94848972754,3.52983395739,-2.75698250633,-7.07852330186,1.96883522466,-5.02536322991,
-6.26518768959,-0.718536066437,-1.92654416174,5.02020506405,5.70025113725,3.63162881188,0.454438169439,-0.571078797353,-2.56170638779,-3.37545357941,7.6300057228,1.75975256366,3.10633970594,-7.35325916328,-7.29722749272,-1.41798625056,-0.21678345881,-1.23777361357,1.88581379327,2.06111628494,2.22260731495,-2.45705943483,3.73085727022,-6.04825572873,-6.031035335,-2.76337535557,-4.0755754395,-0.46912530767,2.44319164352,-3.85983879968,5.26715167892,-0.16654683227,-4.69070683869,1.91190632458,5.06402728445,-0.441346324633,-10.3694840266,0.943765757616,3.53620721435,-2.76973186435,-7.09284461074,1.97251771968,-5.02641254983,
-6.30662410731,-0.735539189466,-1.92049797767,5.07609104486,5.72025755373,3.64952707672,0.465031646859,-0.578671069604,-2.59297621819,-3.38762613495,7.69153253986,1.78106302941,3.09142853515,-7.42822950039,-7.31685962186,-1.42491779299,-0.219951693342,-1.23790958772,1.90140768244,2.06605402119,2.23057493999,-2.46310402874,3.73775557725,-6.06028132453,-6.0422370953,-2.77190948319,-4.07942971261,-0.469495334468,2.43802928269,-3.872727875,5.28868864499,-0.166779103609,-4.70809605474,1.91221478734,5.09030629449,-0.436852669218,-10.4110513689,0.939466662939,3.54269208272,-2.78218044708,-7.10685770282,1.97636458891,-5.02742071375,
-6.34709029366,-0.752434282712,-1.91439840909,5.13119516798,5.73940456316,3.66685748173,0.475522480937,-0.58628337929,-2.62385151801,-3.39938833303,7.75193800025,1.80224787123,3.07636785979,-7.50206213322,-7.33531969438,-1.43150041961,-0.223016839517,-1.23799532574,1.91678494185,2.07082161656,2.23833405221,-2.46898202572,3.74443903234,-6.07195992293,-6.0531226587,-2.78022363814,-4.08316710777,-0.46980632025,2.43295591589,-3.8853720167,5.30984466436,-0.167300930599,-4.72530222978,1.91244710974,5.11596790713,-0.4326671729,-10.4515065729,0.935571898091,3.54927660831,-2.79433582213,-7.12056614235,1.98036520116,-5.02838911488,
-6.38662385131,-0.769212529251,-1.90826722266,5.18552875187,5.7577164576,3.68364444017,0.485907997912,-0.593902433472,-2.65433151653,-3.41074796869,7.81123873147,1.82328924549,3.0611847699,-7.57478956501,-7.35265898175,-1.43775437655,-0.22598556951,-1.23804199742,1.93194685927,2.07542358618,2.24589189283,-2.47469936417,3.75091887787,-6.0833049818,-6.06370443747,-2.78832445758,-4.08679269639,-0.470058825409,2.42797082441,-3.89777964017,5.33063271209,-0.168101256915,-4.74233230401,1.91261500484,5.14103354127,-0.428779195301,-10.4908881592,0.932060094151,3.55594922827,-2.80620595203,-7.13397485868,1.98450880532,-5.02931928248,
-6.42526280497,-0.785859327268,-1.90212639656,5.23910373661,5.77521660413,3.69991225455,0.49618216472,-0.601514933847,-2.68441656748,-3.42171298465,7.86945448134,1.84416164467,3.04590873183,-7.64644377758,-7.36892613295,-1.443699879,-0.22886264074,-1.23806066829,1.94689468657,2.07986381129,2.25325526169,-2.48026176025,3.75720553637,-6.09432940064,-6.07399431493,-2.79621871705,-4.09031124846,-0.470253900964,2.42307292764,-3.90995874991,5.35106470598,-0.169167542553,-4.75919063231,1.91272902172,5.1655225761,-0.42517704534,-10.5292332594,0.928909554777,3.56269884305,-2.81779891236,-7.14708984527,1.98878477023,-5.03021284779,
-6.46304519301,-0.802355976027,-1.8959980203,5.29193249397,5.79192773862,3.71568482304,0.506336556295,-0.609107664461,-2.71410802359,-3.43229161179,7.92660729938,1.86483440386,3.03057130192,-7.71705599209,-7.38416766966,-1.44935684234,-0.231651324793,-1.23806220421,1.96162968673,2.08414573386,2.26043054549,-2.48567472384,3.76330867441,-6.10504557043,-6.08400369418,-2.8039133172,-4.09372726211,-0.470393028829,2.418260799,-3.92191699034,5.37115164686,-0.1704862605,-4.77587945973,1.91279850644,5.18945255468,-0.421848349314,-10.5665776885,0.926098644569,3.56951483505,-2.8291226896,-7.15991787742,1.99318274944,-5.03107151108,
-6.50000869479,-0.81868119097,-1.88990412811,5.3440276659,5.80787223108,3.73098541111,0.516361234876,-0.61666760189,-2.74340810332,-3.44249247189,7.98272082445,1.88527391025,3.01520572111,-7.7866564836,-7.39842842525,-1.45474468007,-0.234353801595,-1.23805717499,1.97615316147,2.0882725138,2.2674237376,-2.49094357361,3.76923725822,-6.1154654134,-6.09374353671,-2.8114152552,-4.09704498813,-0.470478055757,2.41353269705,-3.93366168489,5.39090374488,-0.172043303734,-4.79239933886,1.91283161891,5.21283938432,-0.418780360297,-10.6029559897,0.923606082687,3.57638705593,-2.84018504872,-7.17246626129,1.9976927866,-5.03189701137,
-6.53619030682,-0.834812419312,-1.88386649698,5.39540203502,5.82307232019,3.74583648517,0.526245520536,-0.624182034894,-2.77231975904,-3.45232464772,8.0378196947,1.90544548854,2.99984643992,-7.85527444609,-7.41175192287,-1.45988216144,-0.236971508217,-1.23805576362,1.99046646494,2.09224715241,2.27424045244,-2.49607345179,3.77499960283,-6.12560041589,-6.10322439387,-2.81873158661,-4.10026845043,-0.470511125388,2.40888660643,-3.94519986535,5.41033053101,-0.173824307673,-4.80874949455,1.91283539372,5.23569753617,-0.415960210627,-10.638401463,0.921411156655,3.58330579975,-2.85099345923,-7.18474262148,2.00230537638,-5.03269109978,
-6.57162607485,-0.850726943988,-1.87790643287,5.44606842798,5.83755031484,3.76025960245,0.535978642568,-0.631638683761,-2.80084655309,-3.46179772476,8.09192908299,1.92531495562,2.98452861237,-7.92293790397,-7.42418069073,-1.46478731946,-0.239505436501,-1.23806768538,2.00457100836,2.0960725869,2.280885937,-2.50106933861,3.7806034161,-6.13546165684,-6.11245643375,-2.82586938251,-4.10340146338,-0.470494611811,2.40432028392,-3.95653829387,5.42944095407,-0.175814896189,-4.82492814154,1.91281583362,5.25804024425,-0.413375111424,-10.6729461878,0.919493871435,3.59026177481,-2.86155506818,-7.19675472968,2.0070114938,-5.03345551706,
-6.6063508838,-0.866402777161,-1.87204456183,5.49603964959,5.85132876069,3.77427535043,0.545550269928,-0.639025812386,-2.82899254532,-3.47092180786,8.14507435106,1.94484985466,2.96928758817,-7.9896736652,-7.43575651519,-1.46947739954,-0.241956377727,-1.2381021187,2.01846825991,2.09975176019,2.28736508149,-2.50593606622,3.78605583884,-6.1450598331,-6.12144946491,-2.8328356857,-4.10644764679,-0.47043105713,2.39983130613,-3.96768347909,5.44824346397,-0.178000861333,-4.84093276076,1.91277802507,5.27987970315,-0.411012504523,-10.7066210452,0.917835047817,3.5972460824,-2.87187670906,-7.20851037373,2.01180260265,-5.03419197534,
-6.64039830361,-0.881819354377,-1.86630063691,5.54532844393,5.86443057033,3.78790332805,0.554950925367,-0.646332328469,-2.856762194,-3.47970751572,8.19728080832,1.96402039026,2.9541584239,-8.05550731157,-7.44652063421,-1.47396883911,-0.24432511571,-1.23816764891,2.03215974265,2.10328767038,2.29368243121,-2.5106783319,3.79136348229,-6.15440528251,-6.13021295776,-2.83963746855,-4.10941043905,-0.470323114691,2.395417116,-3.97864168814,5.46674608204,-0.180368287901,-4.85676033941,1.91272626642,5.30122726206,-0.40886017311,-10.739455745,0.91641638226,3.60425020688,-2.88196493633,-7.2200172637,2.01667065086,-5.03490214374,
-6.67380048628,-0.896958047118,-1.86069336774,5.59394747788,5.8768791163,3.80116216086,0.564172292323,-0.653547869041,-2.88416027028,-3.4881659557,8.24857355727,1.98280009463,2.93917542791,-8.12046322054,-7.45651387503,-1.47827726979,-0.246612571999,-1.23827222435,2.04564703273,2.10668340352,2.29984220066,-2.51530071003,3.79653246387,-6.163508005,-6.13875606417,-2.84628159437,-4.11229310886,-0.470173498942,2.39107506633,-3.98941895568,5.48495645978,-0.182903634128,-4.87240757935,1.91266420077,5.32209361213,-0.406906317624,-10.7714788592,0.915220478039,3.61126601762,-2.89182607656,-7.23128296975,2.02160805841,-5.03558763758,
-6.70658810779,-0.911802515299,-1.85524027634,5.64190934145,5.88869828692,3.8140695421,0.573207426252,-0.660662869903,-2.91119178563,-3.49630868136,8.29897740587,2.00116625884,2.92437174826,-8.18456461354,-7.46577674091,-1.48241753441,-0.248819908266,-1.2384231246,2.05893175908,2.10994215282,2.30584829125,-2.51980766255,3.80156844187,-6.1723776816,-6.1470876351,-2.8527747837,-4.11509876586,-0.469984942368,2.3868024589,-4.00002109102,5.50288192736,-0.185593779194,-4.88787107707,1.91259494636,5.34248896358,-0.405139603418,-10.8027178626,0.914230855326,3.61828578125,-2.90146628829,-7.24231488595,2.02660770121,-5.03625001048,
-6.73879034772,-0.926338922729,-1.84995758082,5.68922655982,5.89991250585,3.82664229219,0.5820508832,-0.667668618489,-2.93786193112,-3.50414763521,8.34851682748,2.01910016448,2.90977900999,-8.24783362498,-7.47434945209,-1.48640371316,-0.250948591729,-1.23862693985,2.072015605,2.11306722708,2.31170431302,-2.52420354751,3.80647664977,-6.18102369106,-6.15521623618,-2.85912358573,-4.11783037033,-0.469760159522,2.38259657879,-4.01045368402,5.52052953324,-0.188426047107,-4.90314747805,1.91252121905,5.36242320867,-0.403549186138,-10.8331991801,0.913431945776,3.62530218078,-2.91089162404,-7.25312021372,2.03166289289,-5.03689074902,
-6.7704348992,-0.940556038348,-1.84486010714,5.73591161193,5.91054671694,3.83889642943,0.590698778555,-0.674557290368,-2.96417602725,-3.51169507949,8.39721595128,2.03658715061,2.8954270052,-8.31029138642,-7.4822719466,-1.4902491542,-0.253000429615,-1.23888956054,2.08490031162,2.11606205023,2.31741361041,-2.52849262547,3.81126193032,-6.18945512399,-6.16315016097,-2.86533435544,-4.12049074224,-0.469501817865,2.37845472339,-4.02072211047,5.53790607621,-0.191388215061,-4.91823360698,1.91244544245,5.38190606676,-0.402124720172,-10.8629482403,0.912809075651,3.63230833744,-2.92010808922,-7.26370595871,2.03676736517,-5.0375112693,
-6.8015480021,-0.954445244637,-1.83996122833,5.78197695142,5.92062633715,3.85084724558,0.599148788241,-0.681321969987,-2.99013948315,-3.51896351759,8.44509856879,2.0536165485,2.881343438,-8.3719581203,-7.48958384617,-1.49396650538,-0.254977578513,-1.23921617662,2.09758768282,2.11893015409,2.32297929192,-2.53267906365,3.81592876958,-6.19768079398,-6.17089744166,-2.87141323599,-4.12308256951,-0.46921251496,2.37437422625,-4.03083153726,5.55501813106,-0.194468512741,-4.93312657514,1.91236984276,5.40094720825,-0.400856354702,-10.8919895321,0.912348440296,3.63929783114,-2.92912169397,-7.274078936,2.04191524703,-5.0381129151,
-6.83215449297,-0.96800047258,-1.83527283017,5.82743502639,5.93017718091,3.86250938091,0.607400103595,-0.687956656579,-3.01575776393,-3.5259656094,8.49218814544,2.07018151369,2.86755372507,-8.43285323794,-7.49632439288,-1.49756774495,-0.256882533975,-1.23961128558,2.11007959112,2.12167516559,2.32840426266,-2.53676693785,3.82048133079,-6.20570924594,-6.17846585719,-2.8773661463,-4.12560841583,-0.468894761375,2.37035247606,-4.04078692764,5.57187206901,-0.197655617424,-4.9478238656,1.91229652644,5.41955635484,-0.399734721112,-10.9203466628,0.912037072017,3.64626471594,-2.93793849482,-7.2842457789,2.04710104266,-5.03869695728,
-6.86227786599,-0.981218080168,-1.83080530196,5.87229829537,5.93922536028,3.87389689399,0.615453349959,-0.694456256344,-3.04103636544,-3.53271408347,8.5385078296,2.08627878149,2.85408085142,-8.49299543724,-7.50253236156,-1.50106420983,-0.258718105179,-1.24007870845,2.12237798379,2.12430078993,2.33369125912,-2.54076023217,3.82492348764,-6.21354876151,-6.18586293875,-2.88319877315,-4.12807072782,-0.468550968637,2.36638693111,-4.05059304676,5.58847407398,-0.200938648235,-4.96232339707,1.91222753986,5.43774335476,-0.398750914766,-10.9480424171,0.911862802984,3.65320352781,-2.94656462456,-7.29421294803,2.05231960796,-5.03926459399,
-6.89194034009,-0.994096689081,-1.82656755068,5.91657923788,5.94779716546,3.88502332296,0.623310477746,-0.700816562149,-3.06598079552,-3.53922164894,8.5840804543,2.10190836832,2.84094528036,-8.55240279584,-7.50824595339,-1.50446662086,-0.260487378804,-1.24062161327,2.13448488874,2.12681079066,2.33884288457,-2.54466283698,3.82925885672,-6.22120736185,-6.193095973,-2.88891656733,-4.13047184181,-0.468183441483,2.36247512977,-4.0602544676,5.6048301553,-0.204307161609,-4.97662356719,1.91216491128,5.45551823256,-0.397896473477,-10.9750988122,0.911814224475,3.66010928303,-2.95500630941,-7.30398673819,2.05756612583,-5.03981695176,
-6.92116292829,-1.0066369919,-1.8225670369,5.96029035858,5.95591893098,3.89590173578,0.630974633604,-0.707034222132,-3.0905965612,-3.54550091008,8.62892852944,2.11707323817,2.82816491526,-8.6110928567,-7.51350267554,-1.50778510488,-0.26219367566,-1.24124254507,2.14640241963,2.12920896786,2.34386164415,-2.54847854525,3.83349082855,-6.22869280833,-6.20017200332,-2.8945247433,-4.13281399007,-0.467794373724,2.35861469746,-4.06977557721,5.62094615791,-0.20775114895,-4.99072327653,1.91211067621,5.4728912143,-0.397163354421,-11.0015371499,0.911880643712,3.66697746671,-2.96326987336,-7.31357328168,2.0628360804,-5.04035508693,
-6.94996550622,-1.01884154021,-1.81880983024,6.00344418504,5.96361689261,3.9065447681,0.638450018197,-0.713106698648,-3.11488916123,-3.55156428582,8.67307422424,2.13177894968,2.81575511019,-8.66908270374,-7.51833921191,-1.51102921376,-0.263840503009,-1.24194346154,2.15813277988,2.13149913515,2.34874997818,-2.55221104787,3.83762259684,-6.23601260143,-6.20709782949,-2.90002828157,-4.13509930662,-0.467385847003,2.35480335088,-4.07916058334,5.63682777038,-0.211261036682,-5.00462193488,1.91206688774,5.48987273,-0.396543910774,-11.0273780639,0.912052039444,3.67380401179,-2.97136173055,-7.32297854734,2.06812523086,-5.04087998769,
-6.97836687777,-1.03071452222,-1.81530068217,6.0460532592,5.97091704011,3.91696464839,0.645741736246,-0.719032219113,-3.13886408332,-3.55742393625,8.71653934102,2.14603329713,2.80372872528,-8.72638902605,-7.52279128963,-1.51420794094,-0.265431504983,-1.2427257737,2.16967826537,2.1336850965,2.35351029275,-2.55586392816,3.84165718549,-6.2431739785,-6.2138800064,-2.90543193355,-4.13732983261,-0.466959831815,2.35103889966,-4.08841352138,5.65248053147,-0.214827688343,-5.01831945167,1.91203561404,5.50647339614,-0.396030868953,-11.0526415599,0.912319017339,3.68058526952,-2.97928836687,-7.33220833542,2.0734295852,-5.0413925763,
-7.00638483623,-1.04226153689,-1.81204311363,6.08813012359,5.97784497067,3.92717321081,0.652855643602,-0.724809720311,-3.16252680546,-3.56309169758,8.75934528211,2.15984595538,2.79209622206,-8.78302817041,-7.52689354583,-1.51732973593,-0.266970413048,-1.24359039029,2.18104126566,2.13577062346,2.35814498659,-2.55944065614,3.84559747304,-6.25018391098,-6.22052484225,-2.91074022793,-4.13950752135,-0.466518190212,2.34731924633,-4.09753826144,5.66790983546,-0.218442407996,-5.03181621292,1.9120189255,5.52270398131,-0.395617307056,-11.077347051,0.912672766171,3.6873179733,-2.98705631244,-7.34126826888,2.07874537486,-5.04189371161,
-7.03403622039,-1.05348937041,-1.80903951465,6.12968730305,5.98442574717,3.93718189689,0.659798195451,-0.730438787807,-3.18588280059,-3.56857902672,8.80151301236,2.173228137,2.78086579291,-8.83901618195,-7.53067939882,-1.5204025174,-0.268460998044,-1.2445377651,2.19222426379,2.13775943335,2.36265647369,-2.56294458293,3.84944621431,-6.25704910157,-6.22703839668,-2.91595747856,-4.14163424293,-0.466062679683,2.34364238474,-4.10653851563,5.6831209367,-0.222096944119,-5.04511304717,1.912018874,5.53857535905,-0.395296634842,-11.1015133854,0.913105015622,3.6939991975,-2.99467210707,-7.35016378186,2.08406903063,-5.04238419178,
-7.06133696533,-1.06440577976,-1.80629125319,6.17073728328,5.99068376504,3.94700174785,0.666576299058,-0.735919592055,-3.20893754392,-3.57389695576,8.84306301934,2.18619226764,2.77004351876,-8.89436883409,-7.53418092737,-1.52343368553,-0.269907024986,-1.24556794606,2.20322983468,2.13965516907,2.36704720118,-2.56637893557,3.85320605911,-6.26377598174,-6.2334264794,-2.92108779297,-4.14371178853,-0.465594957765,2.34000639753,-4.11541784533,5.69811895361,-0.225783493086,-5.05821118296,1.91203746684,5.55409845134,-0.395062575437,-11.1251588686,0.913607996346,3.70062631355,-3.0021422606,-7.35890010644,2.08939716049,-5.04286475714,
-7.08830214807,-1.0750192869,-1.80379879015,6.21129248718,5.99664263063,3.95664338941,0.673197173892,-0.741252822779,-3.23169652203,-3.57905605671,8.88401527381,2.19875168414,2.75963354817,-8.94910164873,-7.53742876134,-1.52643013412,-0.271312211506,-1.24668062513,2.21406064224,2.14146138067,2.3713196624,-2.56974681254,3.85687956806,-6.27037071019,-6.23969464944,-2.92613508158,-4.14574187441,-0.465116587054,2.33640945286,-4.12417966843,5.71290887224,-0.229494701446,-5.07111220039,1.91207663763,5.56928416672,-0.394909148804,-11.14830128,0.914174402759,3.70719694498,-3.00947321047,-7.36748225871,2.09472652971,-5.04333609308,
-7.11494602858,-1.08533898654,-1.8015617975,6.25136525025,6.0023250534,3.96611701146,0.679668221381,-0.746439623127,-3.25416524302,-3.58406641599,8.92438919208,2.21092035834,2.74963829154,-9.00322990841,-7.54045198627,-1.52939826292,-0.272680190561,-1.24787518788,2.22471943526,2.14318150912,2.37547640531,-2.57305118029,3.86046922544,-6.27683917228,-6.24584821552,-2.93110306703,-4.14772614561,-0.46462904032,2.33284980072,-4.13282726648,5.72749554965,-0.233223666335,-5.0838179793,1.9121382164,5.58414333615,-0.394830656927,-11.1709578842,0.914797358826,3.71370892331,-3.01667127831,-7.37591502508,2.10005404353,-5.04379883308,
-7.14128208703,-1.09537436964,-1.7995792768,6.29096779581,6.00775275353,3.97543234471,0.68599690605,-0.75148152496,-3.27634924682,-3.58893761813,8.96420360189,2.22271264847,2.74005862379,-9.05676866178,-7.54327806393,-1.53234399067,-0.274014477805,-1.24915076191,2.23520904242,2.14481887239,2.37952003641,-2.5762948708,3.86397744948,-6.28318698081,-6.25189223748,-2.93599529352,-4.14966617945,-0.46413370553,2.329325769,-4.14136379156,5.74188371707,-0.236963933561,-5.09633064604,1.91222390053,5.59868664979,-0.394821670598,-11.1931454391,0.915470386928,3.72016024597,-3.02374262756,-7.38420294981,2.10537673241,-5.04425356171,
-7.16732305778,-1.10513516384,-1.79784967528,6.33011221109,6.01294638589,3.98459863653,0.692190649262,-0.756380386495,-3.29825411501,-3.59367873797,9.00347671319,2.23414307893,2.73089408946,-9.10973272429,-7.54593277035,-1.53527276906,-0.275318443814,-1.25050626328,2.24553236629,2.14637665388,2.38345322073,-2.57948058031,3.86740660014,-6.28941947818,-6.25783152899,-2.94081513605,-4.15156348873,-0.463631890625,2.32583575956,-4.14979227306,5.75607798308,-0.240709493045,-5.10865252102,1.91233522815,5.61292459703,-0.39487701764,-11.2148801999,0.916187379766,3.72654903759,-3.03069322357,-7.39235032427,2.11069173983,-5.04470081764,
-7.19308096112,-1.11463119188,-1.79637099713,6.36881042459,6.01792548063,3.99362462792,0.698256736342,-0.761138333359,-3.31988547947,-3.59829834009,9.04222609427,2.24522614847,2.72214310481,-9.16213667538,-7.54844015192,-1.53818959785,-0.276595291234,-1.2519404402,2.25569237686,2.1478578933,2.38727867838,-2.58261086919,3.87075898468,-6.29554173997,-6.26367066153,-2.94556580926,-4.15341952475,-0.463124827969,2.32237824427,-4.15811562406,5.77008283669,-0.244454771516,-5.12078606829,1.91247355506,5.62686741159,-0.394991772385,-11.2361779212,0.916942575141,3.73287351531,-3.03752879758,-7.40036117868,2.11599631258,-5.04514109655,
-7.21856713352,-1.12387224806,-1.79514090788,6.4070741854,6.02270840044,4.0025185331,0.704202237417,-0.765757703882,-3.3412490293,-3.60280448474,9.08046865406,2.25597616615,2.71380315222,-9.21399485352,-7.55082250003,-1.54109904121,-0.277848036725,-1.25345191347,2.26569210432,2.14926547976,2.39099917822,-2.58568816302,3.87403686138,-6.30155857985,-6.26941396949,-2.95025037606,-4.15523568014,-0.462613678413,2.3189517613,-4.16633664753,5.78390265041,-0.24819462248,-5.13273384864,1.91264003599,5.64052502331,-0.395161246219,-11.2570538575,0.917730533349,3.73913195856,-3.04425481547,-7.40823927634,2.12128779314,-5.04557485409,
-7.24379225683,-1.13286799264,-1.79415683027,6.44491504473,6.02731231361,4.01128802333,0.710033941931,-0.77024099926,-3.36235051564,-3.60720473891,9.1182206305,2.26640711376,2.70587096267,-9.26532135041,-7.55310034369,-1.54400524537,-0.279079497516,-1.25503921314,2.27553463163,2.15060214728,2.39461752942,-2.58871475468,3.8772424418,-6.30747455583,-6.27506555642,-2.95487175567,-4.15701329155,-0.46209953497,2.31555491147,-4.17445804211,5.79754168332,-0.251924313618,-5.14449847692,1.91283561063,5.65390701713,-0.395380978983,-11.277522763,0.918546116922,3.74532268362,-3.05087645207,-7.41598811083,2.12656361393,-5.04600250861,
-7.26876638721,-1.1416278637,-1.7934160303,6.48234433985,6.03175318232,4.01994021557,0.71575830648,-0.774590839026,-3.38319575403,-3.61150619168,9.15549758515,2.27653253338,2.6983426836,-9.31613000491,-7.55529245957,-1.5469119574,-0.280292282272,-1.25670081128,2.28522308675,2.15187047217,2.39813657123,-2.5916928074,3.88037789159,-6.3132939775,-6.28062930215,-2.95943273136,-4.15875364212,-0.461583426108,2.31218635491,-4.18248240768,5.81100408418,-0.25563951187,-5.15608258426,1.91306099471,5.66702260002,-0.395646731057,-11.2975988913,0.919384472396,3.75144402292,-3.05739857129,-7.42361090592,2.13182129321,-5.04642444391,
-7.29349898404,-1.15016100528,-1.79291569267,6.51937318047,6.03604576467,4.02848166699,0.721381415292,-0.778809922035,-3.40379062423,-3.61571547271,9.19231440368,2.28636543801,2.69121402971,-9.36643439765,-7.55741589819,-1.54982254514,-0.281488785909,-1.25843515057,2.29476063472,2.15307287251,2.40155916185,-2.5946243587,3.88344533057,-6.31902091441,-6.28610887081,-2.96393595775,-4.16045796387,-0.461066318694,2.30884480792,-4.19041225053,5.82429389441,-0.259336266518,-5.16748878545,1.91331667603,5.6798805757,-0.395954475961,-11.317295995,0.920241013817,3.75749430883,-3.06382571233,-7.43111061827,2.13705843212,-5.0468410118,
-7.31799893913,-1.15847621104,-1.79265298512,6.55601243765,6.04020362932,4.03691837531,0.726908952511,-0.782900993012,-3.4241410674,-3.61983877315,9.22868530181,2.29591824327,2.6844804154,-9.41624784662,-7.55948602489,-1.55274001798,-0.282671187968,-1.26024066883,2.30415046981,2.15421160921,2.40488816663,-2.59751132495,3.8864468319,-6.32465920507,-6.29150771937,-2.96838396755,-4.16212743996,-0.460549120629,2.30552903998,-4.19824998825,5.83741505119,-0.263010990617,-5.17871965162,1.9136029153,5.69248932699,-0.396300393299,-11.3366273271,0.921111407692,3.7634718618,-3.0701620817,-7.43848994261,2.14227271276,-5.04725253458,
-7.34227460634,-1.16658188181,-1.79262511176,6.59227273508,6.04423918118,4.04525578526,0.732346185229,-0.786866814536,-3.44425308078,-3.62388186798,9.26462383633,2.30520271814,2.67813706838,-9.46558340409,-7.56151657387,-1.55566704838,-0.28384145412,-1.2621158194,2.31339580761,2.15528878868,2.40812644623,-2.60035550659,3.88938442098,-6.3302124667,-6.29682910678,-2.9727791781,-4.16376320677,-0.460032683222,2.30223787108,-4.20599795434,5.85037139039,-0.266660441153,-5.18977768798,1.91391975126,5.70485680536,-0.396680861947,-11.3556056424,0.921991559145,3.76937498226,-3.07641155093,-7.44575131911,2.14746189688,-5.04765930733,
-7.36633383171,-1.17448599586,-1.79282935561,6.62816444254,6.04816369667,4.05349880073,0.737697956145,-0.790710144207,-3.46413271003,-3.6278501393,9.30014292054,2.31422995237,2.67217912447,-9.5144538549,-7.5635197136,-1.55860599388,-0.285001340364,-1.26405908783,2.32249987733,2.15630636678,2.41127684498,-2.60315859374,3.89226007393,-6.33568410536,-6.3020761033,-2.97712389733,-4.16536635596,-0.459517803356,2.29897016917,-4.2136584025,5.86316664958,-0.27028169829,-5.20066531653,1.91426700979,5.71699052694,-0.397092453359,-11.3742432011,0.922877599064,3.77520194597,-3.08257765938,-7.45289694279,2.15262382508,-5.04806160013,
-7.39018398392,-1.18219609026,-1.79326311093,6.66369767147,6.05198736693,4.06165180229,0.742968684624,-0.794433716633,-3.48378603942,-3.63174859991,9.3352548435,2.32301033861,2.66660170419,-9.56287171627,-7.56550612162,-1.5615589194,-0.286152399492,-1.26606900491,2.3314659143,2.15726615387,2.4143421798,-2.60592217207,3.89507571605,-6.34107732636,-6.30725160015,-2.98142032953,-4.16693793635,-0.459005225483,2.29572484775,-4.22123351063,5.87580447086,-0.273872144051,-5.21138486318,1.91464431631,5.7288975744,-0.397531924906,-11.3925517736,0.923765872041,3.78095100225,-3.08866362161,-7.4599287744,2.1577564162,-5.04845966007,
-7.41383198511,-1.18971925201,-1.79392390611,6.69888227228,6.05571934764,4.06971866956,0.748162374941,-0.798040229802,-3.50321918028,-3.63558191672,9.36997129248,2.33155356694,2.66139997244,-9.61084923892,-7.56748506694,-1.56452761952,-0.287295989418,-1.26814415643,2.34029715276,2.15816982077,2.41732522989,-2.60864772895,3.89783322031,-6.34639514489,-6.31235831908,-2.98567058064,-4.16847895579,-0.4584956435,2.29250086373,-4.22872538462,5.88828840367,-0.277429440763,-5.22193854898,1.91505111084,5.74058460378,-0.397996213206,-11.4105426469,0.924652924991,3.78662037468,-3.09467233886,-7.46684855263,2.1628576669,-5.04885371325,
-7.43728434171,-1.19706211736,-1.79480941811,6.7337278334,6.05936781387,4.07770280755,0.753282630495,-0.801532335351,-3.52243825801,-3.63935443375,9.40430337799,2.33986863009,2.65656918248,-9.65839840955,-7.5694644981,-1.56751364071,-0.28843328296,-1.27028319006,2.34899681888,2.15901890548,2.42022872735,-2.61133665964,3.90053440593,-6.35164039661,-6.31739882205,-2.98987666337,-4.16999038285,-0.457989702539,2.28929721529,-4.23613606181,5.9006219076,-0.28095150955,-5.23232848499,1.91548666535,5.75205785564,-0.398482427368,-11.4282266326,0.9255354963,3.79220826372,-3.10060641365,-7.47365780721,2.16792565107,-5.04924396649,
-7.4605471752,-1.20423087811,-1.79591747956,6.76824368168,6.06294001869,4.08560717642,0.758332672836,-0.804912632219,-3.54144939803,-3.64307019428,9.4382616607,2.34796383721,2.65210470613,-9.70553095431,-7.57145113529,-1.5705183031,-0.289565278737,-1.27248481971,2.35756812423,2.1598148203,2.42305534881,-2.61399027341,3.90318103722,-6.35681574811,-6.3223755206,-2.99404050195,-4.17147314851,-0.457488000702,2.28611293999,-4.24346751434,5.91280835497,-0.284436509107,-5.2425566701,1.91595010248,5.76332316963,-0.398987842159,-11.4456140762,0.926410505438,3.79771285086,-3.10646816717,-7.48035787265,2.17295851927,-5.04963060904,
-7.48362625252,-1.21123129346,-1.79724607939,6.80243888398,6.06644235425,4.09343432377,0.763315364408,-0.808183663175,-3.56025871096,-3.6467329622,9.47185617979,2.35584683475,2.6480020517,-9.75225834326,-7.57345056476,-1.57354272175,-0.290692812848,-1.27474782767,2.36601425957,2.16055885946,2.4258077082,-2.61660979968,3.90577482266,-6.3619237073,-6.32729068516,-2.99816393665,-4.17292814773,-0.456991090769,2.28294711287,-4.25072165212,5.92485103347,-0.28788281499,-5.25262499155,1.91644041535,5.77438600177,-0.399509891047,-11.4627148679,0.927275042953,3.80313230389,-3.11225965862,-7.48694990226,2.17795449781,-5.05001381409,
-7.50652701585,-1.21806870637,-1.79879335835,6.83632224982,6.06988041422,4.1011864188,0.768233234012,-0.811347913726,-3.57887227759,-3.65034624216,9.50509648202,2.36352463272,2.64425687174,-9.79859179564,-7.57546733406,-1.5765878273,-0.291816571039,-1.27707106496,2.37433838906,2.16125220687,2.42848835059,-2.61919639393,3.9083174142,-6.36696663346,-6.33214645395,-3.00224872809,-4.17435624097,-0.456499481896,2.27979884474,-4.25790032579,5.93675314861,-0.291288999556,-5.26253522751,1.91695648777,5.78525144382,-0.400046159141,-11.479538455,0.9281263608,3.80846478283,-3.11798270592,-7.49343488229,2.18291188774,-5.05039374024,
-7.52925461164,-1.22474806334,-1.80055760039,6.86990233489,6.07325905664,4.10886528745,0.773088504084,-0.814407812923,-3.59729613376,-3.65391329871,9.53799165121,2.37100363511,2.64086496217,-9.84454228569,-7.57750504681,-1.57965438569,-0.292937101112,-1.27945345019,2.38254364488,2.1618959439,2.43109974716,-2.6217511434,3.91081040697,-6.37194674697,-6.33694484168,-3.00629656125,-4.1757582556,-0.456013641316,2.27666728053,-4.26500532931,5.94851782612,-0.294653812707,-5.27228905132,1.91749711445,5.79592424412,-0.400594376025,-11.4960938546,0.928961862974,3.81370844634,-3.12363890729,-7.49981364589,2.18782906343,-5.05077053279,
-7.55181391861,-1.23127393657,-1.80253722075,6.9031874452,6.07658246614,4.11647244801,0.777883118995,-0.817365735654,-3.61553625561,-3.65743717422,9.57055033753,2.37828967312,2.63782225468,-9.89012054898,-7.57956645588,-1.5827430171,-0.294054825356,-1.2818939673,2.39063312229,2.1624910572,2.43364429117,-2.62427507264,3.91325533919,-6.3768661387,-6.3416877478,-3.0103090494,-4.17713498734,-0.455533996054,2.27355159766,-4.27203840249,5.96014811429,-0.297976163523,-5.28188803699,1.9180610209,5.80640882926,-0.401152408503,-11.5123896683,0.929779096399,3.81886145817,-3.12922966316,-7.50608688679,2.192704471,-5.05114432494,
-7.57420957465,-1.23765054787,-1.80473075197,6.93618564187,6.07985421503,4.12400914652,0.782618773699,-0.82022400602,-3.63359854534,-3.66092070564,9.60278078633,2.38538804028,2.63512480383,-9.93533708914,-7.58165355381,-1.58585421382,-0.295170052824,-1.28439166238,2.39860987508,2.16303844625,2.43612429498,-2.62676914864,3.91565369245,-6.38172677902,-6.34637696441,-3.01428773773,-4.1784872015,-0.455060934665,2.27045100452,-4.27900123337,5.97164698618,-0.301255102841,-5.29133366556,1.9186468825,5.81670932629,-0.401718253265,-11.5284340965,0.930575742073,3.82392199359,-3.13475619795,-7.51225517243,2.19753662628,-5.05151523896,
-7.59644600231,-1.24388179351,-1.80713682833,6.96890474632,6.08307732234,4.13147639145,0.787296942137,-0.822984901467,-3.65148881787,-3.66436654014,9.63469086609,2.3923035285,2.63276877032,-9.98020218483,-7.5837676599,-1.58898835708,-0.296282991301,-1.28694563994,2.40647691152,2.16353893073,2.43854198792,-2.6292342858,3.91800689215,-6.38653052632,-6.3510141838,-3.01823410687,-4.17981563431,-0.454594808985,2.26736473905,-4.28589546035,5.98301734176,-0.304489806827,-5.3006273321,1.91925334263,5.82682958495,-0.402290029512,-11.5442349545,0.931349606437,3.8288882454,-3.14021958146,-7.5183189566,2.2023241127,-5.05188338717,
-7.61852743294,-1.24997126937,-1.80975416963,7.00135234584,6.08625431062,4.13887498717,0.791918904951,-0.825650657392,-3.6692127884,-3.66777714963,9.66628809527,2.3990404643,2.63075040168,-10.0247258969,-7.58590950316,-1.59214573289,-0.297393758852,-1.28955505863,2.41423719063,2.16399325754,2.44089951511,-2.63167135049,3.92031630833,-6.39127913517,-6.35560100558,-3.02214957619,-4.18112099408,-0.454135935909,2.26429206725,-4.29272267429,5.99426200997,-0.307679561541,-5.30977035289,1.91987902961,5.8367731996,-0.402865971545,-11.559799688,0.932098612963,3.83375842956,-3.14562074947,-7.52427859125,2.20706557869,-5.05224887291,
-7.64045792936,-1.25592229615,-1.81258156482,7.0335357994,6.08938725978,4.14620556599,0.796485776118,-0.828223471968,-3.68677606117,-3.67115484419,9.69757966793,2.40560274473,2.62906601131,-10.0689180759,-7.58807930069,-1.59532654667,-0.298502394859,-1.29221912695,2.42189361898,2.1644021074,2.44319893687,-2.63408116538,3.92258325654,-6.39597426397,-6.36013894337,-3.02603550706,-4.18240396236,-0.453684599173,2.26123228191,-4.29948442046,6.00538375073,-0.310823748494,-5.31876397279,1.9205225723,5.84654353072,-0.403444421355,-11.5751353898,0.932820793947,3.83853079024,-3.15096052339,-7.53013433774,2.21175973495,-5.05261179142,
-7.66224140694,-1.26173794393,-1.81561785593,7.06546224374,6.092477858,4.15346861839,0.800998528239,-0.830705511012,-3.70418411939,-3.67450178457,9.72857247772,2.41199387229,2.627711957,-10.1127883692,-7.59027683111,-1.59853093692,-0.299608870482,-1.29493709867,2.42944904778,2.1647661011,2.44544222895,-2.63646451342,3.92480899907,-6.40061748224,-6.36462943119,-3.02989320582,-4.18366519507,-0.453241051163,2.25818470119,-4.30618220034,6.01638525682,-0.313921831174,-5.32760937236,1.92118261421,5.85614372556,-0.404023821233,-11.5902488157,0.933514282502,3.84320360416,-3.15623962876,-7.53588637717,2.21640535142,-5.05297223063,
-7.68388165318,-1.26742105606,-1.81886192274,7.09713859952,6.09552744921,4.16066452124,0.805458016271,-0.833098912734,-3.72144231646,-3.6778199936,9.7592731404,2.41821698869,2.62668461929,-10.1563462291,-7.59250150294,-1.60175898771,-0.300713098505,-1.29770826845,2.43690627045,2.16508580522,2.44763128321,-2.63882214153,3.92699474625,-6.4052102774,-6.36907382937,-3.03372392674,-4.18490532353,-0.452805514716,2.25514866741,-4.31281747337,6.02726915576,-0.316973342497,-5.33630767484,1.92185782617,5.86557673806,-0.404602706425,-11.6051464015,0.934177304736,3.84777518433,-3.16145871252,-7.54153482001,2.22100125408,-5.05333027187,
-7.70538234568,-1.27297427205,-1.82231266845,7.12857157765,6.09853707731,4.16779356397,0.8098649996,-0.835405792262,-3.7385558685,-3.68111136685,9.78968801466,2.42427490703,2.6259803805,-10.19960092,-7.59475241764,-1.60501074026,-0.301814942541,-1.30053196749,2.44426802048,2.16536173747,2.44976790888,-2.64115476399,3.92914165786,-6.4097540612,-6.37347343018,-3.0375288748,-4.18612495549,-0.452378184925,2.25212354573,-4.31939165857,6.03803801154,-0.319977873144,-5.34485995267,1.9225469175,5.87484534773,-0.405179697844,-11.6198342791,0.934808172115,3.85224388296,-3.16661835891,-7.54707971492,2.22554632144,-5.05368599057,
-7.7267470687,-1.27840004928,-1.82596900652,7.15976768564,6.10150752684,4.17485597262,0.814220162353,-0.837628245855,-3.75552984815,-3.68437768232,9.81982322117,2.4301701423,2.62559560469,-10.2425615264,-7.59702842757,-1.60828620343,-0.302914225589,-1.30340755946,2.45153696971,2.16559437145,2.45185383417,-2.64346306555,3.93125084472,-6.41425017566,-6.37782946305,-3.04130920838,-4.18732467607,-0.451959230941,2.24910872301,-4.32590613609,6.04869432639,-0.322935060733,-5.35326723359,1.92324864567,5.88395217744,-0.405753494877,-11.6343182923,0.935405274007,3.85660809374,-3.17171910408,-7.55252105685,2.23003948096,-5.05403945687,
-7.74797932815,-1.28370068354,-1.82982984881,7.19073323402,6.10443936035,4.1818519317,0.818524131987,-0.839768354759,-3.77236917964,-3.68762060941,9.84968466006,2.43590494001,2.62552661876,-10.2852369609,-7.59932818877,-1.61158536331,-0.304010737956,-1.30633443666,2.45871572687,2.16578414104,2.45389070826,-2.64574770431,3.93332337029,-6.4186998987,-6.38214309947,-3.0450660418,-4.18850504873,-0.451548797755,2.24610360654,-4.33236224871,6.05924054241,-0.32584457976,-5.36153050623,1.92396182461,5.89289971029,-0.40632286828,-11.6486040136,0.935967070388,3.86086625337,-3.17676144936,-7.55785879435,2.23447970529,-5.05439073615,
-7.76908256532,-1.28887832822,-1.83389409508,7.22147434275,6.10733295232,4.18878160402,0.82277749614,-0.841828188676,-3.78907863498,-3.6908417171,9.87927802655,2.44148130304,2.62576969506,-10.327635972,-7.60165020879,-1.61490819191,-0.305104244557,-1.30931201635,2.46580683646,2.1659314443,2.45588010353,-2.64800931432,3.93536025238,-6.42310444934,-6.3864154576,-3.04880044783,-4.18966661613,-0.451147007967,2.24310762293,-4.33876130321,6.06967904319,-0.32870613226,-5.3696507252,1.92468533157,5.90169030531,-0.406886653206,-11.6626967589,0.93649208473,3.86501684247,-3.18174587319,-7.56309283631,2.23886600829,-5.05473988959,
-7.79006016915,-1.29393501232,-1.83816062385,7.25199694762,6.11018852003,4.19564514844,0.826980817852,-0.843809808834,-3.80566283136,-3.69404248141,9.90860882513,2.4469010165,2.62632103531,-10.3697671522,-7.60399288991,-1.618254655,-0.306194491626,-1.31233973753,2.47281277791,2.16603664691,2.45782351805,-2.65024850793,3.9373624649,-6.42746499263,-6.39064760649,-3.05251346005,-4.190809901,-0.450753963525,2.24012021697,-4.34510457173,6.08001215538,-0.331519439118,-5.37762881558,1.9254181129,5.91032621214,-0.407443742341,-11.6766016029,0.93697889704,3.86905838584,-3.18667284187,-7.56822305797,2.24319744108,-5.05508697461,
-7.81091548737,-1.29887265715,-1.84262828452,7.28230680665,6.11300615122,4.20244273584,0.831134649224,-0.845715270675,-3.82212622944,-3.69722429231,9.937682382,2.45216567089,2.62717675605,-10.4116389461,-7.60635456784,-1.62162471925,-0.307281212862,-1.31541705788,2.47973596502,2.16610008523,2.45972237819,-2.652465878,3.93933093952,-6.4317826441,-6.39484057015,-3.05620607511,-4.19193540692,-0.450369747438,2.23714085047,-4.35139329309,6.0902421502,-0.334284231986,-5.38546567696,1.92615918848,5.91880958474,-0.407993079198,-11.6903233941,0.93742613707,3.8729894522,-3.19154281916,-7.57324930645,2.24747308791,-5.0554320453,
-7.83165183647,-1.3036930919,-1.84729589079,7.31240950638,6.11578582901,4.20917456323,0.835239543646,-0.84754662616,-3.83847313269,-3.70038845984,9.96650385617,2.45727668347,2.62833287536,-10.4532596588,-7.60873354637,-1.62501835855,-0.308364135067,-1.31854345099,2.48657874553,2.16612206899,2.46157804134,-2.65466199983,3.94126656753,-6.43605847406,-6.39899533124,-3.05987925496,-4.19304361916,-0.449994425454,2.23416900121,-4.35762867393,6.1003712449,-0.337000245721,-5.39316218698,1.92690765534,5.92714249415,-0.408533651541,-11.7038667685,0.937832477685,3.87680865342,-3.19635627473,-7.57817140573,2.25169206197,-5.05577515283,
-7.8522725106,-1.30839806809,-1.85216221511,7.34231046816,6.11852745412,4.21584086637,0.839296066721,-0.849305925745,-3.85470768739,-3.70353621981,9.99507824902,2.46223531804,2.6297853009,-10.4946374645,-7.61112812821,-1.6284355598,-0.309442983302,-1.32171840387,2.49334340107,2.16610288363,2.46339179877,-2.65683743299,3.9431702015,-6.44029351154,-6.40311283455,-3.06353392898,-4.19413500537,-0.449628047702,2.23120416189,-4.36381189002,6.11040160423,-0.339667211321,-5.40071920431,1.92766269017,5.93532694032,-0.409064484977,-11.7172361638,0.93819662838,3.88051464332,-3.20111369179,-7.5829891612,2.25585350122,-5.0561163458,
-7.87278078952,-1.31298927306,-1.85722598417,7.37201495431,6.12123086466,4.22244193094,0.843304806019,-0.85099522003,-3.87083388342,-3.70666873886,10.0234104127,2.46704270329,2.63152981898,-10.5357804146,-7.61353664242,-1.63187632797,-0.310517485624,-1.32494141466,2.5000321471,2.16604279227,2.46516487843,-2.6589927229,3.94504265703,-6.4444887479,-6.40719399028,-3.06717099599,-4.19521001635,-0.44927065029,2.22824583901,-4.36994408728,6.12033534184,-0.342284849281,-5.40813757132,1.92842355114,5.94336486321,-0.409584636687,-11.7304358323,0.938517328972,3.88410611619,-3.2058155737,-7.58770236387,2.25995656413,-5.05645567057,
-7.89317994569,-1.31746834247,-1.86248587519,7.40152807421,6.1238958537,4.2289781024,0.847266379819,-0.852616561142,-3.88685555562,-3.70978711903,10.0515050571,2.47169984971,2.63356208461,-10.5766964464,-7.61595746873,-1.63534069079,-0.311587377434,-1.32821199052,2.50664713319,2.16594203748,2.46689844788,-2.66112840237,3.94688471444,-6.44864514031,-6.41123967703,-3.07079132624,-4.19626908668,-0.448922256867,2.22529355191,-4.37602638296,6.13017452163,-0.34485286333,-5.41541811633,1.92918957905,5.95125815309,-0.410093189328,-11.7434698534,0.938793343436,3.88758180497,-3.21046244995,-7.59231079427,2.26400042549,-5.05679317155,
-7.91347325054,-1.32183687219,-1.86794051295,7.43085479028,6.12652218491,4.23544979488,0.851181444958,-0.854172003876,-3.90277638558,-3.71289240186,10.0793667559,2.47620766549,2.63587761218,-10.617393392,-7.61838905923,-1.63882870284,-0.3126524055,-1.33152964572,2.51319044328,2.1658008428,2.46859361709,-2.66324499291,3.94869712047,-6.45276361489,-6.41525074469,-3.07439576333,-4.19731263542,-0.448582880137,2.22234683173,-4.3820598667,6.13992115909,-0.347370934503,-5.4225616555,1.92996019783,5.95900866022,-0.410589245086,-11.7563421462,0.939023453905,3.89094047926,-3.21505488142,-7.59681422604,2.26798427217,-5.05712889151,
-7.93366398009,-1.32609642934,-1.87358846735,7.4599999238,6.12910960635,4.2418574991,0.855050703963,-0.855663606632,-3.91859990382,-3.71598557201,10.1069999517,2.48056697133,2.63847176681,-10.6578789867,-7.62082995756,-1.64234044925,-0.313712331686,-1.33489389985,2.51966409622,2.16561941401,2.47025144133,-2.66534300597,3.95048058982,-6.45684506969,-6.41922801702,-3.07798512601,-4.19834106673,-0.448252523326,2.21940522044,-4.38804560148,6.14957722268,-0.349838715509,-5.42956899449,1.93073491465,5.9666182039,-0.411071919887,-11.7690564809,0.939206454832,3.89418094321,-3.2195934651,-7.60121242946,2.27190729898,-5.05746287177,
-7.95375541986,-1.33024856294,-1.87942825138,7.48896816068,6.1316578629,4.24820178953,0.858874911571,-0.857093432188,-3.9343294923,-3.71906756046,10.1344089598,2.48477851447,2.64133975592,-10.6981608781,-7.62327881614,-1.64587604905,-0.314766936449,-1.33830427607,2.52607004624,2.16539794027,2.47187292391,-2.66742294407,3.95223580682,-6.46089037747,-6.42317229419,-3.08156020999,-4.19935477045,-0.447931181611,2.21646826987,-4.39398462472,6.15914463501,-0.352255825353,-5.43644092985,1.93151331957,5.97408858109,-0.411540337767,-11.7816164895,0.939341147311,3.89730203335,-3.22407883832,-7.60550517483,2.27576870455,-5.05779515252,
-7.97375086926,-1.33429481403,-1.88545831934,7.51776405694,6.13416670718,4.25448333104,0.862654880781,-0.858463548332,-3.94996838699,-3.72213924736,10.1615979717,2.48884298204,2.64447662106,-10.7382466344,-7.62573441166,-1.64943565816,-0.315816022128,-1.34176029955,2.53241018362,2.16513659513,2.47345901899,-2.66948530182,3.95396342689,-6.46490038825,-6.42708435505,-3.0851217896,-4.2003541227,-0.447618843497,2.21353554077,-4.39987794913,6.16862527423,-0.354621844188,-5.44317825031,1.93229508503,5.98142157455,-0.411993625387,-11.794025677,0.939426333574,3.9003026165,-3.2285116827,-7.60969223578,2.27956768734,-5.05812577297,
-7.99365364543,-1.33823672552,-1.89167706525,7.54639204422,6.13663590957,4.26070288501,0.866391488565,-0.859776028397,-3.96551968063,-3.72520146437,10.1885710571,2.492761014,2.64787722974,-10.7781437535,-7.62819565916,-1.65301947208,-0.31685941609,-1.34526149581,2.53868633539,2.16483553746,2.47501063421,-2.67153056688,3.95566407812,-6.46887593178,-6.43096495931,-3.08867061949,-4.20133948643,-0.447315492156,2.21060660191,-4.40572656373,6.17802097517,-0.356936308357,-5.44978173787,1.933079965,5.98861896063,-0.412430906712,-11.8062874313,0.93946081165,3.90318158765,-3.23289272771,-7.61377339265,2.28330344166,-5.05845477154,
-8.01346708667,-1.34207585178,-1.89808282117,7.57485643489,6.13906526716,4.26686131522,0.870085681322,-0.861032951705,-3.98098632547,-3.72825499681,10.2153321664,2.49653321563,2.65153626702,-10.8178596716,-7.63066162489,-1.65662772832,-0.317896973745,-1.34880738915,2.54490026602,2.16449491225,2.47652863333,-2.67355922077,3.95733836265,-6.47281781973,-6.43481484956,-3.0922074362,-4.2023112119,-0.447021106718,2.20768102915,-4.41153143467,6.18733353064,-0.359198705623,-5.45625216885,1.93386779414,5.99568251677,-0.412851297833,-11.8184050328,0.939443370209,3.90593786811,-3.23722275405,-7.61774843592,2.2869751539,-5.05878218612,
-8.03319455537,-1.34581376815,-1.90467385557,7.60316142722,6.14145461214,4.27295959346,0.873738480206,-0.862236403956,-3.99637113593,-3.73130058535,10.2418851314,2.50016017001,2.65544822695,-10.8574017716,-7.6331315384,-1.66026070867,-0.31892858148,-1.35239750107,2.55105367822,2.16411485147,2.47801383883,-2.67557173973,3.95898685809,-6.47672684783,-6.43863475316,-3.09573295968,-4.20326963725,-0.446735663523,2.2047584046,-4.41729350616,6.19656469257,-0.361408470551,-5.46259031491,1.93465848674,6.0026140288,-0.413253901933,-11.8303816636,0.939372783587,3.90857040385,-3.24150259693,-7.62161716982,2.29058199882,-5.05910805415,
-8.05283944059,-1.34945208031,-1.91144837137,7.63131111012,6.14380381951,4.27899880517,0.877350986383,-0.86338847757,-4.01167679121,-3.73433892744,10.2682336665,2.50364245029,2.65960740352,-10.8967773916,-7.63560480387,-1.66391874115,-0.319954159548,-1.35603134859,2.55714821371,2.16369547485,2.47946703437,-2.6775685954,3.96061011895,-6.48060379789,-6.44242538405,-3.09924789479,-4.20421508894,-0.446459137332,2.20183831578,-4.42301370124,6.20571617327,-0.363564980038,-5.46879694412,1.93545203575,6.00941529802,-0.413637804419,-11.8422204167,0.939247807009,3.91107816405,-3.2457331492,-7.62537941613,2.29412313607,-5.05943241283,
-8.07240516026,-1.35299243377,-1.91840450381,7.65930946789,6.14611281451,4.28498015496,0.880924386302,-0.864491271983,-4.02690583771,-3.73737067846,10.2943813687,2.5069806322,2.66400788124,-10.9359938331,-7.63808101103,-1.66760220187,-0.32097366492,-1.35970844257,2.563185454,2.16323689077,2.48088896726,-2.67955025549,3.9622086779,-6.48444943959,-6.44618744437,-3.1027529327,-4.2051478822,-0.446191502499,2.19892035476,-4.42869292265,6.21478964653,-0.365667548993,-5.47487282203,1.93624851181,6.01608814818,-0.414002068186,-11.853924304,0.93906717202,3.91346014011,-3.24991536443,-7.62903501821,2.29759770677,-5.05975529926,
-8.091895163,-1.35643652337,-1.92554031793,7.6871603846,6.14838157977,4.29090497228,0.88445995704,-0.865546893924,-4.04206069119,-3.74039645258,10.3203317181,2.51017530669,2.66864352509,-10.9750583689,-7.64055994581,-1.67131151672,-0.321987094133,-1.36342828593,2.56916692115,2.16273919709,2.48228035084,-2.68151718441,3.96378304712,-6.48826453226,-6.44992162604,-3.10624875227,-4.2060683215,-0.445932734109,2.19600411744,-4.43433205356,6.22378674881,-0.36771542615,-5.48081871291,1.9370480623,6.02263443239,-0.41434572906,-11.8654962648,0.938829582133,3.91571534498,-3.25405026008,-7.63258384545,2.30100483045,-5.06007675056,
-8.11131292955,-1.35978610287,-1.9328538057,7.71486764837,6.15061016239,4.29677471724,0.887959071747,-0.866557457638,-4.05714363879,-3.7434168234,10.3460880771,2.51322709286,2.67350797007,-11.0139782507,-7.64304160081,-1.67504716287,-0.32299448616,-1.36719037179,2.57509407856,2.16220248219,2.48364186685,-2.68346984383,3.96533371958,-6.49204982649,-6.45362861224,-3.10973602135,-4.20697670094,-0.445682809078,2.19308920272,-4.43993195832,6.23270908038,-0.369707790039,-5.48663538106,1.93785091045,6.02905604,-0.414667791385,-11.8769391735,0.938533708713,3.91784281293,-3.25813892056,-7.63602579794,2.30434360203,-5.06039680403,
-8.13066197391,-1.36304299471,-1.94034288273,7.74243495536,6.15279868097,4.30259098655,0.891423205228,-0.867525085077,-4.07215684077,-3.74643232434,10.3716536907,2.51613665139,2.67859461019,-11.0527607161,-7.64552618584,-1.67880967019,-0.323995925296,-1.37099418156,2.58096833168,2.16162682602,2.4849741677,-2.68540869316,3.96686117023,-6.4958060657,-6.45730907874,-3.11321539805,-4.20787330465,-0.445441707221,2.19017521182,-4.44549348323,6.24155820642,-0.371643745109,-5.49232359238,1.93865735462,6.03535490343,-0.414967223801,-11.8882558467,0.938178187125,3.91984159994,-3.26218250047,-7.63936081173,2.30761308923,-5.06071549725,
-8.14994584395,-1.36620909989,-1.94800538457,7.7698659136,6.15494733287,4.30835551968,0.894853939663,-0.868451906026,-4.08710233192,-3.74944344889,10.3970316856,2.51890469826,2.68389658694,-11.0914129955,-7.64801413847,-1.68259962246,-0.324991544076,-1.37483918286,2.58679102876,2.16101230126,2.48627787875,-2.68733419006,3.96836585728,-6.49953398755,-6.46096369521,-3.11668753192,-4.20875840719,-0.445209412291,2.18726174757,-4.45101745713,6.25033565812,-0.373522318038,-5.49788411603,1.93946776755,6.04153300504,-0.415242955202,-11.8994490512,0.937761613156,3.92171078451,-3.26618222778,-7.64258886448,2.31081233009,-5.06103286823,
-8.16916812172,-1.36928640793,-1.95583906254,7.79716404653,6.15705640161,4.31407020521,0.898252970454,-0.869340058152,-4.10198202282,-3.7524506507,10.42222507,2.52153201911,2.68940677752,-11.1299423182,-7.65050613479,-1.68641765853,-0.325981526226,-1.37872482746,2.59256346148,2.16035897474,2.48755360056,-2.6892467908,3.96984822339,-6.50323432529,-6.46459312641,-3.12015306512,-4.2096322739,-0.444985912989,2.18434841373,-4.45650469214,6.2590429338,-0.375342454244,-5.50331772646,1.94028259576,6.04759238406,-0.415493870903,-11.91052151,0.937282539746,3.92344946919,-3.27013940717,-7.64570998163,2.31394033096,-5.06134895547,
-8.18833242325,-1.37227700694,-1.96384157929,7.8243327964,6.15912626455,4.31973708737,0.901622112168,-0.870191686946,-4.11679770077,-3.75545434348,10.4472367334,2.524019484,2.69511778275,-11.1683559174,-7.65300310028,-1.69026447327,-0.326966109641,-1.38265054906,2.59828686566,2.15966690885,2.4888019111,-2.69114695068,3.97130869686,-6.50690780904,-6.46819803328,-3.12361263352,-4.21049516123,-0.444771203942,2.18143481438,-4.46195598425,6.26768149995,-0.377103014644,-5.50862520559,1.94110235896,6.05353514347,-0.415718809044,-11.9214759099,0.936739474061,3.92505678276,-3.27405542328,-7.6487242432,2.31699606472,-5.06166379813,
-8.20744239776,-1.37518309364,-1.97201050391,7.85137552742,6.161157401,4.32535837263,0.904963304525,-0.871008945528,-4.13155103055,-3.75845490091,10.4720694461,2.52636806277,2.70102191499,-11.2066610351,-7.65550622092,-1.6941408184,-0.327945589363,-1.38661576105,2.60396242184,2.15893616329,2.49002336795,-2.6930351243,3.97274769282,-6.51055516694,-6.47177907402,-3.12706686767,-4.21134731711,-0.444565286655,2.17852055332,-4.4673721139,6.27625279232,-0.37880277268,-5.51380734531,1.94192764949,6.059363457,-0.415916557241,-11.9323149073,0.936130874947,3.92653188307,-3.2779317441,-7.65163179114,2.31997846946,-5.06197743611,
-8.22650172642,-1.37800698332,-1.98034330684,7.87829552868,6.16315040066,4.33093643644,0.908278618356,-0.871793994283,-4.14624355494,-3.76145265646,10.4967258596,2.52857884077,2.70711118622,-11.2448649257,-7.65801695432,-1.69804750316,-0.328920320559,-1.39061985422,2.60959125592,2.15816679688,2.49121851053,-2.69491176585,3.97416561442,-6.51417712626,-6.475336905,-3.13051639386,-4.21218898121,-0.44436817044,2.17560523356,-4.47275384654,6.28475821694,-0.380440411694,-5.51886495032,1.94275913175,6.06507957607,-0.416085849541,-11.9430411349,0.935455150799,3.92787396073,-3.28176992426,-7.65443283737,2.32288644757,-5.06228991016,
-8.24551412039,-1.38075111955,-1.98883735454,7.90509601694,6.16510597251,4.33647382987,0.911570261432,-0.872549000277,-4.16087669518,-3.76444790325,10.5212085074,2.53065303512,2.7133772966,-11.2829748584,-7.66053704107,-1.70198539475,-0.329890721447,-1.3946621945,2.61517443967,2.15735886962,2.4923878623,-2.69677732933,3.97556285396,-6.51777441443,-6.47887218164,-3.13396183498,-4.21302038531,-0.444179873318,2.17268845674,-4.47810193315,6.29319915116,-0.382014522671,-5.52379884124,1.94359754156,6.07068583678,-0.416225363695,-11.9536572074,0.934710657907,3.9290822435,-3.28557160829,-7.65712767247,2.32571886536,-5.06260126197,
-8.26448331811,-1.38341808358,-1.99748990419,7.9317801392,6.16702495417,4.34197328607,0.914840584059,-0.873276136418,-4.17545175129,-3.76744089395,10.545519806,2.53259201117,2.7198116238,-11.3209981188,-7.66306851583,-1.70595541864,-0.330857276141,-1.39874212065,2.62071299136,2.156512445,2.49353193299,-2.69863226867,3.97693979413,-6.52134775991,-6.48238555925,-3.13740381138,-4.21384175354,-0.444000422883,2.16976982275,-4.48341711076,6.30157694467,-0.383523602461,-5.52860985805,1.9444436853,6.07618466679,-0.416333718817,-11.964165728,0.933895699329,3.93015600163,-3.28933853369,-7.65971667506,2.32847455314,-5.06291153432,
-8.28341308182,-1.38601060315,-2.00629809833,7.95835097509,6.16890832169,4.34743772646,0.918092084266,-0.873977580305,-4.18996990244,-3.77043184087,10.5696620568,2.53439729929,2.72640521347,-11.3589420085,-7.66561371839,-1.70995855851,-0.331820537362,-1.40285894208,2.6262078763,2.15562759246,2.49465122083,-2.70047703786,3.97829680917,-6.52489789309,-6.4858776937,-3.14084294167,-4.21465330265,-0.443829857155,2.16684892925,-4.48870010284,6.30989292047,-0.384966052514,-5.53329886385,1.94529843901,6.0815785921,-0.416409473459,-11.9745692935,0.933008524356,3.93109455399,-3.29307253387,-7.66220032187,2.33115230599,-5.06322077112,
-8.30230719319,-1.38853156055,-2.01525895982,7.98481153912,6.17075719972,4.35287026639,0.921327412443,-0.874655512724,-4.20443220743,-3.77342091621,10.5936374488,2.53607061154,2.73314877139,-11.3968138434,-7.66817530423,-1.71399585601,-0.332781128953,-1.40701193678,2.6316600074,2.15470439012,2.49574621486,-2.70231209096,3.97963426604,-6.52842554702,-6.48934924212,-3.14427984341,-4.21545524232,-0.443668225386,2.16392537137,-4.49395161973,6.3181483759,-0.386340178244,-5.53786674901,1.946162747,6.08687024369,-0.416451124176,-11.9848705,0.932047328643,3.93189727516,-3.29677554074,-7.66457919851,2.33375088519,-5.06352901757,
-8.32116944785,-1.39098399964,-2.0243693871,8.01116478287,6.1725728722,4.35827422008,0.924549375214,-0.875312115732,-4.21883960534,-3.77640825268,10.6174480625,2.53761385835,2.74003265753,-11.4346209508,-7.67075625446,-1.71806841013,-0.333739748128,-1.41120034933,2.63707024584,2.15374292772,2.49681739724,-2.70413788203,3.98095252565,-6.53193145805,-6.49280086336,-3.1477151338,-4.21624777538,-0.443515588835,2.16099874134,-4.49917235904,6.32634458357,-0.38764418911,-5.54231443557,1.94703762021,6.09206236388,-0.41645710463,-11.9950719486,0.931010255088,3.9325636034,-3.3004495869,-7.66685401091,2.33626902035,-5.06383632024,
-8.34000364889,-1.39337113166,-2.03362615011,8.03741359697,6.1743567932,4.36365310462,0.927760938327,-0.875949570279,-4.23319291656,-3.7793939444,10.6410958748,2.53902916461,2.74704688279,-11.4723706635,-7.67335988486,-1.72217737618,-0.334697167357,-1.41542338925,2.64243940168,2.15274330983,2.49786524561,-2.70595486505,3.9822519441,-6.5354163664,-6.49623321855,-3.15114943021,-4.21703109807,-0.443372021513,2.15806862832,-4.50436300593,6.33448279233,-0.388876199517,-5.54664288191,1.94792413407,6.09715781224,-0.416425785314,-12.0051762501,0.929895395545,3.9330930496,-3.30409680731,-7.66902559732,2.3387054124,-5.06414272718,
-8.35881359906,-1.3956963394,-2.04302588685,8.06356081311,6.17611059816,4.36901064271,0.930965228313,-0.876570053324,-4.24749284425,-3.78237804844,10.6645827655,2.5403188853,2.75418110886,-11.5100703124,-7.67598985371,-1.72632396434,-0.335654235811,-1.41968022956,2.64776823467,2.15170565925,2.49889023551,-2.70776349365,3.98353287386,-6.53888101662,-6.49964697138,-3.15458335066,-4.21780540026,-0.443237610865,2.15513461817,-4.50952423344,6.34256422819,-0.39003423065,-5.55085308781,1.94882342565,6.10215957117,-0.416355473958,-12.0151860302,0.928700793478,3.93348520715,-3.30771944037,-7.67109494095,2.34105873748,-5.06444828802,
-8.3776030917,-1.39796317939,-2.05256510104,8.08960920591,6.17783611521,4.37435076385,0.934165532629,-0.877175734401,-4.26173997644,-3.78536058682,10.6879105248,2.54148561994,2.7614246518,-11.5477272164,-7.678650168,-1.73050943764,-0.33661188024,-1.42397000567,2.65305745515,2.15063012072,2.49989284286,-2.70956422085,3.98479566508,-6.5423261579,-6.50304278844,-3.15801751424,-4.21857086571,-0.443112458413,2.15219629334,-4.51465670267,6.35059009525,-0.391116213383,-5.55494609958,1.94973669025,6.10707075065,-0.416244416703,-12.0251039344,0.927424447649,3.93373976268,-3.31131982814,-7.67306318302,2.34332765178,-5.0647530541,
-8.39637590014,-1.40017538191,-2.06224016095,8.11556149486,6.17953537647,4.37967760367,0.937365298004,-0.877768771599,-4.27593478888,-3.78834154935,10.7110808638,2.54253222581,2.76876648996,-11.5853486697,-7.68134518764,-1.73473510938,-0.337571105159,-1.42829181473,2.65830772504,2.14951686479,2.50087354651,-2.71135749864,3.98604066683,-6.54575254426,-6.50642133931,-3.16145254141,-4.21932767227,-0.44299668033,2.14925323289,-4.51976106302,6.35856157661,-0.392119992381,-5.55892301551,1.95066517705,6.11189459236,-0.416090800131,-12.034932632,0.926064316975,3.93385650779,-3.31490041563,-7.67493163615,2.34551079752,-5.06505707856,
-8.4151357656,-1.4023368482,-2.07204729957,8.14142034619,6.18121062925,4.38499550098,0.940568126648,-0.878351306922,-4.29007764893,-3.79132089724,10.7340954254,2.54346182943,2.77619527692,-11.6229419267,-7.68407962727,-1.73900233983,-0.338532992222,-1.43264471549,2.66351965915,2.14836609199,2.50183283084,-2.71314377743,3.98726822842,-6.54916093464,-6.5097832966,-3.16488905416,-4.2200759921,-0.442890407941,2.14630501249,-4.52483795232,6.36647983522,-0.393043331548,-5.5627849913,1.9516101838,6.11663447266,-0.415892754222,-12.0446748211,0.924618326662,3.93383535147,-3.31846374898,-7.67670179802,2.34760681001,-5.06536041643,
-8.43388638348,-1.40445164466,-2.08198261658,8.16718837481,6.18286434688,4.39030899213,0.943777770019,-0.878925461023,-4.30416882047,-3.79429856773,10.7569557989,2.54427783584,2.78369936003,-11.6605141827,-7.68685855513,-1.74331253213,-0.339498698626,-1.43702772859,2.66869382665,2.14717803719,2.50277118852,-2.71492350543,3.98847870075,-6.55255209281,-6.51312933584,-3.1683276761,-4.22081599189,-0.442793788132,2.14335120459,-4.52988799689,6.37434601481,-0.39388392096,-5.56653324561,1.95257305044,6.12129390447,-0.415648356337,-12.0543332319,0.923084375741,3.9336763334,-3.32201247238,-7.67837536494,2.34961432596,-5.06566312478,
-8.4526313879,-1.40652399359,-2.092042082,8.19286814629,6.18449923901,4.39562280237,0.946998119779,-0.879493327324,-4.31820847024,-3.79727447985,10.779663536,2.54498393533,2.79126680522,-11.6980725521,-7.68968738848,-1.74766712726,-0.340469454396,-1.4414398376,2.67383075288,2.14595297423,2.50368912324,-2.71669712786,3.98967243763,-6.55592678703,-6.51646013524,-3.17176903243,-4.22154783309,-0.442706983668,2.14039137868,-4.53491181161,6.38216124065,-0.394639385453,-5.57016906548,1.95355515154,6.12587653765,-0.415355636309,-12.0639106309,0.921460346157,3.93337963784,-3.32554932345,-7.67995424524,2.35153199316,-5.06596526278,
-8.47137433456,-1.40855826,-2.10222154206,8.21846217887,6.18611826099,4.40094183369,0.950233195618,-0.880056965512,-4.33219667559,-3.80024854132,10.8022201696,2.54558410707,2.79888542861,-11.7356240433,-7.69257188512,-1.7520675981,-0.341446558392,-1.44587999067,2.67893092158,2.14469122073,2.5045871526,-2.71846508602,3.99084979715,-6.55928578968,-6.51977637522,-3.17521374972,-4.22227167207,-0.442630173374,2.13742510163,-4.53990999985,6.38992662046,-0.395307295002,-5.57369381159,1.95455788728,6.13038615777,-0.41501258272,-12.0734098234,0.919744113511,3.93294560804,-3.329077127,-7.68144057223,2.35335848146,-5.06626689182,
-8.49011868185,-1.4105589343,-2.11251672711,8.2439729455,6.18772462224,4.40627114874,0.953487129616,-0.880618394497,-4.34613343402,-3.80322065694,10.8246272353,2.54608261926,2.8065428354,-11.7731755289,-7.69551813039,-1.75651544221,-0.342431372872,-1.45034710286,2.68399477744,2.14339314309,2.50546581112,-2.72022781624,3.99201114316,-6.56262987648,-6.52307873784,-3.17866245559,-4.22298766035,-0.44256355219,2.13445193819,-4.54488315342,6.39764324516,-0.395885177046,-5.57710892318,1.95558267311,6.13482668283,-0.414617150443,-12.0828336572,0.917933559599,3.93237476099,-3.332598787,-7.6828367163,2.35509249517,-5.06656807558,
-8.50886777028,-1.41253061039,-2.12292326208,8.26940287594,6.18932179305,4.41161595051,0.956764146831,-0.881179584867,-4.36001867447,-3.80619073835,10.8468862958,2.54648402517,2.81422646659,-11.8107337133,-7.69853251921,-1.76101217348,-0.343425316468,-1.45484005929,2.68902272925,2.14205916174,2.50632565327,-2.7219857486,3.99315684665,-6.56595982569,-6.52636790596,-3.18211577819,-4.22369594483,-0.442507331054,2.13147145164,-4.5498318524,6.40531218973,-0.396370530905,-5.58041592255,1.95663092778,6.13920215784,-0.414167269516,-12.0921850244,0.916026586851,3.93166780232,-3.33611727639,-7.68414529593,2.35673278701,-5.06686888009,
-8.5276248003,-1.41447795904,-2.13343667916,8.29475435881,6.19091350965,4.41698155724,0.96006854186,-0.881742450968,-4.37385227061,-3.80915871535,10.8689989673,2.54679315486,2.82192365354,-11.8483050952,-7.70162173248,-1.76555931238,-0.344429855412,-1.45935771907,2.69401515354,2.14068975647,2.50716725666,-2.72373930555,3.99428728723,-6.56927641682,-6.52964456218,-3.18557434547,-4.22439666795,-0.442461736599,2.12848320452,-4.55475666491,6.4129345139,-0.396760844396,-5.58361641882,1.95770405984,6.1435167469,-0.413660855383,-12.1014668632,0.914021134752,3.93082564111,-3.3396356249,-7.68536918714,2.35827817334,-5.06716937383,
-8.54639280882,-1.4164056964,-2.14405243312,8.32002974351,6.19250377696,4.42237337243,0.963404651181,-0.882308842733,-4.38763405632,-3.81212454881,10.8909669495,2.54701510203,2.82962168069,-11.8858959275,-7.70479270773,-1.77015837472,-0.345446492906,-1.46389891985,2.69897239885,2.13928547193,2.50799122531,-2.72548890029,3.99540285465,-6.57258042927,-6.53290938762,-3.18903878433,-4.22508996791,-0.442427010637,2.12548675961,-4.55965814685,6.42051126296,-0.397053612765,-5.586712111,1.95880345243,6.14777472245,-0.41309582055,-12.1106821593,0.911915198322,3.92984940425,-3.34315690441,-7.686511531,2.35972755094,-5.06746962772,
-8.56517464451,-1.41831854755,-2.15476591897,8.34523134198,6.19409686869,4.42779684962,0.966776821157,-0.88288053742,-4.40136384314,-3.8150882452,10.9127920569,2.54715520566,2.83730785614,-11.9235121731,-7.70805260322,-1.77481085886,-0.34647675653,-1.46846248331,2.70389479072,2.1378469232,2.50879819297,-2.72723493503,3.99650395027,-6.57587264052,-6.53616306029,-3.19250971945,-4.22577597887,-0.442403409401,2.12248168106,-4.56453684147,6.4280434685,-0.397246359978,-5.58970479,1.95993044649,6.15198045157,-0.412470087641,-12.119833946,0.909706848663,3.92874045012,-3.34668421207,-7.68757573876,2.36107991502,-5.06776971513,
-8.58397294229,-1.4202212054,-2.16557249185,8.37036143013,6.1956973244,4.43325745178,0.9701893717,-0.883459231488,-4.41504143998,-3.81804987265,10.9344762529,2.54721902641,2.84496958979,-11.9611594565,-7.7114087557,-1.77951823139,-0.347522183635,-1.47304722117,2.70878263729,2.13637480139,2.50958882653,-2.72897779899,3.99759098863,-6.57915382407,-6.53940625331,-3.19598777191,-4.22645483116,-0.442391202514,2.11946753571,-4.569393279,6.43553214907,-0.397336662398,-5.59259633946,1.96108632237,6.15613837899,-0.411781603835,-12.1289253045,0.907394255549,3.92750038115,-3.35022065085,-7.68856549407,2.36233437846,-5.06806971189,
-8.60279009754,-1.42211828508,-2.17646748912,8.39542224879,6.1973099429,4.43876060548,0.973646555751,-0.884046532829,-4.42866667481,-3.82100957841,10.9560216853,2.54721231755,2.85259447819,-11.9988430138,-7.71486863131,-1.78428191102,-0.348584304734,-1.47765194181,2.71363623573,2.13486987928,2.51036382952,-2.73071786625,3.99866439895,-6.58242474696,-6.54263963275,-3.1994735576,-4.22712665145,-0.442390671661,2.11644389461,-4.57422797606,6.44297831091,-0.397322174798,-5.59538873522,1.96227228002,6.16025300677,-0.41102835661,-12.1379593618,0.904975711965,3.92613105489,-3.35376930776,-7.68948475187,2.36349019199,-5.06836969615,
-8.62162824047,-1.42401427463,-2.18744625411,8.420416004,6.19893977166,4.44431164987,0.977152514856,-0.884643953644,-4.44223941823,-3.82396760765,10.9774307222,2.54714099047,2.86017039518,-12.0365676395,-7.71843977005,-1.78910325095,-0.349664624938,-1.48227545739,2.71845587937,2.13333301672,2.51112394553,-2.73245549348,3.99972462665,-6.58568616705,-6.54586385518,-3.20296768526,-4.22779156297,-0.442402108932,2.11341033488,-4.5790414351,6.4503829486,-0.397200658597,-5.59808404319,1.96348941794,6.16432887039,-0.410208390693,-12.1469392895,0.902449660425,3.92463459314,-3.35733322977,-7.69033773343,2.36454676517,-5.06866974835,
-8.64048921133,-1.42591348256,-2.19850416118,8.44534486636,6.20059209184,4.44991578101,0.980711231347,-0.88525290425,-4.4557596086,-3.8269243231,10.9987059888,2.54701107532,2.86768558678,-12.0743376314,-7.72212972393,-1.79398351966,-0.350764603614,-1.48691659116,2.72324186555,2.13176516598,2.51186996173,-2.73419101744,4.00077213484,-6.58893882982,-6.54907956488,-3.20647075427,-4.22844968569,-0.442425814816,2.11036644163,-4.5838341437,6.45774704571,-0.396970012115,-5.6006844156,1.96473871108,6.16837051142,-0.409319826037,-12.1558683,0.899814720809,3.92301338864,-3.36091539757,-7.69112891719,2.36550368766,-5.06896995096,
-8.65937453718,-1.42781998342,-2.2096366416,8.47021096936,6.20227239848,4.45557799212,0.98432647782,-0.885874688147,-4.46922727832,-3.82988022545,11.0198504024,2.5468286769,2.87512876857,-12.1121567355,-7.72594598946,-1.79892388032,-0.351885632479,-1.49157418497,2.72799450411,2.13016737672,2.51260271214,-2.73592475238,4.00180740577,-6.59218346488,-6.55228739077,-3.20998335217,-4.22910113652,-0.442462095817,2.10731181031,-4.58860657379,6.46507157543,-0.396628302561,-5.60319208533,1.96602098824,6.17238244682,-0.408360876642,-12.1647496426,0.897069719369,3.92127010901,-3.36451869752,-7.69186302495,2.36636075052,-5.0692703883,
-8.67828541113,-1.42973756278,-2.22083920956,8.49501640625,6.20398637571,4.46130301063,0.988001764833,-0.886510498653,-4.48264258082,-3.83283597369,11.0408672059,2.54659992694,2.88248922341,-12.1500280913,-7.72989593533,-1.80392536891,-0.353029012488,-1.49624710649,2.73271412648,2.12854080053,2.51332308092,-2.73765698736,4.00283094213,-6.59542078207,-6.55548794298,-3.21350605177,-4.22974602945,-0.442511261686,2.10424604924,-4.59335918081,6.4723575011,-0.396173799345,-5.60560935843,1.96733690922,6.17636913499,-0.40732986993,-12.1735865979,0.894213718432,3.91940769727,-3.36814589221,-7.69254500314,2.36711796695,-5.06957114617,
-8.69722267477,-1.43166966294,-2.23210748764,8.5197632254,6.20573986667,4.46709523331,0.991740287977,-0.887161417429,-4.49600581744,-3.83579240518,11.0617599978,2.5463309334,2.88975689687,-12.1879541779,-7.73398672642,-1.80898887167,-0.354195929946,-1.50093425611,2.73740109515,2.12688669498,2.51403200528,-2.73938798351,4.00384326833,-6.59865146736,-6.55868180914,-3.21703940803,-4.23038447576,-0.442573622258,2.10116878238,-4.59809240283,6.47960577682,-0.395605008226,-5.6079386046,1.96868694239,6.18033493916,-0.406225266382,-12.182382471,0.891246046241,3.91742936875,-3.37179959007,-7.69317999908,2.36777559202,-5.06987231154,
