1.0,0.090142861282,0.0463987883623,0.0197316968394,-0.0687962719115,1.0,-0.0883832775664,0.073235229155,0.0202230023486,0.0416145155592,1.0,0.0939819704324,0.0664885281601,-0.0575321778643,-0.0636350065586,1.0,-0.0391515514081,0.00495128632645,-0.0136109962716,-0.0417541719604,1.0,-0.0721012278696,-0.041571070293,-0.0267276313413,-0.00878600315659,1.0,-0.0600652435683,0.00284688768272,0.0184829137724,-0.090709917456,0.0215089703803,1.0,-0.0869896814029,0.0897771074507,0.0931264066149,0.0616794696233,-0.0390772461653,1.0,0.0368466053024,-0.0119695012521,-0.075592353031,-0.000964617977746,-0.093122295777,
0.819684084384,0.0693284689107,-0.0352337575123,0.0111665611842,-0.06930070956,0.80347448533,-0.170083656084,-0.0180154101785,-0.0664903284466,-0.0473152762926,0.803163829846,-0.0396470662716,-0.00480404046897,-0.225111999857,-0.239459658804,0.815141350303,-0.0770608375225,-0.100857315758,-0.0333004599359,-0.0624180057902,0.815676031054,-0.21379800318,-0.0832192215561,-0.219155560635,-0.206514359878,0.492629574548,-0.44056155384,-0.310467738349,-0.196758992302,-0.411547951157,-0.18716128301,0.531348549338,-0.439908313942,-0.273244058574,-0.290995727475,-0.286946569482,-0.39250217889,0.412236397759,-0.391672183894,-0.480982641496,-0.613607034345,-0.463824011968,-0.645802219782,
0.584141546035,0.13911724367,-0.201483686133,0.163521820692,0.104063718635,0.571923549382,-0.285331170154,-0.114325518252,-0.198762415382,-0.18107352803,0.575611310169,-0.397709599865,0.0316914615405,-0.753928136409,-0.790044386553,0.591192324195,-0.0808311365663,-0.255806530523,0.015495885135,-0.00789816719084,0.62201632943,-0.605209902429,0.0129648245756,-0.820943897917,-0.830012592458,0.175642506305,-0.753686660756,-0.25032711324,0.398294931646,-0.568889045653,0.507872283734,0.476846127383,-0.453183906438,-0.323091930129,-0.404779684721,-0.305540107843,-0.494356123046,0.601739650336,-0.208410673166,-0.566555464963,-1.07886460748,-0.400109271536,-1.20119913429,
0.289357377731,0.36156144565,-0.510088198223,0.594578936085,0.564821579885,0.398872318675,-0.456020663955,-0.144463349381,-0.436682744667,-0.431012654239,0.8742266069,-0.794970437589,0.521247050827,-1.53624597271,-1.60657416545,0.422435849338,0.0364033431386,-0.452696703883,0.257103559707,0.24229726009,1.01815588172,-1.00616723728,0.600345813311,-1.65581955719,-1.70045238631,-0.283041503254,-1.55819539156,-0.042754004011,1.72115144001,-1.03484506856,1.96817089536,0.485707228077,-0.369480457757,-0.300965900978,-0.589032289601,-0.238564716162,-0.705525914273,0.801876899107,0.204583809229,-0.789422985985,-1.89410352605,-0.201302535174,-2.08844157743,
0.0422095639379,0.4556552696,-0.710270480004,0.826069365405,0.824554022294,0.363373098316,-0.566390281269,-0.132651961094,-0.618739222126,-0.638451959196,1.15372534294,-0.910090296499,0.848520994627,-1.89982069779,-2.0017806849,0.317579824574,0.0967676389549,-0.570942410259,0.399872517986,0.391118730545,1.28980832566,-1.12513565682,0.949914219411,-2.04439040506,-2.11844283677,-0.613114338528,-2.12005010187,0.0519412945,2.34096242242,-1.41279221818,2.6419178012,0.513477834832,-0.298088582169,-0.196728789254,-0.721431190126,-0.177673340982,-0.872085565731,0.81973466615,0.48642771208,-1.05935641914,-2.4525890976,-0.061657671742,-2.66737889382,
-0.164290389066,0.482466398237,-0.827498272374,0.935750998174,0.970765961942,0.401573286296,-0.624888635092,-0.117254797016,-0.740650020985,-0.798032032003,1.3383224355,-0.916754623729,1.05295521682,-2.08108098563,-2.22114124643,0.223705500725,0.115354814623,-0.64286921511,0.464462615705,0.466668137056,1.4422734987,-1.13540214561,1.16238444553,-2.24184893945,-2.34919205646,-0.839397039702,-2.44976210143,0.085397829744,2.60790897764,-1.6493751455,2.93307507251,0.513238917757,-0.297961741855,-0.0603519079817,-0.75629153661,-0.164023701874,-0.948071286445,0.810440173648,0.724855675867,-1.30010695125,-2.90542550158,0.059680839955,-3.12107595474,
-0.359011451064,0.486029652687,-0.905887682547,1.00496058432,1.08617453674,0.483346367331,-0.652317686849,-0.104452749987,-0.828291942208,-0.933423665969,1.48359680193,-0.877754483088,1.21265365751,-2.20102975386,-2.38554977923,0.135024278224,0.123204881888,-0.690851610073,0.505289439436,0.523530470119,1.53180712846,-1.1077924192,1.32455255051,-2.38320089582,-2.52565061647,-1.0207521523,-2.68199659796,0.0978221926919,2.75247839279,-1.82351711254,3.09584742565,0.501916330696,-0.329211449794,0.0798410564668,-0.74559445978,-0.164702327804,-1.00398255243,0.808511731322,0.952103741002,-1.50874460814,-3.30528968291,0.17808962709,-3.50731669765,
-0.554531640285,0.477323408077,-0.962094349779,1.05789427971,1.19485944135,0.595607104487,-0.657444069457,-0.0974671501295,-0.892116003705,-1.05369822754,1.60866065976,-0.810046646258,1.34989076496,-2.29269439032,-2.52704985507,0.0485158018624,0.126480210131,-0.725008392224,0.53712455759,0.57559651365,1.56329181141,-1.0684511642,1.45797260155,-2.51101361801,-2.68619266811,-1.17338227751,-2.85974678691,0.101033825557,2.8414235383,-1.96197166546,3.20431477026,0.488260596603,-0.375954396421,0.215618860816,-0.709233699086,-0.16586602157,-1.08717242074,0.810448257082,1.16627612025,-1.69241064028,-3.66755731511,0.290449116775,-3.83814363456,
-0.758925382629,0.461531452976,-1.00342226569,1.10495859878,1.30703493007,0.733364999932,-0.646848543257,-0.0983254691019,-0.939418063329,-1.16573104595,1.73343543697,-0.718231351979,1.47490735422,-2.3643549206,-2.65406060991,-0.0379894465198,0.126177349368,-0.750806134825,0.564485106332,0.626423728172,1.53031952459,-1.03699047299,1.5691550511,-2.64744625445,-2.84811245808,-1.3039282583,-3.00067726692,0.0992367894422,2.89955242387,-2.07587510859,3.28773339811,0.476808474721,-0.4404298266,0.351583828147,-0.638573268529,-0.164990197174,-1.23465061562,0.812743911148,1.36739769522,-1.85830764286,-4.00415201533,0.395868145487,-4.11705504238,
-0.979323299552,0.444152501418,-1.03319307268,1.15401261648,1.43063312394,0.895725748315,-0.627324336943,-0.108448733745,-0.977726665195,-1.27706036432,1.88510135915,-0.60320925474,1.59504196161,-2.41788656617,-2.77073227048,-0.125814312656,0.123201962212,-0.771224689032,0.589990999652,0.677892994792,1.42458597676,-1.03542007563,1.66201089403,-2.81356217276,-3.02792456716,-1.4153289155,-3.11395478112,0.0948768794558,2.93815587453,-2.1707974204,3.36127312341,0.467942766226,-0.533047552283,0.49619698573,-0.507206792102,-0.164902323309,-1.49098052769,0.819219090071,1.56159649108,-2.01104356813,-4.32617448891,0.498716307062,-4.34171988924,
-1.21917814624,0.433019242828,-1.05175850944,1.21483072654,1.57516484077,1.08028116599,-0.606839847325,-0.129783214807,-1.01600226806,-1.39575339613,2.08786587444,-0.472556500496,1.71224559985,-2.46365395978,-2.89105070271,-0.21355810984,0.120267957839,-0.786844745747,0.617775291165,0.733610302511,1.26074174739,-1.08175048997,1.74960738716,-3.02771071952,-3.24220953531,-1.51013673117,-3.20656246087,0.0899241566542,2.9633377207,-2.25107295627,3.43345551076,0.455160262098,-0.665968479952,0.653733214572,-0.285750135413,-0.171673123007,-1.90095075823,0.844029783293,1.76043794921,-2.15039010963,-4.63868228901,0.609147555942,-4.50701725379,
-1.47601672156,0.434475423656,-1.05864314597,1.29615993799,1.7473970006,1.2812369546,-0.59093221528,-0.163013704578,-1.06080296484,-1.52514950972,2.34412118199,-0.347581303902,1.81930694617,-2.52727343959,-3.04125338265,-0.29469466543,0.12151258653,-0.795784379934,0.653602235581,0.798545898609,1.10643935259,-1.16832244514,1.86353739673,-3.28528572322,-3.49000914455,-1.59604970447,-3.2865496076,0.0835051755964,2.97633314389,-2.32333370072,3.50597666366,0.427458677416,-0.84591568024,0.819500531501,0.031672307039,-0.191243973888,-2.46610532322,0.899857709691,1.97009965259,-2.27204356625,-4.93337359226,0.734466189371,-4.61672964272,
-1.74703795176,0.446231450609,-1.05794056799,1.39868333939,1.94434890986,1.49359560784,-0.578231511888,-0.20308254,-1.11288613275,-1.6614498813,2.64427391872,-0.245326968129,1.91154084845,-2.6281653315,-3.23623007536,-0.362004058291,0.128454970727,-0.796545740808,0.700093974676,0.873956382497,1.02899096602,-1.26873628441,2.02648688547,-3.56134324173,-3.75227662707,-1.68438339982,-3.36066010031,0.0709472566027,2.97327738153,-2.39502502856,3.57585483677,0.379310194002,-1.07131409362,0.986043898541,0.424510600988,-0.225880718902,-3.12997589446,0.980738653783,2.18181770984,-2.37319749567,-5.19627111201,0.86949569408,-4.68703461981,
-2.02833906832,0.460590413272,-1.05782660869,1.51915792485,2.15867756222,1.71075515649,-0.564651507227,-0.241238639472,-1.17279395008,-1.80103738162,2.97756063866,-0.166884476163,1.99316629205,-2.7696774674,-3.47311767576,-0.414291065279,0.138198424553,-0.790980255465,0.754679954679,0.955832782865,1.03098299148,-1.36743603902,2.22473633097,-3.83442755555,-4.01091267765,-1.77907800909,-3.43047980837,0.0496542683139,2.95269191007,-2.46895453192,3.64147281748,0.309989942853,-1.33500761046,1.14633982738,0.862544745994,-0.275838911648,-3.8234316275,1.07165713605,2.38282436306,-2.45479848829,-5.42175223567,1.00418692905,-4.73378166161,
-2.31033624627,0.469309019164,-1.06544635859,1.65429224362,2.38317808343,1.92285434446,-0.546042454266,-0.269959786148,-1.24147735008,-1.94167277375,3.32426934317,-0.104064615589,2.06938035053,-2.94699018237,-3.74160963377,-0.455859093646,0.145635503548,-0.783353791825,0.812231479515,1.03802454107,1.08125686289,-1.45961078622,2.42787602637,-4.0890357293,-4.25166631244,-1.87478908665,-3.49424166125,0.0223988351138,2.91986196974,-2.54298188398,3.70412570739,0.223243816299,-1.62038087935,1.29115086221,1.31000245266,-0.336946384184,-4.49240831298,1.15938142089,2.56485717205,-2.52103796363,-5.61408394054,1.1300133589,-4.76659301207,
-2.58015709432,0.465264191813,-1.08389037884,1.79930094363,2.60993741375,2.12021133177,-0.518828318501,-0.285782061734,-1.31764919956,-2.08026022923,3.66128200951,-0.044380497109,2.14304472984,-3.14882184628,-4.0265835481,-0.491677533284,0.146488094725,-0.777669650412,0.868155125634,1.11542792197,1.1525898128,-1.5431320019,2.6131137132,-4.31482905469,-4.46480087117,-1.96451368346,-3.5504883538,-0.00604393094545,2.88242636767,-2.6138225787,3.76570144941,0.128823292548,-1.90443519325,1.41330484843,1.73562145568,-0.400276803596,-5.10273646937,1.2362233284,2.72519840291,-2.57692944747,-5.78130533688,1.24194032177,-4.79067202045,
-2.82777699176,0.445031790969,-1.1120651287,1.94843561773,2.8313375216,2.29684517261,-0.482039692818,-0.289609420368,-1.39834804668,-2.21341372125,3.97291482266,0.0220162060444,2.21481084461,-3.36162204825,-4.31235375775,-0.524446485283,0.139387745711,-0.775902268926,0.920158878222,1.18561562105,1.22944199196,-1.61693213634,2.77140474807,-4.50842971611,-4.64724685281,-2.04455312765,-3.59929267148,-0.0323134690449,2.84574995151,-2.67955896025,3.8272294116,0.0360538499832,-2.16964385707,1.51137209048,2.12207920412,-0.458441482722,-5.64049072707,1.30052933224,2.86535182363,-2.62614093273,-5.92996269063,1.33902822534,-4.8089499814,
-3.04913330561,0.409653614871,-1.14673245185,2.09680327459,3.04174024792,2.45136187378,-0.43756510134,-0.284641603308,-1.48051338731,-2.33851308986,4.25338341601,0.0980885465232,2.28386169407,-3.57476610567,-4.58727256616,-0.554867670316,0.125570027726,-0.778100241952,0.967935057207,1.24833870875,1.30459526836,-1.68114936121,2.9029918899,-4.67196314739,-4.80116628434,-2.11443623609,-3.64164145039,-0.0550757684416,2.812174181,-2.73980224545,3.88885519379,-0.0503115889251,-2.40865184038,1.58825647674,2.4648321767,-0.508578967067,-6.1067882522,1.35394560508,2.98851578914,-2.67077678348,-6.06392081896,1.42283753756,-4.82320612156,
-3.24495606482,0.362940745353,-1.18462812585,2.24118340292,3.23787154926,2.58548405131,-0.388649198609,-0.274191689792,-1.56182556759,-2.4540181947,4.50350455183,0.1814940412,2.34906809838,-3.78192243985,-4.84460818774,-0.582871104146,0.107347622673,-0.783405660445,1.01203795813,1.30429205727,1.37525029049,-1.73679527005,3.01177226733,-4.8099584179,-4.93094663861,-2.17528123663,-3.67869440375,-0.0742774577866,2.78215955443,-2.7949890307,3.95026779552,-0.128997039507,-2.62112954205,1.6483484548,2.766433807,-0.550796523158,-6.51004343385,1.39883724326,3.09778765088,-2.71193919953,-6.18525722941,1.4956049934,-4.83458831416,
-3.41829398502,0.309480167687,-1.22336285332,2.37990143691,3.41838044513,2.70219168378,-0.338511563672,-0.260753350284,-1.64087708509,-2.55937565886,4.7270116716,0.267896413449,2.40971677312,-3.98009244692,-5.08139118176,-0.608367519337,0.086957045793,-0.790839512529,1.05315424312,1.35434576994,1.44058465157,-1.78519051852,3.10216049517,-4.92720610103,-5.04117363655,-2.22861195945,-3.71145356541,-0.0903892121101,2.75537607112,-2.84580920191,4.01104848846,-0.200290621529,-2.80975778091,1.69577453913,3.03197242034,-0.58624911853,-6.8604083864,1.43713648253,3.19554525715,-2.75022370391,-6.2952575075,1.55931964953,-4.84387003473,
-3.57273845748,0.253369781872,-1.26144584566,2.51236869901,3.58323207153,2.80455409086,-0.289643561384,-0.24594427667,-1.71700378537,-2.65477107394,4.92827770165,0.353249777143,2.46564484916,-4.16833165819,-5.29707342316,-0.631458839611,0.0660822244361,-0.799618589283,1.09185036992,1.39928593872,1.50054049263,-1.82757880189,3.17799316994,-5.0278655755,-5.13580857782,-2.27582471814,-3.74070005712,-0.103978785635,2.73129902918,-2.89292663475,4.07083784152,-0.264994089002,-2.97791137761,1.73379691984,3.26670831148,-0.616208114127,-7.16719673463,1.47015399342,3.28350750511,-2.78601116961,-6.39501459847,1.61552000201,-4.85158807576,
-3.71158888862,0.197654851192,-1.29805459463,2.63862080668,3.73318764172,2.89523389336,-0.243618877685,-0.230723325902,-1.79002101378,-2.74085825517,5.11125996069,0.434762888437,2.51710015091,-4.34678779611,-5.49252787183,-0.652395962379,0.0457897699029,-0.809202566645,1.12854035,1.43978155506,1.55532452125,-1.86498451786,3.24233701449,-5.11527322973,-5.21802220689,-2.31803600436,-3.7670255045,-0.115539690766,2.70944920368,-2.93688821146,4.12937745883,-0.323979523501,-3.12869929347,1.76479667762,3.47523327132,-0.641755279662,-7.43814100208,1.4987799618,3.36299802956,-2.81959189556,-6.48565030525,1.66540331296,-4.85812180623,
-3.83760137136,0.144230183673,-1.33281933882,2.75899137594,3.86943979264,2.97636992521,-0.201190275111,-0.215613103085,-1.86000803811,-2.81854261346,5.27916808702,0.511013858697,2.56455801107,-4.51611739138,-5.66939953538,-0.671483748928,0.0266373352198,-0.819245618942,1.16351989434,1.47641091806,1.60523281245,-1.89821631687,3.29757281531,-5.1920248049,-5.29027771321,-2.35609986695,-3.79088121562,-0.125457577531,2.68944851268,-2.97812267777,4.18649777027,-0.378019609079,-3.26471099288,1.79046394928,3.66137891583,-0.663730841606,-7.6794279086,1.52371524983,3.43515566361,-2.85119920299,-6.56830867426,1.70997212612,-4.86374268975,
-3.952992263,0.0939926038856,-1.36565983675,2.87393268008,3.99338416009,3.04962590441,-0.162494798243,-0.200868032076,-1.92717217483,-2.88883017984,5.43448241888,0.581690818254,2.60857045312,-4.67717881765,-5.82970084324,-0.689012256436,0.00882313830143,-0.829532179663,1.19700893494,1.50968882651,1.65059738081,-1.92791825762,3.34552949947,-5.26012498769,-5.35447229338,-2.39067350327,-3.81261979118,-0.134028534384,2.67100579313,-3.01696804673,4.24209474999,-0.42774785707,-3.38806253482,1.81201308736,3.82837607895,-0.682775201886,-7.8959604571,1.54559834306,3.5010332468,-2.88102205445,-6.64408715847,1.75011768711,-4.86864725196,
-4.05952125307,0.0470962679112,-1.39665918592,2.9839295969,4.1064735631,3.11629248032,-0.127267019565,-0.18659121399,-1.99176722728,-2.95272242773,5.57909689221,0.64723205617,2.6496568472,-4.83087653721,-5.97554880139,-0.705226081747,-0.00767922084258,-0.839923207889,1.22918205898,1.54007955693,1.69177472737,-1.9546167641,3.38760986677,-5.32112603209,-5.41206800248,-2.42227554247,-3.83252402412,-0.141484056427,2.65389178652,-3.05369788223,4.29611102338,-0.473679783373,-3.50052038113,1.83034818199,3.97901981426,-0.699391382241,-8.09163897333,1.56503472057,3.56161814488,-2.909223848,-6.71399168163,1.78664258999,-4.87297963462,
-4.15858663697,0.0032316948291,-1.42596537648,3.08945508383,4.2101124918,3.17739129832,-0.0950265348253,-0.172813064574,-2.05404149355,-3.01114010501,5.7144766045,0.708469752515,2.68823100815,-4.97807483725,-6.10897983774,-0.72031969209,-0.0230133452086,-0.850317876043,1.2601841069,1.56799670094,1.72914413093,-1.97875037467,3.42489607525,-5.37623682839,-5.46419598734,-2.45132506358,-3.85082548621,-0.148009304458,2.63792118951,-3.0885391308,4.3485229377,-0.516247936834,-3.60360205925,1.84616851274,4.11576565521,-0.71399166398,-8.26960073893,1.58257639355,3.61781617608,-2.93596346702,-6.77892225447,1.82025183245,-4.87684713359,
-4.2513108653,-0.0381163721893,-1.4537205291,3.19094296373,4.30557611612,3.23375961492,-0.0652313939506,-0.159541587847,-2.11420587271,-3.06487094243,5.84179062335,0.766319778058,2.72456263047,-5.11954578777,-6.23181534821,-0.734444487671,-0.0373590153676,-0.86062939939,1.29013641953,1.5937967993,1.76310120759,-2.00068655811,3.45823230352,-5.42640520669,-5.51173647426,-2.47816611337,-3.8677165533,-0.153754955394,2.6229418049,-3.12168327735,4.39933173835,-0.555827503208,-3.69863141693,1.8600298984,4.24076722001,-0.726920930545,-8.43240539632,1.59869084895,3.67042591842,-2.96140865127,-6.83967086088,1.8515363731,-4.88033090883,
-4.338608515,-0.077464966371,-1.48002064226,3.28877238644,4.39395497923,3.28610828218,-0.0373908462106,-0.146789882307,-2.17241986288,-3.11454227117,5.96201034484,0.821550813488,2.75877377793,-5.2559410345,-6.34557417928,-0.747718443692,-0.0508767142752,-0.870773045074,1.31913966662,1.61777376447,1.79404425987,-2.02073231328,3.48828571132,-5.47238012711,-5.55538003302,-2.50308367103,-3.88335861823,-0.158845022581,2.60882784747,-3.15329358372,4.44855730487,-0.592749906382,-3.78676180804,1.87237900111,4.35588588546,-0.738465443385,-8.58216967168,1.61374065151,3.72011836661,-2.98573730352,-6.89692009656,1.88096329809,-4.88349337597,
-4.42123541748,-0.115203372266,-1.50490504058,3.38326317076,4.47612991967,3.33505412554,-0.0111319179846,-0.134585370321,-2.22879309908,-3.16061934871,6.07597354092,0.874655293689,2.79086679492,-5.38778485249,-6.45143634973,-0.760234644372,-0.0636775831649,-0.88066401819,1.34727631363,1.64015826915,1.82235729768,-2.03914273981,3.51558952789,-5.51475909486,-5.59567453892,-2.52631460821,-3.89788805375,-0.163382097465,2.59547555736,-3.18351006437,4.49623350949,-0.627309152909,-3.86898521241,1.88357228028,4.46269546076,-0.748856936828,-8.72066179955,1.62798064614,3.76742795833,-3.00912797192,-6.95123952842,1.90887806451,-4.88638334359,
-4.49982236611,-0.151541717897,-1.52836794918,3.47467994621,4.55277751989,3.38113288402,0.0137793256085,-0.122966826204,-2.28339789814,-3.20342653962,6.18441914974,0.925823396474,2.82077153888,-5.51548539392,-6.55025846557,-0.772068390416,-0.0758165600622,-0.890221841699,1.37461328925,1.66112312276,1.84839440831,-2.05612920103,3.5405730638,-5.55402439804,-5.63306090465,-2.54805560963,-3.91142075052,-0.167450848847,2.58280014685,-3.21245305886,4.54240456058,-0.659764543118,-3.94613804864,1.89388728998,4.56249219601,-0.758276834705,-8.84936729735,1.64157035507,3.81275423702,-3.03174408399,-7.00308037522,1.93551771691,-4.88903962922,
-4.57489859673,-0.186524740528,-1.55037981997,3.56324148137,4.62440039614,3.42480111786,0.0374531788631,-0.111976590941,-2.33628694493,-3.24318432308,6.28800162769,0.974999464476,2.84839450591,-5.63935810252,-6.64263153027,-0.783283485719,-0.0873031548131,-0.899377015607,1.40120447811,1.68079349256,1.87246857096,-2.07186717778,3.56358300413,-5.59057052143,-5.66789974792,-2.56846936248,-3.92405569686,-0.171120474233,2.57073339133,-3.24022595143,4.58712188963,-0.690341180419,-4.01890777352,1.90353156982,4.65631260544,-0.766861349016,-8.96953590529,1.65459492158,3.85637093446,-3.05371808169,-7.05277158457,1.96103073399,-4.89149363274,
-4.64690902089,-0.22008720462,-1.57090686102,3.64913176788,4.69137230948,3.46643479913,0.0599145265058,-0.101654002959,-2.38751062549,-3.28005249562,6.38729467989,1.02198679623,2.87365524853,-5.75965369488,-6.72896300034,-0.793937704035,-0.0981220677941,-0.908076280401,1.42709285866,1.69925980959,1.89484626885,-2.08650330523,3.58489931727,-5.62472437411,-5.70049066506,-2.58768994039,-3.93587789719,-0.174446713092,2.55922132296,-3.26691745566,4.63044135812,-0.719229100374,-4.08784182696,1.91265240176,4.7449593085,-0.77470697432,-9.08221692353,1.66708832579,3.89844093686,-3.0751411877,-7.10052279902,1.98549945305,-4.89377117152,
-4.71622662144,-0.2521245056,-1.58992369991,3.73251107862,4.75398650471,3.50632968114,0.0811488809163,-0.0920318745077,-2.43713029217,-3.31416962501,6.48279172268,1.06656388845,2.89650611281,-5.87658447526,-6.80956103988,-0.80408667979,-0.108255643325,-0.916284920576,1.45231256567,1.7165908377,1.91574776255,-2.10016114501,3.60474795051,-5.65675976629,-5.73108566534,-2.6058279637,-3.94696082953,-0.177473880978,2.54822165844,-3.29260378153,4.67242075832,-0.746582894987,-4.1533607037,1.9213482752,4.82903469218,-0.781876727061,-9.18828790883,1.67905493722,3.9390376046,-3.09606190327,-7.14643956137,2.00896260927,-4.89589378496,
-4.78315995032,-0.282555122676,-1.60742173399,3.81352684452,4.81249682324,3.54470572052,0.101143129591,-0.0831335257555,-2.48522591874,-3.34568074845,6.57490661568,1.10858030565,2.91694258543,-5.99034590752,-6.88470130031,-0.81378549895,-0.117701669484,-0.923986971016,1.47689127254,1.73284444179,1.93535154308,-2.11294566579,3.62331139248,-5.68690771182,-5.7598984542,-2.62297578011,-3.95736856784,-0.180237179154,2.53770080841,-3.31735088012,4.71311770181,-0.772524754924,-4.21577702824,1.92968051349,4.90898059839,-0.788408541427,-9.28847980155,1.6904871983,3.97817192138,-3.11649252073,-7.19055160322,2.03143616407,-4.89787967034,
-4.84795689199,-0.311359352863,-1.62341786304,3.89232412891,4.86714491575,3.58171603905,0.119912136543,-0.074967442507,-2.53189815927,-3.37474953388,6.66397597222,1.14801129395,2.93501333065,-6.10113276549,-6.95466538462,-0.823088142465,-0.126482719016,-0.931184935606,1.50085293087,1.7480744112,1.95380070431,-2.12494677149,3.64073744792,-5.71536417669,-5.78711125805,-2.63921250362,-3.96715761145,-0.182765229353,2.52763065102,-3.34121675649,4.75258802536,-0.797152373647,-4.27532046899,1.93768303928,4.98512002294,-0.794326352307,-9.38339997186,1.70137805831,4.0158217631,-3.13642011906,-7.23284841798,2.05293030448,-4.89974437544,
-4.91080828475,-0.338589742776,-1.63796345341,3.96905394117,4.9181724936,3.61745997382,0.137508299234,-0.0675205112139,-2.57726557528,-3.4015566842,6.75026445018,1.18496588831,2.95082997801,-6.20914947409,-7.01975237791,-0.832045882661,-0.134646507983,-0.937899256684,1.52422039422,1.76233329752,1.97120934905,-2.13624222368,3.65714638718,-5.74229646063,-5.81288041584,-2.65460837817,-3.97637839215,-0.185082462846,2.51798560433,-3.36425360853,4.79088480324,-0.820549471928,-4.33216495934,1.94536999439,5.05769601883,-0.799651729534,-9.47355356492,1.71172767538,4.05195768367,-3.15581824398,-7.27331253765,2.07346071956,-4.9015013246,
-4.971855172,-0.364359094313,-1.65114836933,4.04387695696,4.9658224441,3.65199873452,0.154017052007,-0.0607541719386,-2.62145834367,-3.42629051194,6.83397452222,1.2196589646,2.96456859231,-6.31461388423,-7.08027361267,-0.840705874502,-0.142259627714,-0.944166350179,1.54701729502,1.77567265971,1.98766832347,-2.14690005311,3.67263678299,-5.7678486603,-5.83734119937,-2.66922790939,-3.98507641839,-0.187210914944,2.50874058124,-3.38650948195,4.82805794918,-0.84279448218,-4.38645286778,1.95274248918,5.12690402572,-0.80441234298,-9.55936298568,1.72154523902,4.08656095883,-3.17465694044,-7.3119427694,2.09305371248,-4.90316221167,
-5.03120044761,-0.388817364062,-1.66309620681,4.11696180829,5.01033437071,3.68537109688,0.169544700419,-0.0546066031318,-2.66461035833,-3.44913610053,6.91526039431,1.25236639428,2.97645740849,-6.41775468688,-7.13654178643,-0.849110516702,-0.149398385844,-0.950034431413,1.569268874,1.78814240079,2.00325044217,-2.15698038769,3.68729040109,-5.79214615712,-5.86061179826,-2.68313159509,-3.99329306998,-0.18917122109,2.49987006249,-3.40802929681,4.86415427436,-0.863964492884,-4.43831212886,1.95979527361,5.1929156161,-0.808644971088,-9.64118519714,1.73084779055,4.11963283367,-3.19291016032,-7.34876497174,2.11174647585,-4.90473728004,
-5.08892231127,-0.412127990911,-1.67395233353,4.18847955792,5.05193891991,3.71760642748,0.184204940909,-0.0490000325159,-2.70685178984,-3.47026700953,6.99424334904,1.2833812644,2.98675436521,-6.51880453827,-7.18886108393,-0.857297449808,-0.156140108324,-0.955557893891,1.59100192158,1.79979019442,2.01801538408,-2.16653668691,3.70117633427,-5.81529903833,-5.88279635755,-2.69637654441,-4.00106612043,-0.190982941628,2.49134808165,-3.4288553365,4.89921780661,-0.884134940478,-4.48786558846,1.96652266182,5.25589338003,-0.812393749643,-9.71932647703,1.73965791337,4.15119654124,-3.21056025123,-7.38383267272,2.12958466809,-4.9062355181,
-5.14508606681,-0.434449805787,-1.68386980572,4.25859712485,5.09085315167,3.74873348183,0.198108119203,-0.0438497602558,-2.74830355245,-3.48984059823,7.07102519248,1.31298161043,2.99572303683,-6.61799191625,-7.23752032072,-0.865299831241,-0.162556821437,-0.960791849617,1.61224421817,1.810661224,2.03201405421,-2.17561652495,3.71435436697,-5.83740457104,-5.9039871628,-2.70901647667,-4.00843008744,-0.192664506027,2.48314870355,-3.44902741094,4.93329019338,-0.903377473238,-4.53523441101,1.97292256243,5.31599818557,-0.815706177169,-9.79405435825,1.74800142864,4.18129470294,-3.22759971542,-7.41722178944,2.14661911542,-4.90766480379,
-5.19975223875,-0.455926186934,-1.6929975753,4.32747184923,5.12727765958,3.77878498485,0.211354608147,-0.0390718721686,-2.78907414301,-3.50799637185,7.1456978577,1.3414121255,3.00361382374,-6.71553413411,-7.28278886326,-0.873146662169,-0.168711749287,-0.965788056544,1.63302382494,1.82079811109,2.04529203591,-2.18426213366,3.72687751437,-5.85854900101,-5.92426622175,-2.72110151663,-4.01541649544,-0.194233035938,2.47524662706,-3.46858288798,4.96641107305,-0.921758068133,-4.58053815992,1.97899820377,5.37339105181,-0.818629194661,-9.86560671619,1.75590551452,4.20998456834,-3.24403088834,-7.44902328981,2.16290271363,-4.90903202533,
-5.25298090108,-0.476680382307,-1.70147280437,4.39524809919,5.16139537398,3.80779903784,0.224031881669,-0.0345883627161,-2.82925853997,-3.52485631246,7.21834904448,1.36887738006,3.01065271175,-6.81163262255,-7.32491463429,-0.880863116221,-0.17465813214,-0.970592578416,1.6533684333,1.83024090726,2.05789192997,-2.19251087275,3.7387937721,-5.87880894548,-5.94370649424,-2.73267802367,-4.0220541014,-0.195704195245,2.46761769992,-3.48755670882,4.99861836372,-0.939336207789,-4.62389360517,1.98475804697,5.4282320455,-0.82120647539,-9.93419828105,1.76339729653,4.23733286697,-3.25986441415,-7.47933622688,2.17848797471,-4.91034319224,
-5.30483322511,-0.496814987811,-1.70941701077,4.46205581537,5.1933716867,3.83581864956,0.236214146732,-0.030329801094,-2.86893851988,-3.54052630989,7.28906486836,1.39554250232,3.01703654601,-6.90647049716,-7.36412365073,-0.888470890727,-0.18043955847,-0.975244883419,1.673304856,1.83902710985,2.06985466053,-2.20039570682,3.75014722003,-5.89825256031,-5.9623729368,-2.74378854276,-4.0283691083,-0.197092119949,2.4602392701,-3.50598143463,5.02994846283,-0.956164993892,-4.66541340651,1.99021473682,5.48067809527,-0.823477046115,-10.0000250879,1.7705028477,4.2634112847,-3.27511730376,-7.50826223118,2.19342530019,-4.9116035407,
-5.35537145121,-0.516413716616,-1.71693491705,4.52801045305,5.22335547014,3.86289044145,0.247963404949,-0.0262362534396,-2.90818376285,-3.55509808709,7.35793071145,1.42153770873,3.02293259175,-7.00021189494,-7.40062067313,-0.895988593094,-0.186091080305,-0.979777876625,1.69285867042,1.84719171021,2.0812200112,-2.20794569972,3.76097867052,-5.91694057027,-5.98032344075,-2.75447188176,-4.03438537379,-0.198409428258,2.45309037532,-3.52388733254,5.06043637267,-0.972291771413,-4.70520512997,1.99538379992,5.53088085753,-0.825474894585,-10.0632674476,1.7772465279,4.28829297458,-3.28981108818,-7.53590167047,2.20776190013,-4.9128176327,
-5.40465820196,-0.535544126761,-1.72411488437,4.59321375186,5.25148060367,3.88906318631,0.259331117844,-0.0222571779008,-2.94705328361,-3.56865124666,7.42503120598,1.44696420034,3.02848038061,-7.09300246592,-7.43459060277,-0.903432149058,-0.191640600815,-0.984218422559,1.71205399456,1.8547672863,2.09202669157,-2.21518650558,3.77132603669,-5.93492719478,-5.99760968814,-2.76476328674,-4.04012461395,-0.199667291431,2.44615180314,-3.54130249332,5.09011577338,-0.987758905614,-4.74337068187,2.00028248858,5.57898512745,-0.827229154567,-10.1240919537,1.78365059965,4.31205013307,-3.30397030414,-7.56235125955,2.2215412239,-4.91398944698,
-5.45275567418,-0.554260504132,-1.73103013481,4.65775490239,5.27786770782,3.91438650972,0.270359975897,-0.0183508025051,-2.98559690349,-3.58125522513,7.49044991706,1.47190000465,3.03379451049,-7.18497051297,-7.46620030777,-0.910815206248,-0.197110237317,-0.988588061434,1.7309133679,1.86178413936,2.10231217833,-2.22214083115,3.78122455106,-5.9522609769,-6.01427792776,-2.77469468036,-4.0456065992,-0.200875542973,2.43940605976,-3.55825296926,5.11901906384,-1.00260451503,-4.78000609606,2.00492891081,5.6251278911,-0.828764561602,-10.1826529091,1.78973506336,4.33475248574,-3.31762136023,-7.58770276812,2.23480276703,-4.91512246072,
-5.49972495481,-0.572606489809,-1.73774028836,4.72171183704,5.3026258831,3.93890987175,0.281085517778,-0.0144832878158,-3.02385661444,-3.59297104685,7.55426900335,1.4964050969,3.03896766533,-7.27622842733,-7.49560062274,-0.918149507915,-0.202517518549,-0.992903754084,1.74945770992,1.86827046379,2.11211249129,-2.22882885239,3.790706917,-5.96898551758,-6.03036966872,-2.78429493308,-4.05084933942,-0.202042807194,2.43283728105,-3.57476292175,5.14717738581,-1.01686308946,-4.815201575,2.0093414413,5.6694379279,-0.830101995062,-10.2390934253,1.79551765774,4.35646646713,-3.33079173599,-7.61204248611,2.24758213604,-4.91621972141,
-5.54562553197,-0.590617287713,-1.74429296482,4.78515249354,5.32585433377,3.96268183429,0.291537500783,-0.0106278326654,-3.06186777252,-3.60385283535,7.61656895989,1.52052558615,3.04407351233,-7.36687419876,-7.52292834105,-0.925445220245,-0.207876370134,-0.997178577986,1.76770633335,1.87425253606,2.12146199184,-2.23526857773,3.79980343775,-5.98514011832,-6.04592229169,-2.79359014414,-4.05586925606,-0.203176633207,2.42643111139,-3.59085477049,5.17462064214,-1.03056598962,-4.84904169582,2.01353835155,5.71203581656,-0.831259012807,-10.2935463399,1.80101397672,4.3772548886,-3.34350943621,-7.63545117209,2.25991127764,-4.9172839094,
-5.59051498923,-0.608321426096,-1.75072533036,4.84813597752,5.34764381836,3.98574957176,0.301741007978,-0.00676379869985,-3.0996601067,-3.6139490799,7.67742845924,1.54429698625,3.04916934579,-7.45699287325,-7.54830808701,-0.932711205937,-0.21319789238,-1.00142234566,1.78567699362,1.87975490989,2.13039324047,-2.24147615777,3.80854214372,-6.00076033844,-6.06096958168,-2.80260391661,-4.06068134004,-0.204283625067,2.42017456897,-3.60654933866,5.20137751521,-1.04374185059,-4.88160571354,2.01753759032,5.75303420434,-0.832250339127,-10.3461350324,1.80623766128,4.39717692431,-3.35580262456,-7.65800428449,2.27181880177,-4.91831739155,
-5.6344488418,-0.625742113724,-1.75706553643,4.9107135949,5.36807790929,4.00815857023,0.311717317308,-0.00287588722596,-3.13725855283,-3.62330367683,7.73692427247,1.5677466936,3.05429844704,-7.5466578914,-7.57185401003,-0.939955243737,-0.218490956759,-1.00564214063,1.80338596061,1.88480060846,2.13893692101,-2.2474661458,3.8169489247,-6.01587847478,-6.07554218824,-2.81135761655,-4.06529929509,-0.205369562481,2.41405590959,-3.62186599028,5.22747548901,-1.05641691516,-4.91296791395,2.02135665809,5.79253822881,-0.833088294955,-10.3969741733,1.81120063367,4.41628828788,-3.36769937599,-7.67977235839,2.28333034842,-4.91932226706,
-5.67748046992,-0.642898257836,-1.76333403122,4.97292974883,5.38723406713,4.02995246296,0.32148457236,0.001046618212,-3.17468393303,-3.63195677461,7.79513124254,1.59089582369,3.05949216995,-7.6359322783,-7.59367128003,-0.94718419787,-0.223762654035,-1.00984277615,1.82084810254,1.88941130769,2.14712182467,-2.25325171523,3.82504766694,-6.03052397245,-6.08966802081,-2.819870611,-4.06973566693,-0.206439509159,2.40806449663,-3.63682275779,5.25294087616,-1.06861531861,-4.94319798438,2.02501253554,5.83064601266,-0.833783172194,-10.4461704218,1.81591334998,4.43464150994,-3.37922750396,-7.7008214389,2.29446896457,-4.92030040615,
-5.71966111203,-0.659805215463,-1.76954473946,5.03482270773,5.40518454667,4.05117295917,0.331058295937,0.00501053934862,-3.21195350379,-3.63994545453,7.85212228532,1.61376055277,3.06477177506,-7.72486967802,-7.61385738644,-0.954404143354,-0.229018626015,-1.01402718537,1.83807697518,1.89360750791,2.15497488148,-2.25884484031,3.83286039247,-6.04472377528,-6.1033725866,-2.82816048215,-4.07400195892,-0.207497907748,2.40219068155,-3.65143645881,5.27779884973,-1.08035934019,-4.97236138164,2.02852164042,5.8674491787,-0.834343558764,-10.4938230746,1.82038505451,4.45228625635,-3.39041443261,-7.72121351596,2.30525546978,-4.92125348257,
-5.76103988988,-0.676475343796,-1.77570611363,5.09642525638,5.4219971561,4.07185983244,0.340451783374,0.00901942103156,-3.24908139575,-3.64730427692,7.90796839901,1.63635309107,3.07015003767,-7.81351523872,-7.63250325535,-0.961620453806,-0.234263308746,-1.01819675198,1.85508491169,1.89740869253,2.16252122628,-2.26425644648,3.84040739737,-6.05850262398,-6.11667927862,-2.83624321764,-4.07810873535,-0.208548661418,2.39642569678,-3.66572280194,5.3020734794,-1.09166963124,-5.00051968419,2.03189979744,5.90303335189,-0.834776621947,-10.5400246675,1.82462402546,4.46926964857,-3.40128709426,-7.74100692829,2.31570879777,-4.92218300065,
-5.80166384684,-0.692918405324,-1.78182206376,5.15776524392,5.43773589053,4.09205094406,0.349676406334,0.0130740819256,-3.2860789659,-3.65406571935,7.96273866886,1.65868239057,3.07563265429,-7.9019063619,-7.64969420443,-0.968837858245,-0.239500110028,-1.02235158996,1.87188311045,1.90083347365,2.16978428769,-2.26949653555,3.84770738611,-6.07188330926,-6.12960962038,-2.84413337767,-4.08206571332,-0.209595202831,2.39076156175,-3.67969648177,5.32578777088,-1.10256542567,-5.02773092074,2.03516221238,5.93747862875,-0.835088356953,-10.5848615265,1.82863780553,4.48563656314,-3.41187183992,-7.76025671941,2.32584630767,-4.92309031775,
-5.84157798743,-0.709141872758,-1.78789277493,5.21886604305,5.45246145931,4.1117822835,0.358741851594,0.0171731020348,-3.3229550805,-3.66026052894,8.0165002583,1.68075466733,3.08121947018,-7.99007333312,-7.66551075639,-0.976060472956,-0.244731539377,-1.02649077993,1.88848171925,1.90389972492,2.17678589056,-2.27457429035,3.85477759978,-6.08488688626,-6.14218347348,-2.8518442406,-4.08588184438,-0.210640551604,2.38519100169,-3.69337126393,5.34896370771,-1.11306473618,-5.054049871,2.03832344622,5.97086000436,-0.835283806443,-10.6284142706,1.83243341418,4.50142989724,-3.42219435552,-7.77901493801,2.33568406205,-4.92397666259,
-5.88082531134,-0.725151168777,-1.79391542283,5.27974693443,5.46623172327,4.13108801391,0.367656313725,0.0213132518821,-3.35971634462,-3.66591800656,8.06931838166,1.70257379908,3.08690554877,-8.07803985331,-7.68002933023,-0.983291813975,-0.249959304538,-1.03061256901,1.90488991515,1.90662470189,2.18354636487,-2.27949816259,3.8616339368,-6.09753285607,-6.15441921339,-2.85938792915,-4.08956538714,-0.21168736152,2.3797073783,-3.70676006078,5.37162229446,-1.12318453731,-5.07952833653,2.0413973872,6.00324775268,-0.835367255442,-10.6707582648,1.83601753998,4.51669079412,-3.43227957938,-7.79733088111,2.34523707173,-4.92484315028,
-5.91944683899,-0.740949867004,-1.79988479828,5.3404234292,5.47910205578,4.15000051491,0.376426655967,0.0254898687196,-3.39636729128,-3.67106623684,8.12125625581,1.72414164271,3.09268210249,-8.16582349034,-7.69332282728,-0.990534795312,-0.255184385374,-1.03471454011,1.92111597972,1.90902515009,2.1900846554,-2.28427594717,3.86829106523,-6.10983931926,-6.16633387832,-2.86677551903,-4.09312397161,-0.212737958748,2.37430463126,-3.71987499859,5.39378360042,-1.13294093575,-5.10421538102,2.04439722075,6.03470776038,-0.835342404896,-10.7119640274,1.83939671233,4.53145882638,-3.44215161909,-7.81525128221,2.35451950816,-4.92569079448,
-5.95748162823,-0.756539873396,-1.80579385161,5.40090754191,5.49112563854,4.16855041839,0.385058549862,0.0296971853802,-3.43291054165,-3.67573227477,8.17237503047,1.74545830313,3.09853730284,-8.25343606993,-7.70546112664,-0.997791717663,-0.26040709335,-1.03879375596,1.93716736962,1.91111740065,2.19641842836,-2.28891484546,3.8747625262,-6.12182310588,-6.17794329519,-2.87401713245,-4.09656465649,-0.213794372365,2.36897722935,-3.73272747719,5.41546680322,-1.14234932695,-5.12815754083,2.0473353977,6.06530181664,-0.835212526107,-10.7520975923,1.84257745244,4.54577213793,-3.45183366719,-7.83282044897,2.36354488524,-4.92652051722,
-5.99496678326,-0.771921601343,-1.8116341673,5.461208025,5.50235370127,4.18676663539,0.393556601256,0.0339286173646,-3.46934694508,-3.67994229693,8.2227336982,1.76652237526,3.10445698611,-8.3408840242,-7.71651150227,-1.00506425207,-0.265627122794,-1.04284688257,1.9530507826,1.9129174534,2.20256417214,-2.29342151971,3.88106082866,-6.13349988578,-6.18926218674,-2.88112201829,-4.09989397998,-0.214858358384,2.36372012972,-3.74532822282,5.43669023162,-1.1514245372,-5.15139900678,2.05022360221,6.09508786326,-0.834980597476,-10.7912208306,1.84556640331,4.55966754694,-3.46134791634,-7.85008035661,2.37232621227,-4.92733315687,
-6.03193745827,-0.787094148983,-1.81739637861,5.52133057497,5.51283571288,4.20467637452,0.401924468001,0.0381770135339,-3.50567570666,-3.68372172334,8.27238898666,1.78733117291,3.11042526961,-8.42816871446,-7.72653897179,-1.01235342267,-0.27084359855,-1.0468702961,1.96877221906,1.9144410468,2.20853729009,-2.29780214045,3.88719753531,-6.14488426275,-6.20030426286,-2.88809862102,-4.10311800512,-0.215931418462,2.35852874432,-3.75768733504,5.45747140717,-1.16018094965,-5.17398177921,2.0530727208,6.12412021021,-0.83464942436,-10.8293917355,1.84837043847,4.57318061343,-3.47071547549,-7.86707070405,2.38087611986,-4.92812947463,
-6.06842685872,-0.802055483434,-1.82307053097,5.58127801932,5.52261953069,4.22230515323,0.41016497287,0.0424348753937,-3.541894508,-3.68709531446,8.3213952371,1.80788095244,3.11642509151,-8.51528674318,-7.73560658567,-1.01965959246,-0.27605512335,-1.05086017677,1.9843370392,1.9157037145,2.21435218431,-2.30206242834,3.89318334039,-6.1559898555,-6.21108229927,-2.89495464031,-4.10624236006,-0.217014814425,2.3533989118,-3.76981432854,5.47782708418,-1.16863261288,-5.19594579865,2.05589281456,6.15244972241,-0.834221742457,-10.866664674,1.850996749,4.58634567557,-3.47995628928,-7.88382894057,2.38920696065,-4.92891015998,
-6.10446624356,-0.816802633553,-1.82864640158,5.64105049247,5.5317515135,4.23967680497,0.418280213809,0.0466945494584,-3.5779996257,-3.69008724673,8.36980427367,1.82816713476,3.12243868575,-8.60223026771,-7.74377566405,-1.02698245548,-0.281259827209,-1.05481259255,1.99975001575,1.91672082784,2.22002232957,-2.30620769167,3.89902813958,-6.16682936831,-6.22160820604,-2.90169708291,-4.10927227418,-0.218109579664,2.34832687402,-3.78171817049,5.49777328785,-1.17679333081,-5.21732905464,2.05869309611,6.18012398385,-0.833700304911,-10.9030906101,1.85345290847,4.59919585946,-3.48908906323,-7.90039027109,2.39733088618,-4.92967583537,
-6.14008493144,-0.831331890499,-1.83411378178,5.70064560748,5.54027660406,4.25681348514,0.426271672546,0.0509483966175,-3.61398605079,-3.69272116922,8.41766526953,1.84818452597,3.12844800207,-8.68898732561,-7.75110598748,-1.03432103848,-0.286455420292,-1.05872357524,2.01501538236,1.91750762439,2.22556033718,-2.31024286059,3.90474109268,-6.17741465355,-6.23189308826,-2.90833230855,-4.11221261023,-0.219216528449,2.34330925568,-3.79340731424,5.51732535023,-1.18467673315,-5.23816767569,2.06148191333,6.2071874447,-0.833087953278,-10.9387173024,1.85574691524,4.61176306729,-3.49813119771,-7.91678764807,2.40525990185,-4.93042706044,
-6.17531031395,-0.845639013549,-1.8394627274,5.76005862917,5.54823838588,4.27373567947,0.43414032172,0.0551889418224,-3.64984761125,-3.69502024383,8.46502461608,1.86792753475,3.13443507932,-8.7755421791,-7.75765594709,-1.04167371427,-0.29163924994,-1.06258919067,2.03013687763,1.91807922233,2.23097800904,-2.31417251884,3.91033067953,-6.18775676821,-6.24194730088,-2.91486607135,-4.11506789334,-0.220336264084,2.3383430462,-3.80488972996,5.53649794398,-1.19229632574,-5.25849600359,2.06426674131,6.23368155699,-0.832387672608,-10.9735894823,1.85788721229,4.62407794907,-3.50709873336,-7.93305175777,2.4130059013,-4.93116433613,
-6.21016787797,-0.859719437342,-1.84468378113,5.81928265334,5.55567911959,4.29046221802,0.441886730029,0.0594090068065,-3.68557709862,-3.69700717073,8.51192580174,1.8873903834,3.14038237887,-8.86187568263,-7.76348265901,-1.04903822859,-0.296808361908,-1.06640560445,2.0451177848,1.91845062123,2.23628638213,-2.31800093355,3.91580474991,-6.1978660261,-6.25178049914,-2.92130355801,-4.11784233705,-0.22146918679,2.33342558258,-3.81617293284,5.55530511369,-1.19966552119,-5.27834665502,2.06705418364,6.25964490369,-0.831602631072,-11.0077490147,1.85988268462,4.63616986284,-3.51600631071,-7.94921100811,2.42058068226,-4.93188810867,
-6.24468123888,-0.873568475956,-1.84976817026,5.87830879475,5.56263976339,4.3070102976,0.449511164412,0.0636018279582,-3.72116639911,-3.69870420127,8.55840930708,1.90656730864,3.14627308384,-8.94796567494,-7.76864204754,-1.056411741,-0.301959565303,-1.07016914415,2.05996096734,1.91863669014,2.24149576457,-2.32173208368,3.92117056791,-6.20775204704,-6.26140168608,-2.92764942403,-4.12053986694,-0.222615502038,2.32855453256,-3.82726400935,5.57376030488,-1.20679765049,-5.29775057369,2.06984998402,6.28511332518,-0.830736204861,-11.0412350454,1.86174263538,4.64806682854,-3.52486714607,-7.96529152432,2.42799594579,-4.93259877382,
-6.27887218549,-0.887181518814,-1.85470798196,5.93712638596,5.56915998214,4.32339551477,0.457013687944,0.0677611609049,-3.75660662853,-3.70013313993,8.60451252217,1.92545274798,3.15209136804,-9.03378739402,-7.77318890108,-1.06379087981,-0.307089500241,-1.0738763583,2.07466890067,1.91865214403,2.24661576384,-2.32536968722,3.92643485151,-6.21742380417,-6.2708192581,-2.93390782885,-4.12316414196,-0.223775229953,2.32372787727,-3.83816964209,5.59187639071,-1.21370595701,-5.31673707578,2.0726590482,6.3101200464,-0.829791989338,-11.0740841385,1.86347674221,4.65979547998,-3.53369302511,-7.98131715733,2.43526328116,-4.93329668134,
-6.31276073667,-0.900554213453,-1.8594963177,5.99572318688,5.57527814916,4.33963191089,0.464394251931,0.0718813728485,-3.79188827008,-3.70131533756,8.65026969142,1.94404150802,3.15782263784,-9.11931391091,-7.77717690429,-1.07117181001,-0.312194706837,-1.07752407231,2.08924370027,1.9185115105,2.2516553087,-2.32891722743,3.9316038078,-6.22688967007,-6.28004104918,-2.94008247064,-4.12571857408,-0.224948216212,2.31894389276,-3.84889613351,5.60966569636,-1.22040357488,-5.33533389134,2.07548547605,6.33469580657,-0.828773797693,-11.106330406,1.86509499609,4.67138101915,-3.54249431507,-7.99730950886,2.44239413891,-4.9339821397,
-6.34636520924,-0.913682630523,-1.86412742771,6.05408560454,5.58103134429,4.35573202947,0.471652780603,0.0759575232159,-3.82700131342,-3.70227167759,8.69571189008,1.96232891126,3.16345374875,-9.20451657599,-7.78065865017,-1.07855031236,-0.317271693926,-1.08110944098,2.10368714676,1.91822908852,2.25662266583,-2.33237797806,3.93668316449,-6.23615746222,-6.2890743744,-2.94617662127,-4.12820634623,-0.226134144711,2.3142011302,-3.85944942881,5.62714002145,-1.22690349416,-5.35356720367,2.07833260313,6.35886899283,-0.827685648596,-11.1380056333,1.8666076256,4.68284717648,-3.55127999518,-8.01328797522,2.44939979474,-4.93465542121,
-6.37970229598,-0.926563407052,-1.86859682595,6.11219892063,5.58645535139,4.37170698582,0.478789246932,0.0799854327765,-3.86193539313,-3.70302255732,8.74086703502,1.98031091878,3.16897319745,-9.28936547013,-7.78368563492,-1.08592187128,-0.322317005723,-1.08462999689,2.11800070857,1.91781890155,2.26152545266,-2.33575502761,3.94167819825,-6.24523448799,-6.29792607286,-2.95219316177,-4.13063042883,-0.227332552082,2.30949839445,-3.86983513823,5.64431066055,-1.23321851537,-5.3714616885,2.08120305025,6.38266577797,-0.826531744441,-11.1691393994,1.86802501,4.69421617987,-3.56005770488,-8.02926981074,2.4562913068,-4.93531676733,
-6.41278715222,-0.939193864821,-1.87290138535,6.17004752427,5.59158465746,4.3875665477,0.485803738239,0.0839617410123,-3.89667992454,-3.70358786608,8.78575993131,1.9979842273,3.17437128913,-9.37382985211,-7.7863082387,-1.09328176862,-0.327327284653,-1.08808369402,2.13218556257,1.91729464737,2.26637064754,-2.3390513024,3.94659376024,-6.25412758938,-6.30660255022,-2.95813461819,-4.13299359518,-0.228542843952,2.30483472111,-3.88005855883,5.66118842202,-1.2393611964,-5.38904055403,2.0840987799,6.40611026167,-0.825316441872,-11.1997591969,1.86935758467,4.7055087347,-3.56883380777,-8.04527021033,2.46307946926,-4.93596639423,
-6.44563348942,-0.951572101812,-1.87703941305,6.22761514605,5.5964524554,4.40331922562,0.492696510628,0.0878839512447,-3.93122423497,-3.70398696192,8.83041235425,2.01534633952,3.17964027889,-9.45787859338,-7.78857569511,-1.10062518016,-0.332299328699,-1.09146894545,2.14624261354,1.9166696469,2.27116459862,-2.34226958843,3.95143429939,-6.26284318722,-6.31510982068,-2.9640031978,-4.13529843576,-0.229764312712,2.30020935232,-3.89012469565,5.67778364554,-1.24534379435,-5.4063255826,2.08702115744,6.42922461416,-0.824044216243,-11.2298905497,1.87061574286,4.716744016,-3.57761346973,-8.06130240927,2.46977476443,-4.93660449838,
-6.47825367392,-0.963697055802,-1.88101070464,6.28488508983,5.60109065139,4.41897237063,0.499468031652,0.0917504627991,-3.96555768838,-3.70423864856,8.87484316554,2.03239560836,3.18477448529,-9.54148059177,-7.79053605197,-1.10794727166,-0.337230141866,-1.09478465418,2.16017251301,1.91595679423,2.27591303224,-2.34541255174,3.95620388364,-6.27138732481,-6.32345354827,-2.96980082536,-4.13754737152,-0.230996156413,2.29562171155,-3.90003828246,5.69410621852,-1.25117820518,-5.42333717432,2.08997101566,6.45202922043,-0.822719621588,-11.2595571302,1.87180973714,4.72793967351,-3.58640074821,-8.07737779776,2.47638731566,-4.93723126224,
-6.51065882943,-0.975568540381,-1.8848165766,6.34184045803,5.60552987756,4.43453227766,0.506119011156,0.0955605893699,-3.99966980175,-3.70436115367,8.91906846068,2.0491312561,3.18977037337,-9.62460515681,-7.79223612616,-1.11524329163,-0.342116976698,-1.09803023608,2.17397567794,1.91516850999,2.28062106199,-2.34848275726,3.96090621963,-6.27976571066,-6.33163908723,-2.97552917889,-4.13974266644,-0.232237498325,2.291071378,-3.90980380172,5.71016559164,-1.25687590333,-5.44009439247,2.09294872069,6.47454282339,-0.821347247535,-11.2887808758,1.87294958403,4.73911184926,-3.59519869039,-8.09350604675,2.48292684286,-4.93784685967,
-6.54285894156,-0.987187254887,-1.88845987554,6.39846436688,5.60979951014,4.45000429207,0.512650420707,0.0993145627161,-4.03355035169,-3.70437210977,8.963101744,2.06555337088,3.19462660438,-9.70722236036,-7.79372145515,-1.12250865802,-0.346957368244,-1.10120563379,2.18765230971,1.91431669951,2.28529319902,-2.35148268601,3.965544671,-6.28798376005,-6.33967152119,-2.98118972458,-4.14188643914,-0.233487406642,2.28655806095,-3.9194255038,5.72597079383,-1.26244788348,-5.45661501039,2.09595423789,6.49678266369,-0.819931674423,-11.3175821049,1.87404497451,4.75027520705,-3.60400943713,-8.10969524139,2.48940262202,-4.93845146117,
-6.57486296346,-0.99855477077,-1.89194496334,6.45474014815,5.61392769287,4.46539291742,0.519063502564,0.1030135209,-4.06718947038,-3.70428853844,9.00695412679,2.08166288356,3.19934404905,-9.78930334833,-7.79503624752,-1.12973903682,-0.351749159265,-1.10431132108,2.20120241377,1.91341271735,2.28993336406,-2.35441475051,3.97012227564,-6.29604663509,-6.34755570086,-2.98678375025,-4.14398067387,-0.234744913814,2.28208157482,-3.92890742526,5.74153044689,-1.26790460603,-5.47291555938,2.09898719627,6.51876461443,-0.818477427719,-11.3459796319,1.87510519263,4.76144297238,-3.61283433038,-8.12595201833,2.49582344955,-4.9390452387,
-6.6066789214,-1.00967349783,-1.89527767705,6.51065153478,5.61794136521,4.48070192262,0.525359769584,0.106659480476,-4.10057772993,-3.70412683857,9.05063454348,2.09746152897,3.20392576175,-9.87082061062,-7.79622333515,-1.13693041093,-0.356490516985,-1.10734829685,2.21462582018,1.91246733905,2.29454490175,-2.35728130837,3.97464176205,-6.30395928287,-6.35529627984,-2.99231239686,-4.14602723074,-0.236009035014,2.27764181527,-3.93825340609,5.75685277989,-1.27325594771,-5.48901137681,2.10204695032,6.54050330895,-0.816988932631,-11.37399088,1.87613904382,4.77262698125,-3.62167402124,-8.142281703,2.50219761204,-4.93962836999,
-6.63831401962,-1.02054663439,-1.89846526295,6.56618282825,5.62186629499,4.49593444668,0.53154099777,0.110255292351,-4.13370621511,-3.70390277888,9.09414998075,2.11295179573,3.20837691357,-9.95174820849,-7.79732412925,-1.14407913823,-0.36117994203,-1.11031806859,2.22792220492,1.91149074059,2.29913059721,-2.36008467423,3.97910556502,-6.3117264716,-6.36289774849,-2.99777668771,-4.14802785527,-0.237278785298,2.27323873694,-3.94746710571,5.77194564356,-1.27851115802,-5.50491665405,2.10513263845,6.56201226019,-0.815470469701,-11.4016319929,1.87715479394,4.78383773593,-3.63052857686,-8.15868844371,2.50853286155,-4.94020104229,
-6.66977474368,-1.03117810586,-1.90151628486,6.62131904655,5.62572711463,4.51109309986,0.537609213405,0.113804581436,-4.16656658434,-3.70363149515,9.13750571427,2.12813686939,3.21270468313,-10.0320619599,-7.79837858224,-1.15118199848,-0.365816270551,-1.11322262528,2.24109111211,1.91049248589,2.30369269511,-2.36282712981,3.98351584094,-6.31935282426,-6.37036446537,-3.00317755491,-4.14998418728,-0.238553195114,2.26887233313,-3.95655201775,5.78681652466,-1.28367882243,-5.52064448349,2.10824323736,6.58330397036,-0.813926132008,-11.4289179426,1.87816011929,4.79508446569,-3.639397584,-8.17517533945,2.51483639618,-4.94076345545,
-6.70106696189,-1.04157249611,-1.90444050713,6.67604605226,5.6295473607,4.52618005998,0.543566676738,0.117311670738,-4.19915111963,-3.70332749196,9.18070554803,2.14302057311,3.21691810563,-10.1117395849,-7.79942515747,-1.15823622899,-0.370398670704,-1.11606440026,2.25413197692,1.90948152223,2.30823292124,-2.36551093239,3.98787448267,-6.32684284968,-6.37770068615,-3.00851586291,-4.15189776921,-0.239831323919,2.26454261769,-3.96551148345,5.80147256061,-1.28876683251,-5.53620690418,2.11137761188,6.6043900303,-0.812359784532,-11.4558626348,1.87916206771,4.80637519063,-3.6482802479,-8.19174455911,2.52111484578,-4.94131582438,
-6.7321960241,-1.05173497598,-1.90724875397,6.73035066086,5.6333495159,4.54119716294,0.549415864058,0.120781491078,-4.23145276594,-3.70300464914,9.22375205166,2.1576073102,3.22102788191,-10.1907608144,-7.80050080808,-1.16523954947,-0.374926634792,-1.11884622458,2.2670441489,1.90846618306,2.31275250625,-2.36813832167,3.99218313431,-6.33420097072,-6.38491058984,-3.01379242907,-4.15377005374,-0.241112271741,2.26024960935,-3.97434870384,5.8159205541,-1.29378236325,-5.5516149459,2.11453456014,6.62528120767,-0.810775026195,-11.4824790097,1.88016703025,4.81771678666,-3.65717548513,-8.20839745023,2.52737426205,-4.94185838075,
-6.76316685745,-1.06167123248,-1.90995274761,6.78422073012,5.63715505335,4.55614598683,0.555159449755,0.124219478241,-4.26346516128,-3.70267623262,9.26664679145,2.17190201156,3.2250461513,-10.2691074655,-7.80164096608,-1.17219017688,-0.379399968298,-1.12157127228,2.27982691552,1.90745419772,2.31725221161,-2.37071152524,3.99644320588,-6.34143154957,-6.39199830206,-3.01900804116,-4.15560241092,-0.242395188675,2.25599331839,-3.98306675054,5.83016698786,-1.29873185764,-5.5668786713,2.11771285376,6.64598752416,-0.809175155037,-11.5087791389,1.88118072264,4.82911505039,-3.66608200939,-8.22513463621,2.53362011277,-4.94239137407,
-6.7939840582,-1.07138740174,-1.91256492871,6.83764523194,5.64098448247,4.57102792895,0.560800289576,0.127631459928,-4.29518265839,-3.70235490949,9.30939055154,2.18591009067,3.22898623358,-10.3467634884,-7.80287954223,-1.17908683109,-0.383818776985,-1.12424299884,2.29247952568,1.90645270724,2.32173235742,-2.37323276269,4.00065588804,-6.34853890992,-6.39896791548,-3.02416347194,-4.15739613463,-0.243679282347,2.25177373573,-3.99166857539,5.84421803954,-1.30362101846,-5.58200721621,2.12091127291,6.66651832142,-0.807563136986,-11.5347743168,1.88220817592,4.84057476236,-3.67499840957,-8.24195610118,2.53985727964,-4.9429150721,
-6.82465197914,-1.08089000778,-1.9150982634,6.89061430805,5.64485739621,4.5858442751,0.566341405838,0.131023535412,-4.32660033945,-3.70205276705,9.35198354211,2.19963740735,3.23286234726,-10.4237149892,-7.80424893688,-1.18592873257,-0.388183452984,-1.12686507464,2.30500121281,1.90546828538,2.32619285181,-2.37570424851,4.0048221668,-6.3555273561,-6.4058235072,-3.02925949112,-4.15915244863,-0.244963823494,2.24759082417,-4.00015701898,5.85807959652,-1.30845480719,-5.59700882817,2.12412863642,6.68688231647,-0.805941578691,-11.560475147,1.88325373521,4.85209974794,-3.6839232194,-8.25886126251,2.54609005939,-4.94342976069,
-6.85517481162,-1.09018590818,-1.91756604226,6.94311931152,5.64879251916,4.60059626101,0.571785974924,0.134401951251,-4.35771402505,-3.70178133547,9.39442559231,2.21309024085,3.23668931249,-10.4999502321,-7.8057800614,-1.19271559314,-0.392494660599,-1.12944131539,2.31739121735,1.90450696392,2.33063322165,-2.37812819401,4.00894283842,-6.36240118909,-6.41256915323,-3.03429687482,-4.16087251202,-0.246248149864,2.24344451165,-4.00853481826,5.87175727065,-1.31323744992,-5.61189090343,2.1273638266,6.70708764667,-0.80431270485,-11.5858916234,1.88432106582,4.86369293512,-3.69285497833,-8.27584903126,2.552322168,-4.94393574313,
-6.88555666142,-1.0992822472,-1.91998167701,6.99515283578,5.65280775636,4.61528512517,0.577137316955,0.137772976676,-4.3885202784,-3.70155161372,9.43671632583,2.22627527127,3.24048224825,-10.5754596256,-7.80750236959,-1.1994476008,-0.396753322274,-1.13197561173,2.3296488084,1.90357426141,2.33505264415,-2.38050680828,4.01301852427,-6.36916471958,-6.41920894002,-3.03927641306,-4.16255742432,-0.247531668667,2.23933468616,-4.01680461323,5.88525641284,-1.31797245012,-5.62666002277,2.13061580883,6.72714190552,-0.802678340506,-11.6110332047,1.88541316591,4.8753564091,-3.70179228328,-8.29291786126,2.5585567479,-4.94443333906,
-6.9158016175,-1.10818641563,-1.92235850104,7.04670873298,5.65692024231,4.62991215316,0.582398887162,0.141142782464,-4.41901640603,-3.7013740984,9.47885531796,2.23919956826,3.24425627395,-10.6502356958,-7.80944389806,-1.20612539977,-0.400960604944,-1.13447185998,2.34177330425,1.90267521439,2.33944997914,-2.38284229835,4.01704968573,-6.37582227808,-6.42574697329,-3.04419891537,-4.16420823004,-0.248813857843,2.23526119205,-4.02496895304,5.89858212737,-1.32266260802,-5.64132198654,2.13388364592,6.74705216967,-0.801039898686,-11.6359088836,1.88653238508,4.88709146355,-3.71073383118,-8.31006578782,2.56479637825,-4.9449228831,
-6.945913813,-1.11690601665,-1.92470958008,7.09778212288,5.66114639009,4.64447871301,0.587574268262,0.144517327034,-4.44920045563,-3.70125881507,9.52084223321,2.25187058452,3.24802622552,-10.724273049,-7.81163131462,-1.21275006654,-0.405117906777,-1.13693389636,2.35376409164,1.9018144104,2.34382380153,-2.38513686867,4.02103663906,-6.38237822229,-6.43218738421,-3.04906521516,-4.16582592295,-0.250094266421,2.23122382745,-4.03303030157,5.91173928589,-1.32731004662,-5.65588184931,2.13716650722,6.76682501848,-0.79939837376,-11.6605272497,1.88768044822,4.89889864896,-3.71967845222,-8.32729045732,2.57104308842,-4.94540472315,
-6.97589747754,-1.12544883608,-1.92704753904,7.1483693938,5.66550194036,4.65898628167,0.592667162973,0.147902253343,-4.47907121161,-3.70121535185,9.56267694309,2.26429615195,3.25180639601,-10.7975683267,-7.81408997343,-1.21932308282,-0.409226844151,-1.13936543651,2.36562064347,1.90099602193,2.34817243372,-2.38739272011,4.02497957009,-6.38883694196,-6.43853433315,-3.05387617297,-4.16741144992,-0.251372514186,2.22722234251,-4.04099104258,5.92473254092,-1.33191624367,-5.67034395471,2.14046367244,6.78646654711,-0.797754340762,-11.6848965462,1.88885848413,4.9107778183,-3.72862513389,-8.34458914911,2.57729837485,-4.9458792187,
-7.00575698044,-1.13382281566,-1.92938441031,7.19846819609,5.67000201021,4.6734364628,0.597681385807,0.151302799748,-4.50862818869,-3.70125289472,9.60435962397,2.27648447766,3.25561030932,-10.8701201523,-7.81684397594,-1.22584630601,-0.413289238623,-1.14177002208,2.37734253494,1.90022384096,2.35249397748,-2.38961204834,4.02887854854,-6.39520286136,-6.44479201124,-3.05863267891,-4.16896571451,-0.252648290904,2.22325643808,-4.04885348458,5.93756633899,-1.33648206969,-5.6847119707,2.14377453043,6.80598237425,-0.796107960833,-11.7090247205,1.89006705851,4.92272817076,-3.73757303617,-8.36195879103,2.58356322141,-4.94634673894,
-7.03549686434,-1.14203602762,-1.93173150851,7.24807742866,5.67466114177,4.68783099592,0.602620853354,0.154723727546,-4.53787162343,-3.70138026442,9.64589083546,2.2884441376,3.25945053492,-10.9419290719,-7.81991623685,-1.2323219379,-0.417307103603,-1.14415097596,2.38892945764,1.89950131345,2.35678634519,-2.39179704198,4.03273354213,-6.40148043966,-6.45096463991,-3.06333565466,-4.17048958023,-0.25392135525,2.21932576492,-4.05661986561,5.95024493318,-1.34100783115,-5.69898892574,2.14709857308,6.82537764567,-0.794458992773,-11.732919469,1.89130621079,4.934748294,-3.74652149809,-8.37939597022,2.58983812353,-4.94680766098,
-7.06512186924,-1.15009664932,-1.93409933503,7.29719721859,5.67949335099,4.7021717577,0.607489572435,0.158169267242,-4.56680246352,-3.70160595459,9.68727157982,2.30018406552,3.26333854924,-11.0129974876,-7.82332855443,-1.23875249208,-0.421282630442,-1.14651136714,2.40038123165,1.8988315735,2.36104728983,-2.39394988037,4.03654442994,-6.40767416953,-6.45705646879,-3.06798605505,-4.17198387353,-0.25519153358,2.21542992297,-4.06429235774,5.96277239516,-1.34549331845,-5.71317724606,2.15043538471,6.84465703483,-0.792806810546,-11.7565882758,1.89257549443,4.94683620559,-3.75547003635,-8.39689694058,2.59612311593,-4.94726236814,
-7.09463694705,-1.15801293671,-1.93649751526,7.3458288935,5.68451217655,4.71646075588,0.612291625728,0.16164308496,-4.59542235415,-3.70193817082,9.72850334343,2.31171353571,3.26728464783,-11.0833295843,-7.82710168495,-1.24514076061,-0.425218173709,-1.14885398598,2.41169781518,1.89821747695,2.36527443374,-2.39607273113,4.04031101526,-6.413788574,-6.463071772,-3.07258486941,-4.17344938659,-0.256458718621,2.21156846076,-4.07187307164,5.97515262661,-1.34993785789,-5.72727879419,2.15378462737,6.86382474164,-0.791150426376,-11.7800384455,1.89387402003,4.9589893941,-3.76441833665,-8.41445762827,2.60241780402,-4.94771124835,
-7.12404726703,-1.16579319596,-1.9389347698,7.39397494602,5.68973072944,4.73070011686,0.617031154724,0.165148269673,-4.62373362098,-3.7023848706,9.76958812132,2.3230421383,3.27129791051,-11.1529312473,-7.83125542104,-1.2514897804,-0.429116235513,-1.15118133041,2.42287931166,1.89766163431,2.36946529573,-2.39816774765,4.04403303759,-6.41982820218,-6.46901484337,-3.07713312281,-4.17488687986,-0.257722868116,2.20774087495,-4.07936406089,5.9873893701,-1.3543403666,-5.74129490863,2.15714602264,6.88288449045,-0.789488518932,-11.8032771307,1.89520050083,4.97120486027,-3.77336623851,-8.43207363634,2.60872139863,-4.94815469278,
-7.1533582129,-1.17344575285,-1.94141891986,7.4416389898,5.69516174358,4.74489206795,0.621712340086,0.168687341237,-4.65173924876,-3.70295380362,9.81052842636,2.3341797465,3.2753862195,-11.2218099711,-7.83580867419,-1.25780279983,-0.43297944879,-1.15349560293,2.43392597394,1.89716644274,2.37361731628,-2.40023706634,4.0477101838,-6.42579762375,-6.47488999051,-3.081631877,-4.17629708438,-0.258984003413,2.20394660988,-4.08676732631,5.99948621933,-1.35869940953,-5.75522644466,2.16051933057,6.90183952817,-0.787819465903,-11.826311354,1.89655329977,4.98347915833,-3.78231371455,-8.44974024976,2.61503275362,-4.94859309465,
-7.18257537252,-1.18097891973,-1.94395692619,7.48882570632,5.70081762752,4.7590389155,0.626339379709,0.172262278558,-4.67944285494,-3.70365255254,9.85132728461,2.34513647577,3.27955632894,-11.2899747575,-7.8407795614,-1.26408324598,-0.436810559595,-1.15579871814,2.44483820543,1.8967341173,2.37772788085,-2.40228280402,4.05134209822,-6.43170142271,-6.48070152832,-3.08608223129,-4.17768070401,-0.260242207978,2.20018505728,-4.09408482009,6.01144662892,-1.36301325743,-5.76907381581,2.16390432642,6.92069262354,-0.786141380139,-11.8491480249,1.89793047745,4.99580843776,-3.79126084516,-8.46745244145,2.62135040589,-4.94902684826,
-7.21170452123,-1.18840096049,-1.94655495944,7.53554078167,5.70671051785,4.77314302017,0.630916464923,0.17587456661,-4.70684865752,-3.70448857363,9.89198821862,2.35592263506,3.28381398254,-11.3574360032,-7.84618549605,-1.270334693,-0.440612408506,-1.15809232023,2.45561655795,1.89636672116,2.38179434102,-2.40430705524,4.0549283918,-6.43754419051,-6.48645377179,-3.09048532308,-4.1790384173,-0.261497625765,2.19645555617,-4.10131844969,6.02327392347,-1.36727994445,-5.78283703569,2.16730077603,6.93944606784,-0.784452148441,-11.8717939518,1.89932984005,5.00818848503,-3.80020778972,-8.48520487991,2.62767261698,-4.9494563483,
-7.24075160031,-1.19572005371,-1.94921849946,7.58179083317,5.71285233392,4.78720677064,0.63544775537,0.179525260493,-4.73396143657,-3.70546923725,9.93251522077,2.36654867112,3.28816407459,-11.4242053746,-7.85204328293,-1.27656083197,-0.444387911296,-1.16037780957,2.46626172624,1.8960661949,2.38581403334,-2.40631188966,4.05846865006,-6.4433305188,-6.49215102858,-3.09484232817,-4.18037087941,-0.262750459398,2.192757393,-4.1084700815,6.03497130623,-1.37149732445,-5.79651575949,2.17070841039,6.95810167783,-0.782749472007,-11.8942558495,1.90074898642,5.02061476508,-3.80915475526,-8.5029919389,2.63399741537,-4.94988198932,
-7.26972269183,-1.20294425478,-1.9519524598,7.62758332543,5.71925483414,4.80123255705,0.639937353122,0.183215064271,-4.76078648929,-3.70660186761,9.97291271891,2.37702510653,3.29261084858,-11.4902956716,-7.85836921682,-1.28276544273,-0.448140039063,-1.16265637721,2.4767745391,1.8958343847,2.38978429604,-2.40829934958,4.06196244,-6.44906499193,-6.49779759141,-3.09915446053,-4.18167872366,-0.264000968107,2.1890898022,-4.11554154424,6.04654186714,-1.37566312483,-5.81010932455,2.17412690023,6.97666080071,-0.781030907533,-11.9165403427,1.9021853532,5.03308246197,-3.81810196372,-8.52080770898,2.64032263866,-4.95030416553,
-7.2986239916,-1.2100814574,-1.95476133354,7.67292647621,5.72592967303,4.81522274528,0.644389276552,0.186944421985,-4.78732957838,-3.70789378165,10.0131855365,2.3873624727,3.29715812653,-11.5557206792,-7.865179184,-1.28895236805,-0.451871798033,-1.16492904613,2.48715594713,1.89567306943,2.39370248349,-2.41027144756,4.06540931586,-6.45475217939,-6.50339773039,-3.10342297184,-4.18296256307,-0.265249465378,2.18545196709,-4.12253463195,6.05798859038,-1.37977499695,-5.82361678929,2.17755583112,6.99512432125,-0.779293908018,-11.9386539656,1.90363625726,5.04558651787,-3.82704961871,-8.53864601097,2.64664597445,-4.95072327073,
