1.00032477394,0.0902420977627,0.0466559010621,0.0197482107685,-0.0687556751694,0.998962158352,-0.088700395848,0.072413604517,0.0201702307391,0.0414847853533,0.99990433504,0.0939527394723,0.0664127933999,-0.0575370421844,-0.0636469646786,0.99863285266,-0.0395692908735,0.00386896134889,-0.0136805122385,-0.0419250653778,1.00205524688,-0.0714732357658,-0.0399439998438,-0.0266231272617,-0.00852909729631,1.02900753822,-0.0385400391468,0.0242634364856,0.0400844502287,-0.0695835499871,0.0423835148382,0.929500928284,-0.139303908097,0.0377269541914,0.0406266647782,0.0103345645833,-0.0898101279314,0.926897085783,-0.0173998171429,-0.0659420968629,-0.130031142514,-0.0542059174336,-0.145728967233,
1.00270835651,0.0914338890515,0.0472517967065,0.021606597185,-0.0674645679392,0.997570036058,-0.0893964569952,0.0720655739434,0.0190848472553,0.04073071911,0.997727429189,0.0928642865467,0.0658685669371,-0.0592342908142,-0.0648261220154,0.999050011248,-0.0393607115799,0.00397325099573,-0.01335526995,-0.0416991044762,1.00161503381,-0.0716933423016,-0.0400540531117,-0.0269663442328,-0.00876754604357,0.957541381637,-0.0912774294356,-0.0281354520468,-0.0119379596821,-0.121067672341,-0.00887695336161,0.855860948869,-0.193645438703,-0.0162657782763,-0.012978137524,-0.0427155767927,-0.14262981215,0.966390729141,0.0117439312169,-0.036985411419,-0.10128250677,-0.0257547502789,-0.117401395886,
1.00677831873,0.0951646877464,0.0489476142958,0.0254696121636,-0.0640729327646,0.997966664774,-0.0890328806723,0.0722308359084,0.019461308409,0.0410612430397,0.997409015058,0.0925724069264,0.0657358943824,-0.0595365143962,-0.0650914671246,1.0013383458,-0.0372630715727,0.00492672372665,-0.0111832913927,-0.0397921590166,1.00309265265,-0.0703388583605,-0.0394383785928,-0.0255638585507,-0.00753619700718,0.883602534549,-0.146339075368,-0.0821557333284,-0.0659923748196,-0.173894843853,-0.0612350596401,0.782237818922,-0.248471972701,-0.0700553942258,-0.0668017415788,-0.0953171775233,-0.194764350545,1.00053005205,0.0371672017255,-0.0120429637185,-0.0763242986565,-0.00136318971415,-0.0932264138876,
1.01239934433,0.0982874797492,0.0505870800979,0.0291852053563,-0.0600913729661,1.0000304385,-0.0878863397141,0.0728327699117,0.0208254978189,0.0425230827596,0.998840977003,0.0933679413412,0.0661535499503,-0.0585899632799,-0.064077160747,1.00523548919,-0.0350979919083,0.00606339055085,-0.00860721355736,-0.037031682448,1.00620294658,-0.0686109172922,-0.0385312095316,-0.0235079015529,-0.00533307214792,0.810483124015,-0.200439085323,-0.135775485743,-0.119195074183,-0.226570782087,-0.113671281276,0.71221918287,-0.300277763801,-0.121401294064,-0.117748274333,-0.145759287504,-0.244976909589,1.03037064536,0.0592458315088,0.00983966927177,-0.054611868221,0.0201342654566,-0.0718267889025,
1.01897271575,0.101756759116,0.0544215467626,0.0340873806602,-0.0540657824872,1.00335170903,-0.0861334469298,0.074770177724,0.0233023775421,0.0455675807532,1.00166015955,0.0948558432409,0.067798073101,-0.0564875220591,-0.0614929100792,1.01033569088,-0.0324062187939,0.0090385082007,-0.0048036733145,-0.0323564975653,1.01057092725,-0.0663055941572,-0.035983220806,-0.0202504244387,-0.00132908986095,0.741752459149,-0.251490792727,-0.186697910793,-0.169227969649,-0.276131902617,-0.162887876247,0.648705655577,-0.347454289997,-0.16845835134,-0.163983323534,-0.191558372783,-0.290457621204,1.05665182137,0.0787669420714,0.0293113449528,-0.0354803301425,0.039085406617,-0.0530073871467,
1.0164160769,0.0999102977191,0.0532497539536,0.0323973990426,-0.0555571551536,1.00295669672,-0.0864187336006,0.0745891304138,0.0230412677078,0.0453371569037,1.0020006037,0.0951017195728,0.0679541100038,-0.0562624827044,-0.0612943176574,1.01058081313,-0.0322291860594,0.00915085589754,-0.0046416433541,-0.0322135095875,1.00934982801,-0.0671874991667,-0.0365428912926,-0.0210575917356,-0.00204139775309,0.680079702727,-0.297858274594,-0.231994422574,-0.21465205317,-0.32084001945,-0.207137274812,0.716854152808,-0.296218146309,-0.11840563136,-0.113789636572,-0.142155830188,-0.241561963049,0.986391445029,0.0259430224804,-0.0222924773746,-0.0872294879301,-0.0118480897364,-0.10341829103,
1.01567257046,0.0994352797194,0.0529709390407,0.0319437340993,-0.0559289083707,1.00430450957,-0.0855576309454,0.0750945602331,0.0238636619907,0.0460110633295,1.00414367521,0.0964709041474,0.0687577618192,-0.0549548458512,-0.0602227819035,1.01246187042,-0.0310273994595,0.00985625237995,-0.00349387958521,-0.0312729809443,1.01016107676,-0.0666692013529,-0.0362386730106,-0.0205625924968,-0.00163577337711,0.626303947765,-0.33812538947,-0.271438833245,-0.254209944411,-0.35988186647,-0.245794923097,0.777831271775,-0.25055867289,-0.0736790343298,-0.0689343622554,-0.0978857059987,-0.197727487453,0.912855660647,-0.0291203397967,-0.0762308308259,-0.141323020658,-0.0652359565634,-0.156280784379,
1.02168411856,0.103776953341,0.0559767130877,0.0367325944423,-0.0504183226159,1.00710549196,-0.0835346992193,0.0764950514284,0.0260949530463,0.0485786305219,1.00623637215,0.0979822963806,0.0698041102887,-0.053287782189,-0.0583044763754,1.0166123292,-0.0280298458954,0.0119314817712,-0.000187581913088,-0.0274683937257,1.01395147837,-0.0639316890811,-0.0343434722064,-0.017543120031,0.00183876143177,0.580020484839,-0.372746964348,-0.305646503134,-0.28812953626,-0.393383144207,-0.27894617049,0.708159842315,-0.302675227258,-0.125172529175,-0.119994207422,-0.148315854502,-0.247630728227,0.9544559713,0.00199808089133,-0.0454844345081,-0.110835553452,-0.035124476717,-0.126483917358,
1.0280141594,0.108172815036,0.05914173351,0.0419897470109,-0.0446157851729,1.01062369962,-0.0810914994557,0.0782541552594,0.0290168543263,0.0518036542132,1.00916752527,0.10001781938,0.0712696868492,-0.0508534346806,-0.0556175860136,1.02131099838,-0.024766881188,0.014280816362,0.00371470266349,-0.0231612803076,1.01841572818,-0.0608315155985,-0.0321113472975,-0.0138355227228,0.0059309904329,0.540410194727,-0.402509668594,-0.335015755261,-0.317176145452,-0.422166636908,-0.30742590401,0.645222100427,-0.349965903303,-0.171838039693,-0.166147062826,-0.19405063779,-0.292882861252,0.990338444063,0.028959747202,-0.0188791916144,-0.0845225888093,-0.00904986605544,-0.100684478389,
1.03434457748,0.111338024077,0.0617794077128,0.0461742606571,-0.0401317390338,1.01449793428,-0.0791543821289,0.0798684196997,0.0315777890968,0.0545479037582,1.01254230379,0.10170520864,0.0726758445667,-0.0486226488801,-0.0532271178968,1.02617573337,-0.0223345136925,0.0163077892765,0.00693037494484,-0.0197154263574,1.02308412785,-0.0584973157654,-0.0301661807684,-0.0107496314188,0.00923777352811,0.506358756665,-0.428075568086,-0.36029605438,-0.342175541953,-0.44706644084,-0.332115065423,0.590286528842,-0.391211659183,-0.21262303325,-0.206478873,-0.234221774142,-0.332714165637,1.02152408093,0.0523739964428,0.00427349365122,-0.0616271651324,0.0137543468573,-0.0780731801215,
1.03076989424,0.108954901917,0.0602899563622,0.0437507465959,-0.0425148611941,1.01352661979,-0.0798019251191,0.0794637053307,0.0309192708016,0.0539003607679,1.01246628973,0.101654532599,0.0726441720415,-0.0486741838363,-0.0532777939371,1.0252452392,-0.0229548431369,0.0159200833736,0.00629953144211,-0.0203357558017,1.02136360607,-0.0596443302848,-0.0308830648432,-0.0119160868622,0.0080907590088,0.476876116627,-0.450407799246,-0.382151786938,-0.363971174968,-0.468675709145,-0.353495778368,0.662615317491,-0.336424732859,-0.159005085234,-0.153008365213,-0.181208468752,-0.280261567573,0.949287072762,-0.00234340887309,-0.0492764167126,-0.11502982236,-0.0391916881328,-0.130459219286,
1.02876463749,0.108286482999,0.0600392992679,0.0427311245181,-0.0435174895712,1.01410463511,-0.0796092533471,0.0795359572452,0.0312131768947,0.0541893684262,1.01399536099,0.102164223021,0.0728353059498,-0.0478966899728,-0.0525132583042,1.02583617463,-0.0227578646631,0.0159939503014,0.00660000708026,-0.0200402880907,1.02139171818,-0.0596349595833,-0.0308795508302,-0.0119017925719,0.00810481506094,0.450738677551,-0.469897518273,-0.40146106733,-0.383099932202,-0.487848366542,-0.372581185024,0.7295532082,-0.28651163011,-0.109554085204,-0.104019684363,-0.132107359736,-0.231383907402,0.875215365124,-0.0575759343528,-0.103997591489,-0.169239406903,-0.0935256827241,-0.184545951267,
1.02839142034,0.108110241566,0.0600081978386,0.0425413530842,-0.0436574460038,1.01611417998,-0.0786603016019,0.0797034193173,0.032234979372,0.0549429477537,1.0168986144,0.103535203797,0.0730772437329,-0.0464204594266,-0.0514245382758,1.0278337016,-0.021814588037,0.0161604108819,0.00761569876137,-0.0192912154755,1.02301743126,-0.0588672617401,-0.0307440747407,-0.0110751588026,0.00871445746612,0.427550090007,-0.487252794851,-0.418501023771,-0.400162142314,-0.504856332902,-0.38947691207,0.789034396272,-0.241993503759,-0.0658447884687,-0.0602533045981,-0.0884801209538,-0.188044574374,0.802901833178,-0.111698305752,-0.157136638106,-0.222447851519,-0.146564968382,-0.237235219001,
1.02672954714,0.107787099556,0.0591772612384,0.0424850183996,-0.043726690721,1.01352501813,-0.0791637497389,0.0784088383906,0.0321472111738,0.0548350660089,1.01533690428,0.10323153794,0.0722963886711,-0.0464733987527,-0.0514896095314,1.02425657652,-0.0225101401343,0.0143718483418,0.00749444028438,-0.019440262355,1.02351218635,-0.0587710593613,-0.0304966971946,-0.0110583874435,0.00873507226179,0.4959048398,-0.436238806748,-0.367943715055,-0.349267319759,-0.454469706305,-0.339556879889,0.718585030265,-0.294570729633,-0.117951340785,-0.112707713296,-0.140410760885,-0.239494321888,0.7359347246,-0.161676680198,-0.206667604023,-0.272309479548,-0.195928717126,-0.286141845467,
1.02612895292,0.107653634174,0.0587268155767,0.0423934023328,-0.0438017649979,1.0122163246,-0.0794545705237,0.0774273182408,0.0319475799568,0.0546714793173,1.01496743147,0.103149432872,0.0720192840663,-0.0465297590113,-0.0515357936322,1.02186130003,-0.0230424237982,0.0125753909745,0.00712905912465,-0.0197396719163,1.02503208605,-0.0584333038734,-0.0293567724219,-0.010826538337,0.00892505972392,0.568444077481,-0.381868840704,-0.313979575123,-0.295131300738,-0.401032023956,-0.286712634158,0.654621302827,-0.34251313708,-0.165535898444,-0.160443830685,-0.187531098207,-0.286091378028,0.676535505441,-0.20619787496,-0.250856485476,-0.316639105292,-0.239686505416,-0.329413694383,
1.02962599639,0.110470696973,0.0601839170245,0.0452384546487,-0.0416161128281,1.01288363373,-0.0789170159433,0.0777053637135,0.0324904755234,0.055088547526,1.01455149729,0.102814374784,0.0718459781587,-0.0468681461391,-0.0517957524934,1.02358368582,-0.021654946354,0.0132930517217,0.00853032214166,-0.0186631807964,1.02576185954,-0.0578454307783,-0.0290527001312,-0.0102328243056,0.00938116815953,0.530662451679,-0.410525924006,-0.341899147542,-0.323176934878,-0.428667468083,-0.314052244445,0.598577020652,-0.38502230996,-0.206951066841,-0.202045995764,-0.228524798077,-0.326646245665,0.747016075598,-0.152738884583,-0.1987733011,-0.264320756289,-0.188133354453,-0.278412413206,
1.02869645572,0.110057567787,0.0597966084119,0.0447342969978,-0.0421583448849,1.01448735625,-0.0782042503806,0.0783735814297,0.0333602911255,0.0560240523274,1.01689647199,0.103856585759,0.0728230509498,-0.0455962954569,-0.0504278505878,1.02534803217,-0.0208707924225,0.0140281960337,0.00948725575324,-0.0176339787609,1.02649764547,-0.0575184148113,-0.0287461226616,-0.0098337539729,0.00981037661637,0.497975632416,-0.43507438543,-0.366174986721,-0.347293163804,-0.452648261328,-0.337870049946,0.670483254902,-0.331019275788,-0.153547761839,-0.148993810038,-0.175770551093,-0.27425054794,0.686156551029,-0.19844561668,-0.243972438376,-0.309222715546,-0.232783146281,-0.322758738475,
1.02887243771,0.110121116836,0.0598699342379,0.044838693089,-0.0420556887286,1.01698534744,-0.0773021980069,0.0794144110928,0.0348421503058,0.0574812138538,1.0200696561,0.105002457797,0.0741452109944,-0.0437138981068,-0.0485768265279,1.02798768685,-0.0199175837866,0.0151280521533,0.0110531526003,-0.0160941801956,1.02817288143,-0.0569134684941,-0.0280481076794,-0.00883996993117,0.0107875975901,0.469467048621,-0.456438101355,-0.387409833151,-0.368292072576,-0.473595723636,-0.358675786388,0.736786157997,-0.281333314645,-0.104161514693,-0.100156287155,-0.127052678134,-0.225862289266,0.633340047543,-0.238025161729,-0.283313233013,-0.348126399656,-0.271591517963,-0.361304541353,
1.02826551508,0.110019963064,0.059591761366,0.0447872589677,-0.0420556887286,1.01546033364,-0.0775563669735,0.0787154464365,0.0347129118481,0.0574812138538,1.01932949765,0.104879098055,0.0738059717058,-0.0437766233992,-0.0485768265279,1.02545551752,-0.0203396120106,0.0139674745404,0.0108385619776,-0.0160941801956,1.02928656351,-0.0567278548128,-0.0275376700572,-0.00874559009309,0.0107875975901,0.540693487076,-0.403288674965,-0.33473676747,-0.315286241241,-0.421072796726,-0.306533992222,0.670880170438,-0.330512601303,-0.152900023691,-0.149202704979,-0.175652263381,-0.274109211506,0.588117152345,-0.271770649944,-0.316756271592,-0.381780716892,-0.304939230845,-0.394410266476,
1.03064696879,0.111342992907,0.0603855792702,0.0464421674808,-0.0406665073958,1.01485165136,-0.0778945237972,0.0785125523427,0.0342899292454,0.0571261491895,1.0176211971,0.103930042197,0.0732365381917,-0.0449637475057,-0.049573335178,1.02583624441,-0.0201280970689,0.0140943835052,0.0111031349044,-0.0158720895071,1.02872652201,-0.0570389889816,-0.0277243505581,-0.00913477147671,0.0104609067133,0.506723056432,-0.428875771621,-0.359942017514,-0.34040782432,-0.446019970294,-0.3312934172,0.612705214202,-0.374330951555,-0.196064454947,-0.192223855093,-0.21837473416,-0.316510159542,0.662134543861,-0.216019512408,-0.261837130872,-0.327043876204,-0.250582407036,-0.340462523761,
1.03004391315,0.111208980542,0.0602599426781,0.046237741839,-0.0409177805805,1.01671833385,-0.077479705466,0.078901444528,0.0349227029718,0.0579039335618,1.02008263669,0.104477028772,0.0737493381058,-0.0441293612031,-0.0485477353473,1.02780856622,-0.0196898033339,0.0145052838815,0.0117717185689,-0.0150502887525,1.02954807185,-0.0568564223504,-0.0275531943415,-0.008856280005,0.0108032191474,0.477023760785,-0.450971512023,-0.381938658941,-0.36223643753,-0.467856524692,-0.353072532169,0.683744987786,-0.32147864105,-0.143449186048,-0.14001050436,-0.166142388358,-0.264415207034,0.612652998882,-0.252832889585,-0.298485400754,-0.363412196829,-0.286963958353,-0.376748376118,
1.02959057748,0.111108239283,0.0599954968735,0.0461993235622,-0.0409366695667,1.01553169807,-0.0777434023054,0.0782092403241,0.0348221406174,0.057854490404,1.01965952128,0.104383003123,0.0735025207779,-0.0441652184421,-0.0485653651566,1.02558814546,-0.020183230169,0.013210038439,0.0115835473174,-0.0151428062849,1.03081001686,-0.0565759901255,-0.0268170597506,-0.00874933551196,0.0108558001901,0.548646153709,-0.39734201538,-0.328870230765,-0.308763195503,-0.415045411391,-0.300704761118,0.623961468292,-0.366243412613,-0.187745631347,-0.184644849522,-0.210224051824,-0.308126810816,0.570449003592,-0.284434445067,-0.329756342723,-0.394921678187,-0.318083275734,-0.407606450982,
1.0295699838,0.111105951096,0.0599852000322,0.0461982764258,-0.0409375276368,1.01502501284,-0.0777997006649,0.0779558977062,0.0347963769611,0.057833378519,1.01986081666,0.104405369277,0.073603168471,-0.0441549830834,-0.0485569778488,1.02398360704,-0.0203615122156,0.0124077692282,0.0115019606174,-0.015209662053,1.03247394788,-0.0563911089016,-0.0259850942423,-0.00866472884947,0.0109251306497,0.622649327126,-0.342203234978,-0.274047988393,-0.253748899828,-0.360512607518,-0.246442688466,0.572176238114,-0.404827898967,-0.226108613758,-0.22314222515,-0.248384493742,-0.346097803039,0.534130813206,-0.311494645756,-0.356661197527,-0.421920786091,-0.344846084164,-0.43423639392,
1.0301156443,0.111181737277,0.0602125585745,0.046235270358,-0.0408920559286,1.01527904513,-0.0777644184018,0.0780617444954,0.0348135994895,0.0578545478767,1.02076392644,0.10453080119,0.0739794642108,-0.0440937553022,-0.0484817187012,1.02313658794,-0.0204791537573,0.0120548446031,0.0114445355939,-0.0152802469776,1.03464220716,-0.0560899617788,-0.025081652874,-0.00851772822053,0.0111058189225,0.695469175257,-0.287985736267,-0.220190582168,-0.199694277749,-0.306909321642,-0.193005362986,0.527772923842,-0.437888070007,-0.258949211424,-0.256103079006,-0.281070136597,-0.378682248325,0.502629844752,-0.334948467212,-0.379959247414,-0.445304149124,-0.368034204721,-0.457352722056,
1.02878494814,0.110516389195,0.0596581018396,0.0454233201564,-0.0416128496838,1.01595681444,-0.0774255337478,0.078344148374,0.0352271536439,0.0582216729188,1.0216115664,0.104954621173,0.0743326475302,-0.0435765512548,-0.048022580386,1.02438833354,-0.0198532809561,0.0125764052713,0.0122083125723,-0.0146022181092,1.03371613326,-0.0565529987283,-0.0254675169989,-0.00908279026109,0.0106041955601,0.639735817648,-0.329975536391,-0.26159921827,-0.24098751754,-0.347835156411,-0.233716431064,0.601830435219,-0.38209275758,-0.203926139589,-0.201233343773,-0.226688602734,-0.324586092688,0.475115282555,-0.355678080799,-0.400401950714,-0.465689883328,-0.388238557635,-0.477451048494,
1.02943173712,0.110606220999,0.0600353954144,0.0455219828831,-0.0415859001425,1.01610550341,-0.077404882502,0.0784308836062,0.0352498350121,0.0582278682926,1.02231781786,0.105052711654,0.0747446275479,-0.0434688179813,-0.0479931532417,1.02349201858,-0.0199777691447,0.0120535548796,0.0120715865617,-0.0146395645661,1.03577461718,-0.0562670981834,-0.0242667347116,-0.00876878423882,0.0106899657243,0.711775169591,-0.276142345956,-0.208114126184,-0.187334896057,-0.294745126037,-0.180909262877,0.553235761574,-0.418406331341,-0.240004901054,-0.237425113422,-0.262500872422,-0.36020755561,0.45085643878,-0.373806102796,-0.418412752564,-0.483757099754,-0.406116324691,-0.49523356331,
1.02816340208,0.110359600297,0.0598768535343,0.0450275471897,-0.0420615257829,1.01678485199,-0.0772727869451,0.0785158021787,0.0355146658142,0.0584826240101,1.02308686381,0.105202248366,0.0748407582917,-0.0431690204077,-0.0477047610102,1.02478391268,-0.0197265675156,0.0122150416416,0.0125752062934,-0.0141551042801,1.03475779843,-0.0564648129415,-0.0243938370565,-0.00916517121205,0.0103086586898,0.653739929535,-0.319251157709,-0.251065415197,-0.2299569101,-0.337403169562,-0.223590586424,0.626915250876,-0.363676907781,-0.185475462797,-0.183313711027,-0.20834372827,-0.306020855966,0.429018685684,-0.390027274388,-0.434574650813,-0.499795096981,-0.422167879249,-0.511293877777,
1.02779989721,0.110218237292,0.0597556852448,0.0448119087083,-0.0422432782173,1.01831588949,-0.0766773834725,0.0790261480117,0.0364229083993,0.0592481427604,1.02470697227,0.105832290545,0.0753807944441,-0.0422079391185,-0.0468947067808,1.02682628316,-0.0189323123284,0.0128958318012,0.0137867820023,-0.0131339190397,1.03469780399,-0.0564881441116,-0.0244138352022,-0.00920076113241,0.0102786614712,0.603763367357,-0.356715843469,-0.288213222226,-0.266877123206,-0.374149817046,-0.260169427592,0.697054222237,-0.311097570448,-0.133340844893,-0.131498506923,-0.156772112634,-0.254684745972,0.409491877142,-0.404665451046,-0.449089016828,-0.514220537653,-0.436525504478,-0.525585937836,
1.02920627538,0.111546483341,0.0601072797872,0.0462182868778,-0.0409540982281,1.01658470026,-0.0783123955248,0.0785933507036,0.0346917191667,0.0576612192966,1.02196217784,0.10323998469,0.0746945958352,-0.0449527335541,-0.0494107683476,1.02621910437,-0.0195057589641,0.0127440371034,0.0131796032113,-0.0136904995984,1.03314157138,-0.0579579193488,-0.0248028933534,-0.0107569937373,0.00885211491619,0.561046368357,-0.389182657611,-0.31990922686,-0.298588834007,-0.405494954074,-0.291190836976,0.635697171682,-0.357731650634,-0.178867764018,-0.177047985782,-0.201795059056,-0.299242702487,0.4752609654,-0.35467802649,-0.400288366618,-0.465395705493,-0.388265066434,-0.477823926004,
1.02899659193,0.111523185179,0.0600024380605,0.0461969631368,-0.0409628350387,1.01573872274,-0.0784063930267,0.0781703619443,0.0346056875548,0.057625970233,1.02170540866,0.103211454782,0.0745662112466,-0.0449788456737,-0.0494214670634,1.024316316,-0.0197171798934,0.0117926429208,0.0129860993102,-0.0137697824476,1.03431903052,-0.0578270905562,-0.0242141637861,-0.0106372521307,0.00890117571386,0.635118993609,-0.333963013451,-0.264993874529,-0.243517105166,-0.350892522094,-0.236842325879,0.582317570535,-0.397525063797,-0.218441892708,-0.21673480544,-0.241143685229,-0.338408343442,0.450937222649,-0.372810884814,-0.418321302519,-0.483479991836,-0.406195246505,-0.495670724309,
1.02806259715,0.111056187791,0.0596911064684,0.0456112375986,-0.041390915978,1.01683941843,-0.0778560451792,0.0785372605089,0.0352959543465,0.0581304557595,1.02290881819,0.103813159546,0.0749673477558,-0.0442241651219,-0.0488699043632,1.02585134476,-0.018949665515,0.0123043191725,0.0139487444627,-0.0130662276012,1.03379789254,-0.0580876595463,-0.024387876446,-0.0109640674742,0.00866232080639,0.587823117028,-0.36957925776,-0.300035884415,-0.278528238148,-0.385655733936,-0.271369438203,0.655071558252,-0.342737543439,-0.164537701877,-0.162878111728,-0.187668362003,-0.28529620582,0.429199573543,-0.389180460287,-0.434426954215,-0.499571452203,-0.422172759884,-0.511539724032,
1.0279422076,0.111006025479,0.0596559928499,0.0455520630744,-0.0414460945212,1.01866465766,-0.0770955288326,0.0790696219518,0.0361931058332,0.0589670237396,1.02483985915,0.104617759949,0.0755305680378,-0.043275009393,-0.0479848439217,1.0280255109,-0.0180437629578,0.0129384509627,0.0150174023942,-0.0120697347899,1.03412558978,-0.0579511190299,-0.0242922980845,-0.0108029959498,0.00881251537423,0.547271095963,-0.399967261612,-0.330085908891,-0.308520537771,-0.415479399057,-0.301023811785,0.722896870301,-0.291912065704,-0.114277511789,-0.112714469384,-0.137786769419,-0.23569776192,0.409624817921,-0.403848970847,-0.448932319671,-0.514048953453,-0.436568860032,-0.525854105923,
1.02724849495,0.110794057724,0.0592513271379,0.0454932738667,-0.0415328086024,1.01690701253,-0.0776325870675,0.07804432896,0.0360441528556,0.0587473180983,1.0236130593,0.104242904438,0.0748149347915,-0.0433789754825,-0.0481381939031,1.02527561368,-0.0188840093303,0.011334344255,0.0147843602565,-0.0124134719418,1.03454932501,-0.0578216443766,-0.0240451192014,-0.0107670861845,0.00886548227779,0.621253185884,-0.344526128492,-0.275258122098,-0.253136975571,-0.360963352442,-0.246903187961,0.658547624106,-0.340134481809,-0.161966442374,-0.160886810596,-0.18520454998,-0.282771605745,0.392013448394,-0.417046682393,-0.46198402468,-0.527232960294,-0.449546355574,-0.538737471427,
1.02714641601,0.1107373472,0.05923856727,0.045434448713,-0.041583848074,1.01866190932,-0.0766576444055,0.0782636910588,0.0370554493101,0.0596247664934,1.02538596366,0.105227851303,0.0750365478359,-0.0423573017868,-0.0472517417253,1.02745637915,-0.0176724729589,0.0116069399383,0.0160410725584,-0.0113230892085,1.03472099157,-0.0577262740621,-0.0240236608806,-0.010668159689,0.00895131556079,0.575854860484,-0.378600771861,-0.308745214899,-0.286695381035,-0.394316735466,-0.280071022916,0.726054459611,-0.289465843165,-0.112171485283,-0.11098581232,-0.13560841793,-0.233451381736,0.375767684941,-0.429240273038,-0.473967360708,-0.539241815516,-0.461481843638,-0.550606561226,
1.02833823803,0.111697426052,0.0600331152849,0.0464646677492,-0.0403920260523,1.01671285831,-0.078227713278,0.0769643237161,0.0353706763999,0.0576757154803,1.02246495447,0.102874816125,0.0730892083783,-0.0448822419307,-0.0501727509103,1.02652137374,-0.0184256717571,0.0109836030019,0.0152328475477,-0.0122580946126,1.03303611182,-0.0590835383069,-0.0251469140487,-0.0121245811694,0.00726643580953,0.53723563801,-0.40795739789,-0.337725041099,-0.315497417189,-0.422727121366,-0.30808944857,0.661448812663,-0.338576200528,-0.160651498606,-0.159168402749,-0.183135821216,-0.280323079296,0.438169516258,-0.381805158913,-0.427141088446,-0.492702820515,-0.41557568616,-0.505333742163,
1.02774864457,0.111582782879,0.0596400529767,0.0464246953112,-0.0404165924467,1.01534931107,-0.0784928474629,0.0760552922226,0.0352782325194,0.0576189010116,1.0216656724,0.102719400167,0.0725563536656,-0.0449364305454,-0.0502060543301,1.02412563659,-0.0188915095361,0.00938644489794,0.0150704246902,-0.0123579169948,1.03371230625,-0.0589520560577,-0.0246961177644,-0.0120787374796,0.00729461057751,0.611072444836,-0.352677788403,-0.282920848816,-0.260294119935,-0.368304398481,-0.254048580119,0.604675033715,-0.381081185025,-0.202790930575,-0.201614710089,-0.224981937965,-0.321875584767,0.417827771438,-0.397034470123,-0.442239424119,-0.50791110801,-0.430568928541,-0.520221785175,
1.02775420997,0.111584483419,0.0596444589206,0.0464253556132,-0.0404158967714,1.01482837442,-0.0786520225505,0.0756428840415,0.0352164264762,0.0575537839304,1.02167976987,0.102723707727,0.07256751416,-0.0449347579646,-0.0502042921467,1.02254868058,-0.0193733572062,0.00813802139031,0.0148833282142,-0.012555036496,1.03501805003,-0.0585530787898,-0.0236624039352,-0.0119238187254,0.00745782855047,0.684364021184,-0.297559696628,-0.228446407383,-0.205321684722,-0.314351170399,-0.20053122535,0.555871376003,-0.417783417651,-0.239064567004,-0.238219952402,-0.260908506978,-0.357511912895,0.399491831006,-0.410823804421,-0.455867731258,-0.52166400224,-0.444066839563,-0.533610650281,
1.02904210387,0.11233575486,0.0602347436248,0.0474076475711,-0.0395036385919,1.01346342922,-0.0794482405822,0.0750172841596,0.0341753665799,0.0565869477489,1.01922717916,0.101293029814,0.0714434100859,-0.0468053779958,-0.0519415438981,1.02238487822,-0.0194689085811,0.00806294531008,0.0147583942132,-0.0126710631654,1.03327946862,-0.0595672512794,-0.0244592537483,-0.0132498553946,0.00622633338448,0.630089936229,-0.338551723217,-0.268871569226,-0.245474687925,-0.354214013173,-0.240061086977,0.514041585868,-0.449376541163,-0.270220799992,-0.269166428951,-0.29163135286,-0.387978125588,0.464380228281,-0.36181502042,-0.407536673006,-0.473658328339,-0.396408072389,-0.486349984945,
1.03025271859,0.113075574966,0.0607391664245,0.0483309977794,-0.0386461198336,1.01225312544,-0.080187870673,0.0745129909154,0.033252253524,0.0557296492348,1.01688901475,0.0998641515632,0.070469174914,-0.048588723732,-0.0535977436883,1.02222656842,-0.0195656534625,0.00799698289086,0.014637649446,-0.012783199278,1.0314992825,-0.0606551427984,-0.0252009979665,-0.0146076244702,0.00496536821505,0.583480649346,-0.373789143861,-0.303508474783,-0.279897615624,-0.38843537488,-0.273960239897,0.478052997638,-0.476584531386,-0.296965112446,-0.295745521949,-0.318054810019,-0.414152794572,0.534551143582,-0.308764604403,-0.355390340619,-0.421834142528,-0.34488734692,-0.435314349187,
1.02968758742,0.113028480702,0.0604566008379,0.0482926838016,-0.038669666966,1.01188358549,-0.0802186656684,0.0743282209418,0.0332271999683,0.0557142517369,1.01725000129,0.0998942337748,0.0706496681843,-0.0485642500683,-0.0535827025824,1.02069681861,-0.0196931326126,0.00723210798728,0.0145339375949,-0.0128469388538,1.032759994,-0.0605500835065,-0.0245706422123,-0.0145221525038,0.00501789786165,0.657399284619,-0.318725504395,-0.248788280348,-0.225070817461,-0.334034515185,-0.219732145902,0.446787094062,-0.499875200048,-0.320110511662,-0.31893601212,-0.341065137893,-0.43709004648,0.502957601982,-0.332299337933,-0.378778282412,-0.445267647789,-0.368138801948,-0.45849196248,
1.02972904488,0.113036541875,0.0604807843585,0.0482968998149,-0.038664484783,1.01218157162,-0.0801607239212,0.0745020461837,0.0332575036424,0.0557515000031,1.01820967939,0.100080837849,0.0712094804072,-0.0484666556858,-0.0534627428202,1.01987586995,-0.0198527615182,0.00675322126971,0.0144504512908,-0.0129495574362,1.03452657481,-0.0602065816839,-0.023540136743,-0.0143425002189,0.00523872046234,0.72833737701,-0.26567671498,-0.196239299752,-0.172301173529,-0.281883719727,-0.16779140495,0.419462558208,-0.520308982513,-0.340351773528,-0.339262270961,-0.361153023432,-0.457097021444,0.475359730474,-0.352937525747,-0.399222023786,-0.465797236388,-0.388427632725,-0.478699073307,
1.02744997929,0.112150238587,0.0595311736926,0.0470607964415,-0.0397090565139,1.01169879318,-0.0803484710921,0.0743008885005,0.0329956577094,0.0555302265519,1.01777362732,0.0999112620436,0.0710277920444,-0.0487031585035,-0.053662600019,1.02004995926,-0.0197850601186,0.00682575848358,0.0145448726131,-0.012869766501,1.03244895948,-0.0610145432024,-0.0244058097989,-0.0154693424325,0.00428648010227,0.668219267037,-0.310863706592,-0.240838322129,-0.216673110473,-0.326032220911,-0.211693072479,0.490204752168,-0.46713653703,-0.287871203316,-0.287048916764,-0.309202590606,-0.405437042764,0.450915364077,-0.371310814259,-0.417356240653,-0.483839119022,-0.406378665105,-0.496549741716,
1.02554809545,0.111410617095,0.0588972124141,0.0460615015434,-0.0406599984326,1.01178482655,-0.0803150136703,0.0743295662906,0.0330408616837,0.0555732432371,1.01790985081,0.0999642378459,0.0710731998749,-0.0486315834485,-0.0535944882731,1.02065047982,-0.0195515243466,0.00702593200223,0.0148604003633,-0.0125695062228,1.03086983808,-0.0616286459678,-0.0249321835972,-0.0162990502851,0.0034969194041,0.616078178834,-0.349941813563,-0.279466344687,-0.255075294886,-0.364312183238,-0.249755846085,0.563960573208,-0.411858867084,-0.233230197209,-0.232727368466,-0.255053930727,-0.351595605711,0.429057058037,-0.387692927695,-0.433549672127,-0.499937875846,-0.422426184645,-0.51250621257,
1.02689060541,0.112044580131,0.0594565915648,0.0469261689762,-0.0397090538776,1.01049487101,-0.0809241593425,0.0737920848144,0.0322100428596,0.0546595247287,1.01550698663,0.0988295519863,0.0700720064681,-0.0501791908837,-0.0552965170625,1.02039976759,-0.0196699162343,0.00692146857174,0.0146989246877,-0.0127470940544,1.02921889526,-0.0624082578541,-0.0256200764389,-0.0173623693893,0.00232750157469,0.571388012794,-0.38350088803,-0.312703995185,-0.287968674213,-0.397114767489,-0.282280190052,0.520873407937,-0.444214204197,-0.265275639576,-0.264440888396,-0.286679912328,-0.382953327287,0.496654240737,-0.336932344574,-0.383275266541,-0.450184205878,-0.372809848947,-0.463310735888,
1.02813256963,0.113079550312,0.0599223281464,0.0480418317483,-0.0388293292239,1.00936603806,-0.0818648534693,0.0733687724572,0.0311960064782,0.053859934721,1.01325934671,0.0969565187188,0.0692291414974,-0.0521982572549,-0.0568885953398,1.02019117598,-0.0198437425751,0.00684324671835,0.0145115457846,-0.012894846444,1.02752607512,-0.0638189413087,-0.0262548839937,-0.0188830383347,0.00112842063831,0.533078126279,-0.412643658134,-0.340997288193,-0.316273175375,-0.425202522927,-0.309934178577,0.483903456829,-0.472337670068,-0.292579339858,-0.291755404812,-0.313785263968,-0.409640083545,0.568750556455,-0.282087850229,-0.330029423992,-0.396917270429,-0.319950812596,-0.411268016137,
1.02611368577,0.112014028275,0.0597540878254,0.0468441887804,-0.0400070114749,1.00972204462,-0.0816769611145,0.073398439671,0.0314071968145,0.0540676052182,1.01394611376,0.0973189791063,0.0692863720847,-0.0517908530728,-0.0564879812277,1.02072022367,-0.0195645229584,0.00688733402605,0.0148253876374,-0.012586235289,1.02656094101,-0.064328317643,-0.0263353118356,-0.0194555755166,0.000565425743162,0.499776923065,-0.437619832977,-0.365487010763,-0.340657861161,-0.449621933434,-0.334155105529,0.557541981659,-0.417108174018,-0.2384255295,-0.237833860952,-0.259786933776,-0.3560806575,0.532332456813,-0.309401722892,-0.356811313854,-0.423584292367,-0.346655809388,-0.437755951887,
1.02524822802,0.111821704331,0.0592852982121,0.0467415073526,-0.0401512544331,1.00868773351,-0.081906808028,0.0728381878182,0.0312844819366,0.0538952200325,1.01366012688,0.0972554264668,0.0691314625256,-0.0518247837194,-0.0565356457075,1.01859408901,-0.0200369973266,0.00573567775167,0.0145731343723,-0.0129405910663,1.02742893232,-0.0641354306843,-0.0258651498731,-0.019352593496,0.000710090962602,0.572574032362,-0.383246078501,-0.311643800546,-0.286626332987,-0.396121393353,-0.280996516306,0.51539977228,-0.448585112704,-0.269595336386,-0.269112685006,-0.290758369096,-0.386854137642,0.500977835506,-0.332821175905,-0.380002254849,-0.446856344251,-0.36969915809,-0.460652018097,
1.02352706214,0.110817690902,0.0586398610071,0.0457788213517,-0.0410118373732,1.00917592107,-0.0816220319541,0.0730212581516,0.0315575359931,0.0541393138103,1.01432297363,0.0976420870681,0.0693800300551,-0.0514540389295,-0.0562042223347,1.01936262114,-0.0195886869172,0.00602387730071,0.0150029913269,-0.0125563250009,1.02640760906,-0.0647312025857,-0.0262481460956,-0.0199238420992,0.000199429332568,0.534003497185,-0.412319077581,-0.340086984845,-0.315117192202,-0.424399938725,-0.308963593876,0.589463137676,-0.392758971217,-0.214978568894,-0.214404371864,-0.236457742226,-0.333151593053,0.473430192458,-0.353585539099,-0.400316795071,-0.467204934598,-0.389896110771,-0.480626515896,
1.02483634127,0.111545068194,0.0593490538675,0.046888379933,-0.039702558247,1.00785668603,-0.0823549403078,0.0723066725068,0.0304395402004,0.0528200787747,1.01185632861,0.096271728725,0.0680439306708,-0.0535444160611,-0.0586708673503,1.01888628879,-0.0198533160045,0.00576586394066,0.0145993198382,-0.0130326573576,1.02476786889,-0.0656421693495,-0.0271363386902,-0.0213134524156,-0.00144031084106,0.500703433471,-0.437393793837,-0.364972140199,-0.339502938345,-0.448821939656,-0.333040548168,0.542723343208,-0.427953711209,-0.2499072422,-0.248632077026,-0.270736334416,-0.366945879596,0.544271275957,-0.300242696177,-0.347377215632,-0.415327776238,-0.337941825579,-0.429406267669,
1.02392526781,0.111165454252,0.0585898259839,0.0468574960869,-0.0397405196415,1.0068514724,-0.0827737793223,0.0714689944789,0.030405465162,0.0527781948729,1.01163742668,0.0961805195879,0.0678615123969,-0.0535518364654,-0.0586799882641,1.01678107457,-0.0207304885959,0.00401151876007,0.0145279566445,-0.0131203746174,1.02565992256,-0.0652704803185,-0.0263929606291,-0.0212832133081,-0.00140314193769,0.573499380915,-0.382496937346,-0.311228595018,-0.284826915428,-0.395384624916,-0.280196498572,0.502809576267,-0.458053468306,-0.279374642684,-0.278610751837,-0.300035829805,-0.395920089753,0.511478574312,-0.324972317802,-0.371587300181,-0.439957918019,-0.362013961192,-0.453211152596,
1.02332477657,0.111115413316,0.058239539432,0.0468167848171,-0.0397905605773,1.00633055225,-0.0828171893342,0.0711651243946,0.0303701485421,0.052734784861,1.01186439365,0.0961994335019,0.0679939097954,-0.0535364488743,-0.0586610743501,1.01512303264,-0.0208686587565,0.00304432763217,0.0144155470221,-0.013258544778,1.02682958271,-0.0651730086404,-0.0257106588798,-0.0212039143156,-0.00130567025956,0.647522853295,-0.327418286942,-0.25642083527,-0.22998198484,-0.341018570784,-0.226033521978,0.468267416946,-0.48375525527,-0.304950021795,-0.304203476272,-0.325405092325,-0.421194588593,0.48274305402,-0.346353558447,-0.392863382507,-0.461248429868,-0.383118575735,-0.474236933513,
1.02137974936,0.110142899709,0.0575101542269,0.0455970219882,-0.0408441169854,1.00639588113,-0.0827845248962,0.0711896227231,0.0304111174983,0.0527701713356,1.01202601471,0.0962802440309,0.0680545176921,-0.0534350932956,-0.0585735296103,1.01566507473,-0.0205976377093,0.00324759341759,0.0147554717254,-0.0129649386434,1.0253164108,-0.0659295945917,-0.0262780983433,-0.0221528526273,-0.00212530504064,0.598196346876,-0.364504653947,-0.292858292512,-0.266236704765,-0.377153571918,-0.261807002085,0.541429520952,-0.428747981555,-0.250905224586,-0.250429718866,-0.27180890433,-0.368134616132,0.457286639447,-0.36549308407,-0.411668018895,-0.479958759215,-0.40176712063,-0.492698904701,
1.02268551513,0.110940867678,0.0580542232971,0.0466593399007,-0.0397015719389,1.00518185808,-0.0835264278683,0.0706837797871,0.0294234377325,0.0517079011708,1.00962119552,0.0948106323033,0.067052509695,-0.0553915563663,-0.0606777464025,1.01542011324,-0.0207473363953,0.00314552613161,0.0145561810248,-0.0131792799437,1.02358355429,-0.0669885624587,-0.0270001218897,-0.0235626341947,-0.00364155448691,0.555889177936,-0.396356696929,-0.324250156555,-0.297203078967,-0.408124887647,-0.292350999542,0.501486642557,-0.45882000744,-0.280542788136,-0.279665570616,-0.301049421455,-0.396971695206,0.527133033112,-0.312907425684,-0.35984208611,-0.428835282579,-0.350635485852,-0.442272744693,
1.02192766487,0.11077245651,0.0574858356042,0.0465951153024,-0.0397647261268,1.00453463153,-0.083670255991,0.0701983598724,0.0293685880245,0.051653965625,1.00975850575,0.0948411456887,0.067155492371,-0.0553799199057,-0.060666303883,1.01363115589,-0.0211448824729,0.00180380811836,0.0144045744691,-0.0133283597224,1.02467532442,-0.0667459468765,-0.0261812942988,-0.0234701113028,-0.00355057364383,0.629951974249,-0.340908187617,-0.269437030396,-0.242038845372,-0.353787513082,-0.238409126351,0.467182231158,-0.484502652028,-0.305931135908,-0.305216544356,-0.326217410569,-0.421956495965,0.496490980674,-0.335848176162,-0.382519959073,-0.451658419466,-0.373116525776,-0.464590153556,
1.01997650479,0.110013672034,0.0569980455842,0.0457683525558,-0.0404964111568,1.00465945969,-0.083621711708,0.0702295669115,0.0294214813111,0.0517007761836,1.01000865257,0.0949384250062,0.0672180290751,-0.0552739254918,-0.0605724988268,1.01419191093,-0.020926811068,0.00194399687858,0.0146421825375,-0.0131180765821,1.02327179877,-0.0672917624039,-0.0265321757092,-0.0240648255583,-0.00407689575943,0.58301749424,-0.3759818417,-0.303945019814,-0.276508916175,-0.388163532262,-0.272543922588,0.540329228462,-0.429840653425,-0.252150720989,-0.251495225284,-0.272642670169,-0.36875769952,0.46937263467,-0.356113437157,-0.402458383804,-0.471574935141,-0.392978699219,-0.48431295042,
1.01844599009,0.10946098617,0.0563603311241,0.0449641838132,-0.0412616685083,1.00528221764,-0.0833968268917,0.0704890493921,0.029748693117,0.05201215516,1.0107586823,0.0952092690743,0.0675305414617,-0.0548798420756,-0.0601974839632,1.01514769156,-0.020581668063,0.00234223880793,0.0151443723601,-0.0126401862672,1.02233904399,-0.0676285905191,-0.0269208235349,-0.0245549170535,-0.00454327314991,0.542790888883,-0.40606587096,-0.333705474487,-0.306019201199,-0.417639256625,-0.301738931793,0.614268735722,-0.374543959108,-0.197448780946,-0.197253115753,-0.218464085717,-0.315095090509,0.445388637909,-0.374050204477,-0.420202228758,-0.489169623387,-0.41055278163,-0.501719664211,
1.01976662595,0.110378094409,0.0569105960683,0.0459714484556,-0.0401611386211,1.00383836137,-0.0843995048585,0.0698874426111,0.0286474468076,0.0508089415996,1.00817437668,0.0934146123945,0.0664537474522,-0.0568509226327,-0.0623510719795,1.01458659958,-0.0209713152772,0.00210845047904,0.0147164208434,-0.0131077629244,1.02066156391,-0.0687935072395,-0.0276197735681,-0.025834351011,-0.00594117321467,0.508094713183,-0.432212577401,-0.359359284954,-0.331472498073,-0.443023609582,-0.326700453051,0.563964013749,-0.41245311686,-0.234643306769,-0.234156924217,-0.255267934907,-0.351285891413,0.514412229552,-0.322034685424,-0.369167263032,-0.438533553738,-0.36005386706,-0.452061919075,
1.01830438525,0.109728209654,0.0561794757184,0.0450296663093,-0.0411968924497,1.00468829947,-0.0840217545929,0.0703124116604,0.0291948645663,0.0514109810858,1.00928700769,0.0939091150642,0.0670100629562,-0.0561343128306,-0.0615629583493,1.01560254505,-0.0205197839542,0.002616423218,0.0153707586092,-0.0123881348779,1.02012336427,-0.06903270708,-0.027888873389,-0.0261809880685,-0.00632239796071,0.477904850653,-0.454853999629,-0.381756244425,-0.353555738304,-0.465132774084,-0.348503745614,0.637383583917,-0.357390809561,-0.180175515276,-0.180452075312,-0.20150004004,-0.298261855062,0.485111825213,-0.344009042724,-0.390904359974,-0.459966174281,-0.381511648091,-0.473222839811,
1.019543724,0.110279026873,0.0566958668626,0.0458909017081,-0.0403190275058,1.00311636792,-0.0847203908365,0.0696574401809,0.0281025053542,0.050297529572,1.00655400019,0.0926944450657,0.0658713098306,-0.0580335214311,-0.0634988386604,1.01478602942,-0.0208826797887,0.00227620837247,0.0148033494437,-0.0129665001146,1.01838767845,-0.0698041229993,-0.0286120758146,-0.0273871426211,-0.00755184208268,0.451357424559,-0.474734553596,-0.401438955959,-0.37294428767,-0.484589866571,-0.367674960793,0.583824454331,-0.397499600615,-0.219885161473,-0.21956825269,-0.240754502381,-0.336939563193,0.556699365269,-0.290399327473,-0.337828144775,-0.407683194021,-0.329043835098,-0.421525920882,
1.01858200337,0.110065311179,0.0560146480874,0.04580939996,-0.0404392425838,1.0018734392,-0.0849965972171,0.0687770323419,0.0279971724119,0.0501421634827,1.00616328219,0.0926076188447,0.0655945512509,-0.0580666331257,-0.0635476784098,1.01250961957,-0.0213885486451,0.000663751392094,0.0146104333536,-0.0132510513466,1.01921924159,-0.0696193311909,-0.0280230519249,-0.0273166711684,-0.00744789669034,0.521649501082,-0.422221281852,-0.349472489982,-0.320726185995,-0.433045223096,-0.316574167561,0.537934059104,-0.431783049251,-0.253811626307,-0.253658998651,-0.274405579115,-0.370300870951,0.522129764016,-0.316225323155,-0.363385221706,-0.433364025239,-0.354393459975,-0.446657260475,
1.0199377476,0.111345736279,0.0565795415143,0.0469813144587,-0.0391964770451,1.00082210387,-0.0859895250328,0.0683389759521,0.0270883910206,0.0491784394255,1.00392527053,0.0904939411672,0.064662046392,-0.060001185578,-0.0655991890984,1.01226276643,-0.0216216877248,0.000560895915616,0.0143970518228,-0.0134773333947,1.01759410858,-0.0711541790335,-0.0287001906799,-0.0287214471611,-0.00893760195059,0.489646702307,-0.446518404177,-0.372996291644,-0.344200604935,-0.456397459646,-0.339401015909,0.498417453917,-0.461784793687,-0.282858485282,-0.282644880536,-0.303240591905,-0.398487141789,0.595364093786,-0.260624452702,-0.309553997114,-0.379645806718,-0.300954840296,-0.394420924793,
1.01875792814,0.111050781414,0.0558421543533,0.0468813297586,-0.0392456361896,0.999840654999,-0.0862348872496,0.06772557041,0.0270052173875,0.0491375457224,1.00389134737,0.0904854603774,0.0646408444176,-0.060004060422,-0.0656006025634,1.01015761292,-0.0221479761015,-0.000754825026211,0.0142186489827,-0.0135650481249,1.01852655804,-0.0709210666675,-0.0281174097649,-0.0286424260199,-0.00889874988928,0.562093195001,-0.392362441022,-0.319660188584,-0.290407127839,-0.403322985212,-0.286738069269,0.464428379634,-0.487192663497,-0.30788170865,-0.307882685997,-0.328141069305,-0.423194546368,0.555453608362,-0.290458757963,-0.338936644702,-0.409280419848,-0.330193357711,-0.42343273318,
1.01787413388,0.110829832849,0.0550688343755,0.0468064319397,-0.0392456361896,0.999269951828,-0.0863775630425,0.067226205135,0.0269568527118,0.0491375457224,1.00419900176,0.0905623739733,0.064910042003,-0.0599779880165,-0.0656006025634,1.00842038388,-0.022582283362,-0.00227490043787,0.014071426182,-0.0135650481249,1.01967761281,-0.0706333029769,-0.0271102368479,-0.0285448790058,-0.00889874988928,0.636166730171,-0.336796969222,-0.264933380999,-0.235139892093,-0.349095758282,-0.232970345538,0.434917333776,-0.509330059568,-0.329684979205,-0.329901264222,-0.349745305919,-0.444615715981,0.521125890676,-0.316209328996,-0.364298555623,-0.434892780073,-0.355323749189,-0.44835017821,
1.01759321984,0.110783013842,0.0549400821066,0.0467826256649,-0.0392456361896,0.999358985863,-0.0863627240366,0.0672670124011,0.026964397969,0.0491375457224,1.00510950393,0.0907141243367,0.0653273555015,-0.0599008268146,-0.0656006025634,1.00737040807,-0.0227572793296,-0.00275613934765,0.0139824451814,-0.0135650481249,1.02131136353,-0.0703610111887,-0.0263614344325,-0.028406425554,-0.00889874988928,0.708208614349,-0.283215805844,-0.212013067915,-0.181856747547,-0.296360915795,-0.180401954227,0.408809501713,-0.528747764021,-0.348863192858,-0.349210967258,-0.368856305406,-0.4636663939,0.491107691908,-0.338535369338,-0.386349234824,-0.457094642813,-0.377297147051,-0.47025421969,
1.01800974796,0.110944997001,0.0552524781993,0.0468320442559,-0.0392109255127,1.00015201521,-0.0860543237358,0.0678617844096,0.0270584861965,0.0492036315008,1.0066172477,0.0913004691348,0.066458163326,-0.0597219419607,-0.0654749572501,1.00711076249,-0.022858252612,-0.00295087353491,0.0139516397732,-0.0135866852567,1.02351152914,-0.0695053912313,-0.0247113102293,-0.0281453889564,-0.00871540275633,0.774839283509,-0.233173584021,-0.162995733827,-0.132157619842,-0.247689561122,-0.132085882255,0.385735249189,-0.546077424337,-0.365837933755,-0.366421813815,-0.385711233363,-0.480398287181,0.464823682971,-0.358275681453,-0.405685256261,-0.476699613515,-0.396496688903,-0.489313612061,
1.01539658094,0.110291705247,0.0544903044848,0.0455476062294,-0.0406263909818,0.999220215261,-0.0862872737225,0.0675900094248,0.0266004828325,0.0486989065292,1.00558408614,0.0910421787454,0.0661568245381,-0.0602297671333,-0.0660345864274,1.00694498461,-0.0228996970825,-0.00299922541723,0.0138701557294,-0.0136764816095,1.02098362392,-0.0701373675349,-0.0254486159177,-0.0293879186388,-0.0100846847484,0.709164850095,-0.281995023063,-0.211498795449,-0.179962189653,-0.295701853681,-0.179843158707,0.454332992583,-0.495082838264,-0.315175896764,-0.316489360004,-0.335561810619,-0.430515231859,0.441245018319,-0.375803725154,-0.423098994989,-0.493862577271,-0.413734230006,-0.50645959639,
1.01599375712,0.110440999291,0.0548386572552,0.0455880927498,-0.0406015086408,0.999945232234,-0.0861060194792,0.0680129359924,0.0266496365255,0.04872911557,1.0069860957,0.0913926811352,0.066974663447,-0.0601347156381,-0.065976169362,1.00665173638,-0.0229730091402,-0.00317028688513,0.0138502744935,-0.0136887002859,1.02312869292,-0.0696011002847,-0.024197325668,-0.0292424902323,-0.0099953068726,0.775638484847,-0.232421322621,-0.162630735037,-0.130591562851,-0.247107810762,-0.131428080756,0.425979380999,-0.516227965236,-0.336020040596,-0.337547868106,-0.356289075246,-0.45116616091,0.420336452075,-0.391396598984,-0.438469917343,-0.509391576473,-0.429018963107,-0.521688037987,
1.01331963574,0.1095496255,0.0543929703579,0.0443190181979,-0.0417157258826,0.998991910789,-0.0864237932939,0.0678540490846,0.026197212789,0.0483318983009,1.00585241832,0.0910147886764,0.066785717217,-0.0606727320205,-0.0664485349364,1.0064645448,-0.023035406334,-0.00320148548214,0.0137614378107,-0.0137666967783,1.02043614338,-0.0704986167973,-0.0246460839256,-0.0305203103527,-0.0111172025153,0.709850459253,-0.281365124297,-0.210925786748,-0.178590377734,-0.295194109272,-0.179235053727,0.497271018795,-0.463189684334,-0.283684781971,-0.285533628518,-0.304180033436,-0.399359812105,0.40124195211,-0.405602184438,-0.452487207797,-0.523322886325,-0.442975664451,-0.535563667108,
1.01431525071,0.110489928528,0.0551396815868,0.0452808835097,-0.0408445627823,0.997494498612,-0.087838015905,0.0667309899517,0.0247505603465,0.0470216626459,1.00309430304,0.0884099020164,0.0647171307508,-0.0633373518755,-0.0688618858137,1.0061602542,-0.0233227918981,-0.00342970343018,0.0134674621488,-0.014032951051,1.01815086022,-0.0726569397857,-0.0263600462996,-0.0327281262923,-0.013116825285,0.651785884727,-0.325612619625,-0.253780364294,-0.221324331852,-0.337454284927,-0.220470132543,0.463407032304,-0.488995377328,-0.308678107884,-0.310456605338,-0.328826696727,-0.423408626092,0.466656620411,-0.355753627832,-0.404207891221,-0.475179462272,-0.395365992023,-0.489108853218,
1.01540582974,0.111126099627,0.0554577671369,0.0460757122924,-0.0400266285115,0.996211137046,-0.0885866434846,0.0663566761612,0.0238152290362,0.0460591414715,1.00047446673,0.0868816641698,0.0639530118262,-0.0652467241005,-0.0708267630461,1.00593338019,-0.0234551350665,-0.00349587501452,0.0133021132991,-0.0142031065534,1.01595444171,-0.0739381839155,-0.0270006683656,-0.0343289058832,-0.0147641391671,0.601432806317,-0.363364260234,-0.290778918846,-0.257893815777,-0.374174513866,-0.25662187368,0.433683035274,-0.511280601763,-0.330518777021,-0.332043989186,-0.350503067078,-0.444749411604,0.537262013501,-0.302818047544,-0.352328292787,-0.423901509284,-0.343876663457,-0.438416661709,
1.01328673193,0.110360869861,0.0548396969406,0.0449263711061,-0.0410861774183,0.996259963699,-0.0885690116377,0.0663709172684,0.0238417112887,0.0460835547981,1.00067955511,0.0869557238637,0.0640128292713,-0.0651354897233,-0.0707242188545,1.00635658273,-0.0233023119291,-0.00337244094181,0.0135316468769,-0.0139915052862,1.01462274928,-0.0744190728464,-0.0273890786564,-0.0350511797399,-0.0154299853792,0.558201119288,-0.39560932629,-0.322548997295,-0.289325356391,-0.405750121163,-0.28784360317,0.505421563027,-0.457773238873,-0.277799607097,-0.279886587899,-0.298106601982,-0.392940170247,0.504932288814,-0.326931705366,-0.376086743131,-0.447406792662,-0.367489683464,-0.46176504314,
1.01461097536,0.111243698814,0.055446641845,0.0459588320845,-0.0398171107995,0.995188247085,-0.0892834893808,0.0658797138206,0.0230061356235,0.0450564930433,0.998312313869,0.0853775630357,0.0629278437034,-0.0669811354366,-0.0729928250428,1.00614073845,-0.0234462081155,-0.00347136956982,0.0133633615065,-0.0141983560539,1.01278255841,-0.0756458667615,-0.028232499472,-0.0364859048265,-0.0171935016307,0.520952711811,-0.423608599462,-0.350000726752,-0.316330657636,-0.432881106757,-0.314404327299,0.470238888391,-0.48421972034,-0.303728910685,-0.305394221419,-0.323732949612,-0.418027882135,0.577567587255,-0.272332443258,-0.322555204553,-0.39474579993,-0.314583603204,-0.409970986573,
1.01342672723,0.110783157875,0.0542623937148,0.0458584720732,-0.0399651418157,0.99431224228,-0.0896241579161,0.0650037090157,0.0229318979279,0.0449469924427,0.998444118588,0.0854288204264,0.0630596484224,-0.0669699655451,-0.072976349453,1.00410534823,-0.0242377487561,-0.00550675978801,0.0131908708095,-0.0144527798312,1.01375061332,-0.0752694009623,-0.0272644445601,-0.0364038662743,-0.0170724947667,0.594541619006,-0.368229571096,-0.29571589887,-0.261401966117,-0.379186067284,-0.261339862429,0.439991928002,-0.506981945535,-0.326041390939,-0.327971346423,-0.345803011445,-0.439838761359,0.540233307796,-0.300428201165,-0.350095835496,-0.422613085879,-0.341825013433,-0.436892483798,
1.01133962947,0.109797583936,0.0530449200259,0.0446203632362,-0.0412695779117,0.99440033186,-0.089582560059,0.065055094604,0.0229841544583,0.0450020484301,0.998687811087,0.0855438974398,0.06320180238,-0.0668254021983,-0.0728240416411,1.00455814055,-0.0240239301612,-0.00524263093554,0.0134594764223,-0.0141697846319,1.01246007074,-0.0758788238469,-0.0280172610645,-0.037169442381,-0.017879083879,0.552254530194,-0.399952875853,-0.326891072529,-0.292234910659,-0.410002363133,-0.29166320311,0.512033207952,-0.452937376776,-0.272930631223,-0.275443616285,-0.293303644413,-0.388179204355,0.507561702882,-0.324938076606,-0.374182217072,-0.446435056384,-0.365634120921,-0.460320727128,
1.01273247523,0.110571387137,0.0533350962256,0.0455646654473,-0.0402249435912,0.993343422919,-0.0901697316933,0.0648349052416,0.0222676060234,0.0442093667243,0.99631887544,0.0842278220792,0.062708274121,-0.0684314602649,-0.0746007433765,1.00436166768,-0.0241330817567,-0.00528356278375,0.0133262744754,-0.0143171392857,1.01067462943,-0.0768707356892,-0.0283892280045,-0.0383799110695,-0.0192181648651,0.515654675245,-0.427293054143,-0.353701725738,-0.318697075891,-0.436676874449,-0.317877280951,0.475882744788,-0.47994185834,-0.299412089486,-0.301580865484,-0.319650632403,-0.414071412308,0.580320680845,-0.270586947824,-0.320883761961,-0.39382938077,-0.312606310189,-0.40820823885,
1.01432152715,0.111630755084,0.0541958326829,0.046830520366,-0.0389007336582,0.992728857586,-0.0905794419153,0.0645020156862,0.0217780370299,0.0436972289473,0.994404576955,0.0829516230888,0.0616713624412,-0.0699564099043,-0.0761959921131,1.00450407783,-0.0240381416571,-0.00520642395277,0.0134397198485,-0.0141984641612,1.00920023869,-0.0778536628523,-0.0291878563246,-0.0395544257292,-0.0204468238179,0.483946705091,-0.451189402539,-0.377024292477,-0.341687609038,-0.459757745746,-0.340403493645,0.444530460077,-0.503570148477,-0.322473034385,-0.324313501392,-0.342472593089,-0.436344936296,0.654371847666,-0.21477913443,-0.266415965004,-0.340137018972,-0.258702971614,-0.355600256506,
1.01269177441,0.111404400536,0.0534488626743,0.0466647827989,-0.0389686400232,0.99163306816,-0.0907316348913,0.0639997788663,0.0216666008174,0.0436515710542,0.994512789015,0.0829666525416,0.0617209596353,-0.069945405288,-0.0761914832772,1.00225804315,-0.0243500909181,-0.00623585651266,0.0132113095429,-0.0142920489402,1.01008462652,-0.0777308312083,-0.0287825118999,-0.0394644879834,-0.0204099743244,0.556305448582,-0.397479586866,-0.323930858298,-0.288450959635,-0.406865606768,-0.287788918122,0.417203199801,-0.523854388383,-0.342524489465,-0.344419043643,-0.362448026307,-0.456215543914,0.606102929286,-0.250607765274,-0.301833421378,-0.375650011057,-0.293986148408,-0.390698276855,
1.01438810526,0.112535287772,0.0543677085536,0.0480160972065,-0.0372723091702,0.991279207077,-0.0909675422801,0.0638081041128,0.0213847114802,0.0432977099711,0.992797648883,0.0818232257865,0.0607919253967,-0.0713117033582,-0.0779066234089,1.00271981111,-0.0240422456136,-0.00598573220275,0.0135791585927,-0.0138302809838,1.0086541156,-0.0786845051582,-0.0295573719843,-0.0406040475324,-0.0218404852486,0.51912761878,-0.425470626483,-0.351304156001,-0.31527051303,-0.433889641478,-0.314150250595,0.392761788943,-0.54225622903,-0.360520214855,-0.362050727015,-0.380214139577,-0.473545984156,0.679776816368,-0.195138989848,-0.247588801539,-0.322502725188,-0.240433649719,-0.338459029909,
1.01255552236,0.112535287772,0.0536041323444,0.0479850364785,-0.0372723091702,0.990257323571,-0.0909675422801,0.0633823193184,0.0213673914203,0.0432977099711,0.993055851603,0.0818232257865,0.0608995098633,-0.0713073270408,-0.0779066234089,1.00050529529,-0.0240422456136,-0.00690844712513,0.0135416244254,-0.0138302809838,1.00956889467,-0.0786845051582,-0.0291762140367,-0.0405885428019,-0.0218404852486,0.592739418569,-0.371113027636,-0.29722691358,-0.261212067443,-0.380068506065,-0.260398728556,0.371138465059,-0.558223668609,-0.376405300275,-0.377930290902,-0.396023994059,-0.489335389844,0.62798645481,-0.233382854362,-0.285635418319,-0.360536117257,-0.278300079701,-0.376276482664,
1.01434583825,0.113629369707,0.0544992902919,0.0492291543034,-0.0358549757527,0.990081645202,-0.0910749012839,0.0632944801335,0.0212453098412,0.0431586312616,0.991483634341,0.0808624263489,0.0601134012324,-0.0723998847986,-0.0791512954083,1.00120358912,-0.0236155104986,-0.00655930021272,0.0140268794561,-0.0132774650389,1.00816142354,-0.0795446264062,-0.0298799496034,-0.0415666159621,-0.0229547332296,0.550502146535,-0.40289639413,-0.328232949747,-0.291774031619,-0.41078644371,-0.290439442723,0.351468935046,-0.573024905788,-0.390844541486,-0.392162731651,-0.410329070295,-0.503325089,0.701008758692,-0.178433883115,-0.232030341899,-0.307698778864,-0.225193085112,-0.324340312237,
1.01187283248,0.112049393794,0.0534688712175,0.0478040323315,-0.0371945205492,0.989867702852,-0.091211586674,0.0632053374877,0.0211220210297,0.0430427458221,0.99181194533,0.0810721805915,0.0602501974777,-0.072210688636,-0.0789734602895,1.00125461747,-0.0235829090541,-0.00653803840111,0.0140562856226,-0.0132498246838,1.00717740958,-0.0801733019897,-0.030289955419,-0.0421336748519,-0.0234877407898,0.514128842359,-0.430311994704,-0.354780196431,-0.318247302118,-0.437264589978,-0.316362474673,0.417393538713,-0.523335644858,-0.34272912399,-0.344181391903,-0.362338893486,-0.456341026214,0.646092362169,-0.219825943201,-0.272111361717,-0.347668109474,-0.265169777155,-0.363478892959,
1.0138468383,0.113255730685,0.0542913736436,0.0492092568148,-0.0356317659401,0.989864310242,-0.0912136599354,0.0632039239004,0.0211196059516,0.0430400600061,0.990487024424,0.0802625067052,0.0596981471001,-0.0731538526704,-0.0800223560065,1.0019633188,-0.0231498137974,-0.00624274618036,0.014560784874,-0.0126887694646,1.00613813024,-0.0808084171438,-0.030722988479,-0.0428735008253,-0.0243105036035,0.482443581789,-0.45412691202,-0.37800349132,-0.341112171541,-0.460326040217,-0.338869378238,0.392909704231,-0.541737907718,-0.360674228368,-0.361849533756,-0.380158937267,-0.473732560691,0.718305290641,-0.165550078342,-0.219183845817,-0.295557470318,-0.212611116547,-0.312184083068,
1.01093364992,0.112041902194,0.0534416936999,0.0476785985154,-0.0367242115808,0.989476463394,-0.0913752627891,0.0630908019027,0.0209158220142,0.0428946174379,0.99074420144,0.0803696637951,0.059773157063,-0.073018725764,-0.0799259146257,1.00168446481,-0.0232660029604,-0.00632407859446,0.0144142683703,-0.0127933397112,1.00500949368,-0.0812786823785,-0.0310521741434,-0.0434665132566,-0.0247337423144,0.454729474049,-0.474864331914,-0.398250660252,-0.361224201513,-0.480550598915,-0.358752955616,0.462160039469,-0.489920497859,-0.310081827943,-0.311594810388,-0.329623033927,-0.42404868084,0.661136943241,-0.208326993111,-0.260949476457,-0.337044337841,-0.254330107053,-0.353199701169,
1.00922112732,0.111804051832,0.0524427221786,0.0475044436743,-0.0367955666901,0.988257694466,-0.0915445362515,0.0623798533619,0.0207918794117,0.0428438353989,0.990775035562,0.0803739463121,0.0597911436344,-0.0730155900905,-0.0799246298706,0.999354012626,-0.0235896768744,-0.00768350903155,0.014177273234,-0.0128904418861,1.0058946178,-0.0811557484716,-0.0305358517352,-0.0433765006336,-0.0246968621421,0.525571395606,-0.42223733638,-0.346218269414,-0.309074398324,-0.428821000103,-0.307381892601,0.432698929856,-0.511806545696,-0.331720596856,-0.333282407707,-0.35113588038,-0.445412422608,0.611978327619,-0.244845909989,-0.297055785333,-0.373232121478,-0.290226302531,-0.388847101541,
1.01098442249,0.113077542788,0.0532508991314,0.0487297843859,-0.0351792127828,0.987939742837,-0.0917741679834,0.062234125532,0.0205709299747,0.0425523797389,0.989084335478,0.0791528851403,0.0590162394295,-0.0741904833692,-0.081474438282,0.999778786987,-0.0232828953916,-0.00748882078291,0.014472455417,-0.0125010653884,1.00451158033,-0.0821546088727,-0.0311697439125,-0.0443375944745,-0.0259646464982,0.492324458978,-0.447263682305,-0.370552819323,-0.333064126918,-0.452974201411,-0.330885043359,0.406443206348,-0.531570316006,-0.350938043,-0.352227542052,-0.370210112164,-0.463973297397,0.685502408153,-0.189501290007,-0.243241040617,-0.320179933337,-0.236812601956,-0.33687095804,
1.00828587955,0.111728271318,0.0523513848186,0.0473576439082,-0.0365284842532,0.987732106768,-0.0918779860178,0.0621649135092,0.0204653523127,0.0424485617045,0.989449235009,0.0793353349059,0.0591378726065,-0.0740049412347,-0.0812919885163,0.99970839855,-0.0233180896105,-0.00751228359551,0.0144366646859,-0.0125362596073,1.00345149654,-0.0826846507677,-0.0315231051755,-0.0448766201301,-0.0264946883932,0.463326717698,-0.468978495887,-0.391720660496,-0.354090212726,-0.474097472419,-0.351604973683,0.476653369643,-0.478993786239,-0.299685858526,-0.301318579736,-0.319065842255,-0.413805607525,0.632711932197,-0.229033173999,-0.28177715968,-0.358457986328,-0.275267580896,-0.374591654042,
1.00673259322,0.111383096578,0.0513805808635,0.0472523363608,-0.0365932045174,0.986582495402,-0.09213345521,0.0614464064055,0.0203874125592,0.0424006612306,0.98951183245,0.0793492454485,0.0591769960074,-0.0740006973404,-0.0812893802896,0.997449210514,-0.0238201313958,-0.00892427611801,0.0142834993957,-0.0126303924429,1.00440143302,-0.0824735537721,-0.0309293948747,-0.044812217657,-0.0264551077061,0.534698145193,-0.415869195985,-0.339413409315,-0.301417592657,-0.422057369213,-0.299977184328,0.445377187263,-0.502267191411,-0.322607792207,-0.324400624324,-0.341870707116,-0.436429789392,0.587597644673,-0.262603866222,-0.314840872319,-0.391752650731,-0.308162427772,-0.407225874974,
1.00841979535,0.112086097467,0.0518726814854,0.0484247988576,-0.0353278029199,0.986072357483,-0.0923460126765,0.0612976161789,0.0200329099375,0.0420180577912,0.987569662635,0.0785400080247,0.0586105298106,-0.075350340771,-0.0827460076511,0.997701503177,-0.0237150094528,-0.00885069075785,0.0144588214157,-0.0124411729456,1.00283704292,-0.0831253829778,-0.0313856753189,-0.0458993361954,-0.0276284002755,0.500156814363,-0.441611664611,-0.364746977609,-0.326168396808,-0.447209443597,-0.324605401654,0.417598555777,-0.522969652269,-0.342981409579,-0.34430557445,-0.362098364494,-0.456236153444,0.66158626338,-0.207462687526,-0.260575571013,-0.338735648578,-0.25428589214,-0.354471457661,
1.01054167644,0.113264920295,0.0526683868941,0.050079146826,-0.0338248038153,0.986231889394,-0.0922573838372,0.0613574406453,0.0201572907491,0.042131059561,0.986376866041,0.0778773432498,0.0581632310878,-0.0762803177765,-0.0835909052381,0.998536168832,-0.0232513063106,-0.00853769113714,0.0151095776894,-0.0118499514401,1.00194677668,-0.0836199753341,-0.0317195251591,-0.046593442078,-0.0282590055289,0.470055924867,-0.464211354182,-0.386771044744,-0.347788512519,-0.469117937005,-0.345940710353,0.393019151862,-0.541423821153,-0.360965543969,-0.361959855293,-0.379988125151,-0.473657870176,0.732954823274,-0.153879310898,-0.208356982768,-0.287474820446,-0.202341326708,-0.303885900814,
1.01322899766,0.114384637471,0.0535641606331,0.0519466073341,-0.0312494543138,0.987122608436,-0.0918862509026,0.0616543469925,0.0207762649986,0.0429846653096,0.986044447765,0.0777388356345,0.0580524249958,-0.0765113203074,-0.0839094727529,1.00003675485,-0.0226260621348,-0.00803749579743,0.016152357805,-0.0104118898375,1.00188835684,-0.0836443169344,-0.0317389984394,-0.0466340389165,-0.0283149912097,0.443480729754,-0.484037887367,-0.406316675316,-0.366709941166,-0.488468082831,-0.364818331283,0.370978747145,-0.557867155386,-0.377175908802,-0.377652531995,-0.396036362747,-0.489314214508,0.798495815942,-0.104982184813,-0.160152631883,-0.240809905627,-0.154619089474,-0.257329026642,
1.01628073047,0.115995274235,0.0545814049035,0.0539121301648,-0.029087810238,0.98863620085,-0.0910874104612,0.0621588777968,0.0217511211307,0.0440567932695,0.986469909167,0.077963384708,0.0581942454631,-0.0762372943195,-0.0836081042598,1.00207956721,-0.0215479111673,-0.00735655834525,0.0174680674605,-0.00896489775081,1.00256871398,-0.0832852395544,-0.031512212726,-0.0461958427916,-0.0278330715685,0.419962844596,-0.501694640209,-0.423523522933,-0.383610758944,-0.505607459162,-0.381524196336,0.351222313002,-0.57269988683,-0.391630692871,-0.391850232644,-0.410434466889,-0.503348143175,0.856554586579,-0.0613928332817,-0.117673964587,-0.199086736375,-0.112306989022,-0.216087138571,
1.01196765524,0.114437774848,0.0529640016935,0.0520114529467,-0.0312443478514,0.986956948369,-0.0916938071906,0.0615291581161,0.0210111115626,0.0432171670286,0.985738770765,0.0776993625074,0.0579200685624,-0.0765594909032,-0.0839736734607,1.00040775157,-0.02215162237,-0.00798348920976,0.0167313351453,-0.00980080557016,1.0005688588,-0.0840074094826,-0.0322621584209,-0.0470771349074,-0.0288329991617,0.398986550418,-0.517384418076,-0.438902305829,-0.398783566824,-0.520920701442,-0.396550456376,0.417162043888,-0.52337850902,-0.343286938873,-0.344153968474,-0.36229674216,-0.456112557379,0.785538680974,-0.114511071161,-0.169739319183,-0.250454756057,-0.164150453797,-0.266959015921,
1.01491901527,0.116405348201,0.0541937350396,0.0541124211031,-0.0285389344911,0.988267648967,-0.0908200067914,0.0620752833658,0.0219441526667,0.0444186425773,0.985967164871,0.0778516252449,0.0580152327734,-0.0763969052683,-0.0837643121967,1.00219941577,-0.0209571795722,-0.00723696246089,0.0180067571157,-0.00815844672335,1.00116127958,-0.0836124622928,-0.0320153164272,-0.046655411637,-0.0282899467758,0.379896053048,-0.531773876292,-0.452881208053,-0.412473649234,-0.534821383965,-0.410009082805,0.392601992883,-0.541890642092,-0.361270888948,-0.36176634995,-0.380180062073,-0.473427169206,0.845188380721,-0.0695501230278,-0.126061184231,-0.207679060411,-0.120716722203,-0.224906521955,
1.01822467474,0.117690882439,0.0548824140942,0.0563535461668,-0.0259219540783,0.99007341356,-0.0901177650049,0.0624514843222,0.0231683998492,0.0458482062144,0.986852938673,0.0781960928344,0.0581997689817,-0.0757963806569,-0.0830630746036,1.00443619262,-0.0200873219085,-0.00677096728481,0.0195232159968,-0.00638766505068,1.00235789974,-0.0831471100109,-0.0317660205623,-0.0458441437363,-0.0273426224875,0.362530961451,-0.544755095472,-0.465630271744,-0.424855748983,-0.547510445665,-0.422383102773,0.370662428084,-0.558291494215,-0.377378429034,-0.377410257054,-0.396211793887,-0.489060868079,0.89705008427,-0.0307810709282,-0.0879854759618,-0.170699308077,-0.0828202128453,-0.187950900285,
1.0131666774,0.116004883328,0.0536179147602,0.0534387680431,-0.0282402028556,0.987778333009,-0.0908827918546,0.0618777141843,0.0218458110577,0.0447962942956,0.985577386678,0.0777709088365,0.057880880983,-0.0765314445179,-0.0836477026009,1.00206486126,-0.0208777656928,-0.0073638001236,0.0181566860644,-0.00747452525434,0.99978799291,-0.0840037456185,-0.0324084972687,-0.0473251069905,-0.0285204964483,0.346748944455,-0.556571325213,-0.477198845484,-0.436222798787,-0.559061572751,-0.433692789474,0.438243757035,-0.507692352846,-0.327839793538,-0.328734581936,-0.34674786798,-0.440630831701,0.823996704189,-0.0854772179784,-0.141535248122,-0.223316246073,-0.136289226191,-0.240302310205,
1.01024771039,0.115923800911,0.0521584312518,0.0532903459903,-0.0283618264823,0.985597531814,-0.0909433696661,0.0607873135868,0.0217349228606,0.0447054275785,0.984985725184,0.0777544737949,0.0575850502359,-0.0765615290008,-0.0836723551634,0.998891361287,-0.0209659184706,-0.00895055011086,0.0179953216577,-0.007606754421,1.00004269811,-0.083996670474,-0.0322811446682,-0.0473121558785,-0.0285098837315,0.408836659088,-0.510641114048,-0.431576116577,-0.390719743023,-0.513691174184,-0.388577199484,0.4115749385,-0.527420965408,-0.347436331846,-0.348279716495,-0.36623602169,-0.460009536323,0.755507222749,-0.136143221127,-0.191862064999,-0.273511050499,-0.186337695343,-0.290069697868,
1.0129807635,0.116379309764,0.0527278173165,0.0549116486858,-0.0265397910713,0.986535951979,-0.0907869663049,0.0609828177876,0.0222916127891,0.0453310410222,0.984753029293,0.0777156911464,0.0575365719255,-0.076699568936,-0.0838274857572,1.00032274812,-0.020727353998,-0.00865234452123,0.0188444494398,-0.00665249653218,1.00013359849,-0.0839815204105,-0.0322622070889,-0.0472582319237,-0.0284492834775,0.388784974705,-0.525506978778,-0.446336184075,-0.40501143513,-0.528346724593,-0.402964894673,0.387622990677,-0.545178397132,-0.365067387663,-0.365351292983,-0.383742230744,-0.477195789502,0.818806701671,-0.0892144208714,-0.145267247144,-0.228394807592,-0.140072818714,-0.24465039089,
1.00881139287,0.114989519554,0.0520329222096,0.0530036316148,-0.0281033050588,0.98511899662,-0.0912592847573,0.0607466585606,0.0216431755905,0.0447996827627,0.9842931835,0.0775624092157,0.0574599309599,-0.0769100068411,-0.0839999279294,0.998877958924,-0.0212089503961,-0.00889314272102,0.0181832747225,-0.00719429248062,0.998325553798,-0.0845842019742,-0.0325635478717,-0.0480856422076,-0.0291273002374,0.370678750834,-0.539008548787,-0.459550212373,-0.418081615517,-0.541576670303,-0.41596481548,0.456552372292,-0.493778675239,-0.314762320982,-0.31559384725,-0.333376567363,-0.427705818063,0.750679553402,-0.140015928042,-0.194986839228,-0.277573152203,-0.189852302243,-0.293564374202,
1.00534367627,0.113351986718,0.0510215048677,0.0505938624553,-0.0302706279317,0.984451890306,-0.0915743071831,0.0605520858856,0.0211795932371,0.0443827413167,0.984476028999,0.0776487529236,0.0575132608972,-0.0767829447148,-0.0838856494925,0.99814721386,-0.0215540244541,-0.00910627669832,0.0176754688306,-0.00765100814576,0.997024120076,-0.0851987678983,-0.0329431327077,-0.0489900283531,-0.0299406963137,0.35409184941,-0.55144544117,-0.471685276003,-0.429981502596,-0.553684407424,-0.4277479379,0.529425328295,-0.439138384793,-0.261448086128,-0.263312837954,-0.280182388901,-0.375937803064,0.689558678502,-0.185844484204,-0.239703190226,-0.321422903937,-0.234467958113,-0.33698386124,
1.00263869134,0.112375186604,0.0504579663412,0.0492642935899,-0.0313977049874,0.984567819158,-0.0915324439867,0.0605762377296,0.021236575215,0.0444310450048,0.985312620235,0.0779508553142,0.0576875507377,-0.0763717388528,-0.0835370698106,0.998181027,-0.0215418141534,-0.00909923229411,0.0176920888487,-0.00763691933731,0.996336166297,-0.0854471956519,-0.0330864564116,-0.0493281751263,-0.0302273437221,0.338855915311,-0.562787639903,-0.482802337534,-0.44097389333,-0.564804669416,-0.438651082279,0.603456916262,-0.384026504035,-0.207430149758,-0.209900678498,-0.226148901451,-0.322959292724,0.636340534687,-0.225462059304,-0.27853437547,-0.359818622055,-0.273310322364,-0.375067847547,
1.0008933878,0.111551015486,0.0498034775123,0.04822894403,-0.0324157987207,0.985492804557,-0.0910956453264,0.0609231072542,0.0217852953669,0.0449706198205,0.986855730465,0.0786795462554,0.0582662170737,-0.0754563344795,-0.0826369221774,0.999026957851,-0.0211423468073,-0.00878200822493,0.018193912235,-0.00714345967442,0.996385542858,-0.0854238789423,-0.033067940201,-0.0492988839457,-0.0301985407278,0.324779992508,-0.57330995722,-0.493099787391,-0.451123463236,-0.575069024741,-0.44864875281,0.675090267483,-0.330477698566,-0.15502571045,-0.158248810554,-0.173912882521,-0.272080451281,0.590481692739,-0.259743384478,-0.312083090679,-0.392885549791,-0.306751216797,-0.407639892669,
0.999954694146,0.111368491721,0.049255906216,0.0481493937203,-0.0324549109565,0.983867003539,-0.0914117733013,0.0599747233278,0.0216475156191,0.0449028781109,0.986383238552,0.0785876728282,0.0579905967915,-0.0754963761672,-0.0826566093406,0.996595870439,-0.0216150582474,-0.0102001425477,0.0179878878774,-0.00724475498406,0.997377426908,-0.0852310125997,-0.0324893411723,-0.0492148259751,-0.0301572122254,0.384716666483,-0.528860102157,-0.449199762353,-0.406998144766,-0.531357642118,-0.405366709267,0.616662843419,-0.373808273306,-0.197820300294,-0.201263020774,-0.216523580105,-0.314272620861,0.551386647611,-0.28873680327,-0.340717870459,-0.421667282284,-0.335262950314,-0.435871580103,
0.998784294896,0.11114091409,0.0485244066848,0.048030370068,-0.0326987441332,0.982304788932,-0.091715537252,0.0589983391982,0.0214886463374,0.0445774167349,0.985931616607,0.0784998574501,0.0577083330756,-0.0755423038225,-0.0827506972457,0.994094207825,-0.0221014926434,-0.0117636816815,0.0177334815105,-0.00776593469448,0.998181259556,-0.0850747118073,-0.0319869457672,-0.0491330802822,-0.0299897470907,0.450494387717,-0.480126927124,-0.400917371537,-0.3587430224,-0.483447520342,-0.357943831964,0.566062301668,-0.411297031075,-0.234962285246,-0.238384029045,-0.253379191272,-0.350753411589,0.517529523329,-0.313820754688,-0.365569794117,-0.446505170319,-0.359923259564,-0.460281094763,
0.997055814398,0.110420713882,0.0480922865604,0.0471514816797,-0.0334909643608,0.982988952563,-0.091430469072,0.0591693801061,0.0218365261499,0.0448909917325,0.986853681219,0.078884051039,0.0579388492288,-0.0750734574095,-0.0823280842986,0.994877203457,-0.0217752444634,-0.0115679327736,0.0181316148822,-0.00740706169694,0.997518343069,-0.0853509270105,-0.0321526748889,-0.0494701564619,-0.0302935838136,0.426091507417,-0.498281721008,-0.418710167844,-0.376373280169,-0.501226835616,-0.375373055116,0.639374073297,-0.356755924168,-0.181508700937,-0.185418747266,-0.199966107033,-0.298392083264,0.487696458896,-0.336015394382,-0.387321883713,-0.468058552933,-0.381658868297,-0.481588708084,
0.995796977708,0.110140972395,0.0473055136292,0.0470661368196,-0.0335958674179,0.981196420057,-0.0918288096286,0.0580490472895,0.0217149985227,0.0447416140242,0.986096136125,0.0787157076849,0.0574653835448,-0.0751248163989,-0.0823912130562,0.992104166991,-0.0223914747885,-0.0133010805648,0.0179436124104,-0.00763814806818,0.998036668333,-0.0852357436186,-0.031828721599,-0.0494350157661,-0.0302503900418,0.495208468753,-0.447054320228,-0.368115470719,-0.325458057188,-0.450924454394,-0.325495956047,0.58569096051,-0.396544223316,-0.220805579441,-0.224964578057,-0.239035943906,-0.33713160368,0.461727579674,-0.355262742036,-0.406331509621,-0.487188607995,-0.400558664197,-0.500328715407,
0.994445135161,0.109314846395,0.0468548994473,0.0462412837394,-0.0343844422365,0.982074935534,-0.0912919390591,0.0583418857817,0.0222510418653,0.0452540813857,0.987050398316,0.0792988679126,0.0577834709415,-0.0745425547226,-0.0818345601118,0.993182121799,-0.0217327246282,-0.0129417622958,0.018601347548,-0.00700934109723,0.99740374802,-0.0856225282544,-0.0320396950366,-0.0498212044321,-0.0306195935577,0.465539575227,-0.469246768323,-0.389710186457,-0.346909042604,-0.472499775212,-0.346512804987,0.658245839002,-0.342272891172,-0.167995993701,-0.172506482881,-0.186273788182,-0.285735183393,0.438263800269,-0.372813740562,-0.423409788794,-0.504153217389,-0.41762160481,-0.516949985995,
0.995568216664,0.110063567397,0.0470888747601,0.0471549771657,-0.0335889261722,0.980207102436,-0.0925371611251,0.0579527538869,0.0207314488364,0.0439310329419,0.983839371294,0.0771581832304,0.0571145069797,-0.0771549156893,-0.0841090375844,0.99202887314,-0.022501557068,-0.0131820224328,0.0176631113508,-0.00782622556373,0.995250165858,-0.0870582496962,-0.0324883579862,-0.0515732712754,-0.0321450475881,0.439313073438,-0.488875918994,-0.408798024225,-0.365733196512,-0.491601321394,-0.365003597569,0.601854775636,-0.384478622161,-0.209037817645,-0.21298134546,-0.227345087349,-0.325493267202,0.507045304683,-0.321334419211,-0.373350112203,-0.454785076891,-0.367525976596,-0.468456117396,
0.994295929114,0.110028226076,0.0465587549471,0.0470902845779,-0.0336419381538,0.978645512483,-0.0925805386241,0.0573020914059,0.0206520459569,0.0438659666934,0.983358908026,0.0771448370284,0.0569143139512,-0.0771793460252,-0.0841290568874,0.989448815114,-0.0225732253471,-0.0142570466111,0.0175319219587,-0.00793372798233,0.995936651606,-0.0870391806475,-0.032202322258,-0.0515383652202,-0.0321164440151,0.509426105145,-0.437355087457,-0.357477008858,-0.314444048863,-0.440531496771,-0.314088827581,0.553316785216,-0.420145566902,-0.244566433247,-0.248487899614,-0.262699808118,-0.360740646437,0.478771285307,-0.34211088478,-0.394045999224,-0.475468112828,-0.388120567584,-0.488988180525,
0.992665749782,0.109530115724,0.0458795135582,0.0461232290419,-0.034592876097,0.979274883856,-0.0923882307044,0.0575643294782,0.021025401856,0.044233099994,0.984094620957,0.0773696382021,0.0572208610061,-0.0767429061508,-0.0836998910113,0.990310935398,-0.0223097997044,-0.0138978298259,0.0180433492457,-0.00743082448377,0.995055065586,-0.0873085541539,-0.0325696497665,-0.0520613399777,-0.0326307025262,0.477926485023,-0.460723197323,-0.380579635404,-0.337068574861,-0.463450017374,-0.336526230425,0.626976502293,-0.365500832946,-0.190542513957,-0.195581985906,-0.209106408042,-0.308272307487,0.453461069553,-0.360887362088,-0.412609158402,-0.493647114102,-0.406535796053,-0.507016826735,
0.991464161367,0.109196341164,0.0450283884314,0.0460213995149,-0.0346429422813,0.977615962834,-0.0928490420997,0.0563892604217,0.0208848153283,0.0441639782842,0.983471901929,0.0771966606942,0.0567797683615,-0.07679567895,-0.0837258376376,0.987608978042,-0.0230603434148,-0.015811716285,0.017814369808,-0.00754340604114,0.995654485178,-0.0871420487115,-0.0321450608887,-0.0520105417069,-0.0326057267097,0.550196926748,-0.407075482688,-0.327773983018,-0.283725623049,-0.410966340211,-0.284527966609,0.575020449046,-0.404068793119,-0.228505105878,-0.233930848575,-0.246837528265,-0.345654458461,0.431224465572,-0.377394013443,-0.428856718982,-0.510059994199,-0.42268428936,-0.523015965145,
0.992875272912,0.109980292023,0.0458515368322,0.0471215881772,-0.0332906270511,0.976273584404,-0.0935948078949,0.0556062063378,0.0198382151961,0.0428775322889,0.980656975532,0.0756328126947,0.0551377279643,-0.0789903673273,-0.0864234754337,0.987098725875,-0.0233438168414,-0.0161093633824,0.0174165460843,-0.00803239770132,0.993637906778,-0.0882623700458,-0.0333213982881,-0.0535827892733,-0.0345382810092,0.513238283095,-0.434672418153,-0.354919808617,-0.310147854045,-0.437782223952,-0.310471800087,0.530023880684,-0.43766762875,-0.261554722331,-0.266099499959,-0.279485445687,-0.377240668379,0.499497948002,-0.326414358825,-0.378710396932,-0.461250364153,-0.373147466941,-0.475090075987,
0.991677641131,0.109747419177,0.0451030169687,0.0470606916455,-0.0333904296992,0.975153828485,-0.093812538212,0.0549063588881,0.019781278454,0.042784219296,0.980664683368,0.0756343114405,0.0551425453615,-0.0789899754035,-0.086422833114,0.9848595626,-0.0237792096994,-0.0175088404295,0.0173026903237,-0.00821899464019,0.994576832514,-0.0880798011532,-0.0327345697035,-0.0535350472864,-0.0344600371983,0.586812554284,-0.380276040398,-0.301170190079,-0.256092764889,-0.38439240406,-0.257415578532,0.491565126263,-0.466101711747,-0.289650731251,-0.294355184528,-0.307393380603,-0.40497422472,0.472127581515,-0.34665035669,-0.398705793885,-0.481359399238,-0.39300901519,-0.49482752231,
0.989747168834,0.109372049565,0.0451030169687,0.0462426949088,-0.0341143568104,0.975366652919,-0.0937711556832,0.0549063588881,0.0198714582992,0.0428640284589,0.980839788087,0.0756683595802,0.0551425453615,-0.0789157784885,-0.0863571688444,0.985477705284,-0.0236590152888,-0.0175088404295,0.0175646151903,-0.00798719113347,0.993180136904,-0.0883513808545,-0.0327345697035,-0.0541268674606,-0.0349837980519,0.544769946809,-0.41117978311,-0.331750877859,-0.286236150125,-0.414999308838,-0.287664051313,0.565420118253,-0.411814030571,-0.235930551017,-0.241403200604,-0.253627145752,-0.351837636647,0.447539499763,-0.36472401572,-0.416590518366,-0.498988372914,-0.410909072348,-0.512517955094,
0.988840013703,0.109246055796,0.0447250356639,0.0461811928662,-0.0341143568104,0.97431914118,-0.0939166434249,0.0544698956631,0.0198004405544,0.0428640284589,0.980859519189,0.0756711000111,0.0551507666541,-0.0789144407867,-0.0863571688444,0.98332781563,-0.0239576110744,-0.0184046277862,0.0174188599599,-0.00798719113347,0.994195513926,-0.0882103562679,-0.0323114959438,-0.0540580283406,-0.0349837980519,0.618827510127,-0.356650621172,-0.277806648481,-0.231965321319,-0.361208994286,-0.234058074808,0.522036933296,-0.443757408288,-0.267531273153,-0.27319524585,-0.285137704033,-0.383240209042,0.425843831176,-0.38069870585,-0.432393848511,-0.51488738259,-0.426667312093,-0.528222191751,
0.988480638506,0.109176177286,0.0445303740986,0.0461568284461,-0.0341293307771,0.973981245899,-0.0939823452849,0.0542868690526,0.0197775323998,0.0428499494888,0.981531061387,0.0758016776604,0.0555145186782,-0.0788689125022,-0.0863291879193,0.981889146998,-0.0242373521966,-0.0191839066289,0.0173213231037,-0.00804713566028,0.995733346999,-0.0879113331712,-0.031478503029,-0.0539537684715,-0.0349197216733,0.691396597727,-0.303088762305,-0.224916178821,-0.178678569217,-0.308594267398,-0.181662977909,0.484679726205,-0.47133005003,-0.294758296306,-0.300626267782,-0.312222779972,-0.410212223576,0.406286940245,-0.395133273881,-0.446647481574,-0.52924781116,-0.440846634297,-0.54234232512,
0.989709652969,0.109619988064,0.0449400455859,0.0469692278368,-0.0331563609933,0.972563761984,-0.0944942144761,0.0538143744149,0.0188405515074,0.0417277747227,0.978432821209,0.0746828687073,0.054481771953,-0.0809169017724,-0.0887819613951,0.981582296933,-0.0243481591647,-0.019286189984,0.0171184900097,-0.00829005862885,0.993209647152,-0.0888226692268,-0.0323197363106,-0.0556219768447,-0.0369176507199,0.634875674462,-0.344917199577,-0.266293280112,-0.218942478842,-0.349599199487,-0.221732269912,0.451924090806,-0.495570932192,-0.31873761521,-0.323960457444,-0.335986415231,-0.433433626266,0.472545419371,-0.34609853634,-0.398141837225,-0.482047141722,-0.392777277324,-0.495369802477,
0.989275576302,0.109487353527,0.0446868341969,0.0469177272152,-0.0331744475213,0.972489674797,-0.0945168522278,0.0537711568889,0.0188317615021,0.0417246877565,0.979448540868,0.0749932274926,0.0550742750874,-0.08079639266,-0.0887396397423,0.980385286639,-0.0247139123106,-0.0199844459884,0.0169764718389,-0.00833993405817,0.994915799999,-0.088301344745,-0.0313244804837,-0.0554195519303,-0.0368465610174,0.706614867828,-0.291724907366,-0.214144560342,-0.166219853847,-0.297657337676,-0.170157992986,0.423559591857,-0.516602291003,-0.339356362616,-0.344806117551,-0.356523374397,-0.453825248405,0.448208338388,-0.364143694955,-0.415832970295,-0.499932968616,-0.410398235102,-0.512866059339,
0.990212712626,0.109877826995,0.0449601656249,0.0475689575415,-0.0324715952786,0.970961517908,-0.0951535842656,0.0533254444623,0.0177698219691,0.0405785700895,0.97611258167,0.0736032444923,0.0541012869869,-0.0831146015935,-0.0912416091408,0.979977411257,-0.0248838603865,-0.0201034096416,0.0166930330144,-0.00864584059452,0.991985485028,-0.089522309317,-0.0321791556844,-0.0574558725022,-0.0390442972451,0.648091326161,-0.335141109171,-0.256849995125,-0.207875894928,-0.340091580709,-0.211558160089,0.398128224907,-0.535468773247,-0.357913981512,-0.362907723097,-0.374963147095,-0.47181566408,0.517733435895,-0.312565892623,-0.365099548619,-0.45044621106,-0.359986985194,-0.463683276264,
0.989713497159,0.10971142184,0.0445025514465,0.0475351124252,-0.0324923959233,0.971064466317,-0.0951192681292,0.0534198138375,0.0177768015223,0.0405828596065,0.97739020861,0.0740291201384,0.0552724450151,-0.0830279828182,-0.0911883746846,0.978942571804,-0.0252288068706,-0.0210520124741,0.0166228744076,-0.00868895890541,0.993850310175,-0.0889007009353,-0.0304697326325,-0.057329443679,-0.0389665961967,0.719035765748,-0.282317121338,-0.205110959787,-0.155447602304,-0.288875076555,-0.160727061807,0.375841497611,-0.552063080262,-0.374167457864,-0.379377725075,-0.391052473726,-0.487783918001,0.488243396811,-0.334523659501,-0.38660632467,-0.472239496165,-0.381276556554,-0.484812642903,
0.99000109747,0.10980728861,0.0446823016411,0.0475497361699,-0.0324804125769,0.971917070922,-0.0948350665945,0.0539526917155,0.0178201542991,0.0406183847987,0.979299688948,0.074665613584,0.0564658702268,-0.0829308905968,-0.0911088130032,0.978753578406,-0.0252918046695,-0.0211701333473,0.0166132645737,-0.00869683363036,0.996274967352,-0.0880924818771,-0.0289543218969,-0.0572061560251,-0.0388655688135,0.783879138967,-0.234218591542,-0.158022827239,-0.10768121388,-0.242013233261,-0.114089904833,0.355739706775,-0.56697388051,-0.388765029587,-0.394185559729,-0.405579894576,-0.502241684895,0.46220524815,-0.353837840843,-0.405514776445,-0.491420304643,-0.40009414086,-0.503540003404,
0.987428673007,0.108020882734,0.043824826821,0.0458929204132,-0.0338738091617,0.970770705606,-0.0956311536192,0.0535705699438,0.0170818173153,0.0399974369187,0.977803111495,0.0736263236863,0.0559670110761,-0.0838947879404,-0.0919194591244,0.978487014941,-0.0254769181873,-0.0212589878358,0.0164415796296,-0.00884122217439,0.993377605653,-0.0901045386114,-0.029920109129,-0.0590722533917,-0.0404349730682,0.716787486955,-0.284481536664,-0.206504967169,-0.156024341766,-0.290530313882,-0.161338256978,0.422312323597,-0.517099780147,-0.340657957731,-0.346216424491,-0.357438152337,-0.455358855981,0.438630797673,-0.371499074023,-0.422550275982,-0.508406958572,-0.417141917746,-0.520141978529,
0.985172755495,0.106516937726,0.0427908646289,0.0444781924823,-0.0351897610428,0.97017595353,-0.0960276550028,0.0532979752429,0.0167088372004,0.0396504982084,0.976880921361,0.0730115302637,0.0555443405986,-0.0844731105664,-0.0924574033686,0.97863560613,-0.0253778573945,-0.0211908835408,0.0165347639346,-0.00875454398078,0.990912617776,-0.0917478638634,-0.0310498952383,-0.0606180932465,-0.0418728826621,0.656923378359,-0.329266384881,-0.249861212665,-0.199148764666,-0.333782320237,-0.203389427246,0.493612041406,-0.463759855527,-0.289019536287,-0.294854109817,-0.305923882433,-0.405274813239,0.4174532746,-0.387342158948,-0.437887978504,-0.523662651547,-0.432442744636,-0.535017997725,
0.985117559106,0.106507738327,0.0427655662838,0.0444735148222,-0.0351897610428,0.970250590074,-0.0960152155789,0.0533321836585,0.0167151623312,0.0396504982084,0.978006703927,0.0731991606917,0.0560603242743,-0.0843777052639,-0.0924574033686,0.977626513096,-0.0255460395671,-0.0216533845142,0.0164492475756,-0.00875454398078,0.992791428769,-0.0914347286972,-0.0301887735338,-0.0604588719754,-0.0418728826621,0.727170550979,-0.277550459839,-0.198783699031,-0.14769264438,-0.282899454425,-0.152644909572,0.460036727077,-0.488477981173,-0.313432527037,-0.319448059271,-0.330243839377,-0.429528645355,0.3986715865,-0.401169226112,-0.451544356323,-0.537420255818,-0.446047080293,-0.548585343828,
0.986081236652,0.10733757177,0.0430867921323,0.0453065242269,-0.0344670028831,0.968602120356,-0.0974347311686,0.0527826937533,0.015290213931,0.0384141459205,0.974581630639,0.0702497920273,0.0549186331794,-0.0873383618362,-0.0950262083347,0.977188424912,-0.0259232821704,-0.0217994139088,0.0160705611786,-0.00908311011917,0.989831757084,-0.0939833348704,-0.0311753307612,-0.0630172322468,-0.0440926364262,0.665958325833,-0.323511520052,-0.2429190362,-0.191430095411,-0.327115064351,-0.195144913575,0.430260999728,-0.51083501842,-0.33490146993,-0.340723456689,-0.351751829694,-0.450202106065,0.464436825583,-0.351789545727,-0.404126197711,-0.490429578432,-0.398542678174,-0.502924155764,
0.985884616951,0.107299340161,0.0430048672566,0.0452865290031,-0.0344751953708,0.968853373477,-0.0973858763953,0.0528873825536,0.0153157650958,0.0384246148006,0.975962756762,0.0705183443283,0.0554941023976,-0.0871979083326,-0.0949686614125,0.976332034895,-0.0260898024511,-0.0221562430829,0.0159834706687,-0.00911879303683,0.991820119875,-0.0935967087731,-0.0303468462643,-0.0628150258618,-0.0440097879759,0.735488024013,-0.272299919337,-0.192435180045,-0.14062329738,-0.27677653541,-0.145001493862,0.404370137821,-0.529904747139,-0.353700207483,-0.359642448519,-0.370496451568,-0.468874074868,0.440972672236,-0.369071899652,-0.421162960035,-0.507575323793,-0.415530396994,-0.519846031167,
0.986612605671,0.10786555361,0.0433081958901,0.0458911298045,-0.0338685381045,0.967084873818,-0.0987613761303,0.0521505076952,0.0138470111411,0.0369508650855,0.972289629434,0.0676614675169,0.0539636326764,-0.0902484717081,-0.0980296008511,0.975769791584,-0.0265271028041,-0.0223905111293,0.0155165228339,-0.00958732912906,0.988441188089,-0.09622476683,-0.0317547345098,-0.0656212573469,-0.0468255644635,0.673242805609,-0.318954959771,-0.237444628955,-0.184906852817,-0.321693579976,-0.188181800032,0.380886995727,-0.547506210705,-0.370680841682,-0.376349226186,-0.387442224546,-0.485164631661,0.510106578783,-0.317253538531,-0.371172308312,-0.458390900289,-0.365642376018,-0.4718869537,
0.987696877139,0.108738994516,0.0438503316243,0.0468100039302,-0.0331005124814,0.965820145904,-0.0997801847278,0.0515181437384,0.0127752078247,0.0360550161472,0.969135483126,0.0651206274347,0.0523865595228,-0.0929214770528,-0.100263787818,0.97558071357,-0.0266794156487,-0.0224850501362,0.015356287229,-0.00972125938877,0.985472894131,-0.0986158925194,-0.0332388814887,-0.0681367607005,-0.0489281060159,0.618688655334,-0.359987324124,-0.276801022827,-0.223780038039,-0.361028622392,-0.225895854006,0.35978995165,-0.563374143667,-0.385900647545,-0.391382166813,-0.402653773427,-0.499749315961,0.583029213677,-0.262405500216,-0.318564542878,-0.406429040763,-0.313063151116,-0.421474507086,
0.986608106671,0.108708750892,0.0434420426989,0.0467361889834,-0.0331458779179,0.965675917088,-0.0997841910839,0.0514640579322,0.0127654295999,0.0360490066131,0.970434490387,0.06515671097,0.0528736872457,-0.0928334087642,-0.100209662515,0.974239195175,-0.0267166800488,-0.0229881195344,0.0152653368296,-0.00977715598902,0.987270505584,-0.0985659588675,-0.0325647771936,-0.0680148887379,-0.0488532055381,0.691085348855,-0.306933889132,-0.224092829639,-0.171138199496,-0.308575055607,-0.173491928835,0.341075540741,-0.577088358147,-0.39952561766,-0.404989984375,-0.416212923089,-0.513295633357,0.545080460456,-0.29021494308,-0.346193017589,-0.434022733828,-0.34055815627,-0.448943491199,
0.987764943576,0.109544244211,0.0439722596131,0.0475989148107,-0.0321818471645,0.964510676298,-0.100625753876,0.0509299892374,0.0118964364685,0.0350779726222,0.967292045506,0.0628871674451,0.0514334000093,-0.0951769269814,-0.102828366582,0.974181052363,-0.0267586720796,-0.0230147683231,0.0152219760885,-0.00982560833223,0.984224090026,-0.100766147881,-0.0339610509902,-0.0702867918666,-0.051391885169,0.634096152057,-0.349607838872,-0.265265942733,-0.211525354971,-0.349643817496,-0.212931347528,0.323583115577,-0.590186820912,-0.412163409383,-0.417386532044,-0.428818684958,-0.52540128002,0.618943996162,-0.234905358326,-0.292828662938,-0.38167705661,-0.287329050919,-0.397826172924,
0.985779966913,0.108882585324,0.043558722809,0.0465896046435,-0.0331743354961,0.964396727533,-0.100663736798,0.0509062499112,0.0118384964183,0.0350209982394,0.967352083848,0.0629071802259,0.0514459079973,-0.0951463990106,-0.10279834741,0.974638944998,-0.0266060412015,-0.0229193740244,0.0154548028519,-0.00959666201484,0.983014445256,-0.101169362804,-0.0342130603168,-0.0709018654779,-0.0519967075539,0.584753293695,-0.386079585475,-0.300997828713,-0.246597121521,-0.385357232027,-0.247829696649,0.387494286521,-0.542946914082,-0.36588180453,-0.371959944658,-0.382561005187,-0.480199310974,0.575633952728,-0.266917953095,-0.324191854799,-0.412460837344,-0.31867602971,-0.428457738796,
0.984422859356,0.108807190459,0.0433890843644,0.0465205991741,-0.033287427792,0.963936096786,-0.100689327395,0.0508486710679,0.0118150745158,0.034982612344,0.968369257933,0.0629636898978,0.0515730547579,-0.095094678294,-0.102713582904,0.972972144102,-0.026698641252,-0.0231277241363,0.0153700502633,-0.0097355620889,0.984594709094,-0.101081570368,-0.0340155273371,-0.0708215130788,-0.0518650189013,0.658335822811,-0.332331641522,-0.247660951054,-0.193330978095,-0.331996969389,-0.194544353463,0.366053024494,-0.558608563166,-0.381423672733,-0.387481201566,-0.398109687555,-0.495726162513,0.538638634845,-0.293940974672,-0.351008203293,-0.439241622567,-0.345504135543,-0.455248177142,
0.985738931043,0.109574898943,0.0440471202076,0.0474797700636,-0.0320810287458,0.962888772812,-0.10130026638,0.0503250090808,0.0110517706026,0.0340225653673,0.965346075264,0.0612001666751,0.0500614634234,-0.0972980148146,-0.105484833685,0.972958453486,-0.026706627445,-0.0231345694446,0.0153600723564,-0.00974811182075,0.981720164239,-0.102758388199,-0.0354527997644,-0.0729165203447,-0.0545000183522,0.605532876666,-0.371678450994,-0.285963110485,-0.230515311452,-0.370053914994,-0.231083743593,0.346252129741,-0.573363460195,-0.395786830153,-0.401425178655,-0.412380890766,-0.509428288458,0.612389894636,-0.2389842539,-0.297510572631,-0.387305288901,-0.292349001462,-0.404212652596,
0.983723446251,0.108063285349,0.0430393778116,0.046215821974,-0.0331727496754,0.962795541317,-0.101370190001,0.050278393333,0.0109933033936,0.0339720649738,0.96544014044,0.0612707155569,0.0501084960112,-0.0972390247892,-0.105433881714,0.973371695729,-0.0263966957629,-0.0229279483232,0.0156192242713,-0.00952427227247,0.980458914641,-0.103704325398,-0.0360834245635,-0.0737074734826,-0.0551831952183,0.560026264199,-0.405840203453,-0.318663315674,-0.263037034278,-0.402830158361,-0.262595557786,0.412255310601,-0.523814961553,-0.348358172201,-0.354255393052,-0.364841946389,-0.463723282995,0.569873952459,-0.270900914214,-0.328061737783,-0.417689701455,-0.322971207603,-0.433653527173,
0.985333351414,0.109673190512,0.044246806684,0.0476892944957,-0.0318982414207,0.962147479431,-0.102018251887,0.0497923469189,0.010400162007,0.0334590159809,0.962988574307,0.058819149424,0.0482698214116,-0.0994828310796,-0.107374704904,0.973552651932,-0.0262157395595,-0.0227922311706,0.0157848452032,-0.00938101527799,0.97818266921,-0.105980570828,-0.0377906086366,-0.0757908167576,-0.0569852228518,0.520628760234,-0.43569164035,-0.346962907332,-0.290980372241,-0.431133290606,-0.289254959959,0.387730237391,-0.542397577243,-0.365974759227,-0.371650211005,-0.382460737442,-0.480318846779,0.643948022761,-0.214775088647,-0.274853647651,-0.365151429423,-0.26975646056,-0.383529274823,
0.983295351901,0.109050468437,0.0428032236964,0.047516582672,-0.0319831580678,0.961136451137,-0.102327177199,0.0490762018779,0.0103144816428,0.0334168898016,0.963650288069,0.0590213397403,0.0487385353257,-0.099426753642,-0.107347133497,0.971306630907,-0.0269020237624,-0.024383162729,0.0155945044378,-0.0094745994881,0.97954828772,-0.105563298505,-0.0368232955256,-0.0756750863749,-0.0569283220801,0.594501923684,-0.380927167172,-0.293417831083,-0.236942135553,-0.377857111843,-0.236579844738,0.366318688608,-0.558270624156,-0.38149437364,-0.387312764048,-0.397902414058,-0.495586309909,0.597646362039,-0.249099949507,-0.308414224158,-0.399021105287,-0.303148499542,-0.41654458376,
0.981917220776,0.108629372815,0.0417122032221,0.0474465082075,-0.0321554244584,0.960774647234,-0.102437728392,0.0487897737877,0.010296084834,0.0333716643137,0.964837919142,0.0593842270133,0.0496787432593,-0.0993663656209,-0.107198679613,0.96971373664,-0.0273887414559,-0.0256442040244,0.0155135098134,-0.0096737112715,0.981364877542,-0.105008229392,-0.0353851619163,-0.0755827174003,-0.0567012483524,0.667776387645,-0.32666247797,-0.240235128085,-0.183348357001,-0.325115304173,-0.184377492128,0.346960231611,-0.572606868948,-0.395544767369,-0.401471760256,-0.41183632719,-0.509377703847,0.557774960023,-0.27862741544,-0.337352940553,-0.428183503409,-0.331847308143,-0.444949854498,
0.983330484464,0.109336004659,0.0420655191439,0.0485483748111,-0.0313899066274,0.959806789981,-0.102921657019,0.0485478094745,0.00954148426408,0.0328474083015,0.961820886021,0.0578757104526,0.0489244849789,-0.101718628733,-0.108832905888,0.969813055019,-0.0273390822663,-0.0256193744296,0.0155909444819,-0.0096199138161,0.978458656461,-0.106461339933,-0.0361117171866,-0.0778485846842,-0.0582754514391,0.613558620098,-0.366994001041,-0.279309005639,-0.221574016885,-0.36428293588,-0.222136570724,0.328923018795,-0.586024394193,-0.408543898039,-0.414188705153,-0.424866648071,-0.521939426086,0.631785299396,-0.223572590335,-0.284014873177,-0.376003301443,-0.278381261012,-0.393406562554,
0.985328106787,0.111167158456,0.0428978617795,0.0504444231177,-0.0297252213582,0.959660606671,-0.103055658387,0.0484868997617,0.00940273400306,0.0327255888759,0.959713471237,0.0559439135666,0.0480463954849,-0.103718886832,-0.110589084874,0.970612904092,-0.0266058872823,-0.0252861039822,0.0163501232629,-0.00895337292209,0.976388647951,-0.108358847734,-0.036974220733,-0.079813338523,-0.0600004585297,0.566531023342,-0.402461034265,-0.312956016276,-0.254500447905,-0.398108623766,-0.254008688772,0.312202742597,-0.598634406874,-0.420506816621,-0.425895427564,-0.436893093883,-0.533271296169,0.704613502385,-0.168647387407,-0.231908206247,-0.325012543516,-0.225997889683,-0.344048542094,
0.987967603774,0.112633545672,0.0436677150681,0.0521891753626,-0.0278555776603,0.960308935469,-0.102695475721,0.0486759956615,0.00983129032759,0.0331848217748,0.958575573562,0.0553117481911,0.0477145086626,-0.104471056481,-0.111395095726,0.972083598103,-0.0257888350538,-0.024857151562,0.0173222769304,-0.00791163133202,0.975296232319,-0.108965745308,-0.0372928419592,-0.0805354437709,-0.0607742529351,0.526017740694,-0.432641644885,-0.342137695208,-0.28294986562,-0.427347162433,-0.282049584449,0.296947024713,-0.609999244554,-0.431495495693,-0.436608365699,-0.447903184108,-0.543830400881,0.77307158209,-0.117649134185,-0.182597916592,-0.276939605996,-0.176591520224,-0.296665912354,
0.991098104953,0.114285754628,0.0454938407546,0.0545237864116,-0.0249859515788,0.961680085451,-0.10197181323,0.0494758331504,0.0108538428565,0.0344417092585,0.958378835236,0.0552079140745,0.0475997446392,-0.104617776589,-0.111575439192,0.974192190744,-0.024675966715,-0.0236271391888,0.0188947866969,-0.00597875474367,0.975153661812,-0.109040990853,-0.0373760080886,-0.0806417675393,-0.0609049425671,0.490869669447,-0.458921124463,-0.36764003068,-0.307466811988,-0.452690416708,-0.306151904924,0.28279388337,-0.62058125306,-0.441764570089,-0.446480651572,-0.458108200973,-0.55353572855,0.834662688153,-0.0715987491545,-0.137909346404,-0.233977765118,-0.13218171318,-0.254430633884,
0.987688592388,0.111823328888,0.0439311474968,0.0522700408183,-0.0269748339072,0.960507633186,-0.10281858431,0.0489384591959,0.0100788320373,0.0337577787709,0.9581130816,0.0550159808936,0.0474779408898,-0.104793444246,-0.111730462146,0.973273490246,-0.0253394726299,-0.02404821025,0.0182875100967,-0.00651466336715,0.973790208495,-0.110025707138,-0.0380009241918,-0.0815430332911,-0.061700290335,0.460294656508,-0.481951376008,-0.389614004806,-0.32911479139,-0.474766433322,-0.327185230085,0.342933522761,-0.575281811136,-0.398542777099,-0.403900075159,-0.414685695117,-0.512164148663,0.765575625308,-0.123637727484,-0.187561568445,-0.282893372002,-0.182064509639,-0.301957372796,
0.98446974949,0.109766845925,0.0427240814101,0.0503060010825,-0.0285842553561,0.959697796973,-0.103335979669,0.0486347706159,0.00958469468638,0.0333528606642,0.958105532037,0.0550111575611,0.0474751098033,-0.10479805076,-0.111734236928,0.972649485727,-0.0257381421836,-0.0242822119445,0.0179067615766,-0.00682666562647,0.972506633658,-0.110845768839,-0.0384822647556,-0.0823262314972,-0.0623420777534,0.4333262278,-0.502154407152,-0.408986267241,-0.348239452692,-0.494246098738,-0.34584252076,0.408713085282,-0.526003947575,-0.351291268238,-0.357252498191,-0.36717221619,-0.466656550437,0.703163209984,-0.170393138572,-0.232394350585,-0.327153136525,-0.22714585203,-0.345135512207,
0.986956811303,0.111563057234,0.0439676123168,0.052287219814,-0.026304448693,0.960205395289,-0.102969380885,0.0488885697742,0.00998905266718,0.0338181591213,0.956988589755,0.0542044770247,0.0469166386626,-0.105687818339,-0.112758100686,0.97372165996,-0.024963794127,-0.0237461248282,0.0187608664732,-0.00584383924625,0.97165118597,-0.111463592169,-0.0389099885996,-0.0830076898245,-0.0631262381343,0.409109586681,-0.520318556947,-0.426437522887,-0.36513181619,-0.511708728992,-0.362292487582,0.384425977344,-0.544220952339,-0.368793304438,-0.37419401595,-0.384685660097,-0.483154384212,0.771645072761,-0.119027021878,-0.183044216166,-0.27938348452,-0.177763551532,-0.298616906878,
0.989909362085,0.11361343972,0.0454438877076,0.0547393382609,-0.023597943809,0.961409411707,-0.102133258372,0.0494905779833,0.0109889985066,0.0349218408384,0.956741753602,0.0540330630296,0.046793220586,-0.105892817856,-0.11298436716,0.975430875212,-0.0237768390914,-0.022891517202,0.0201803842259,-0.00427705859768,0.971642076037,-0.111469918512,-0.0389145435662,-0.0830152557013,-0.0631345889065,0.387397019276,-0.536631897851,-0.442105429723,-0.380237470932,-0.527386652959,-0.377029671971,0.362648280892,-0.560583226763,-0.384508208749,-0.389344981634,-0.400410611585,-0.49793577428,0.8333631733,-0.072656254421,-0.138508098843,-0.23644557208,-0.133198960458,-0.256726373585,
0.99320153731,0.115259527333,0.0468156273859,0.0569155218839,-0.0212659863589,0.963127387292,-0.10127427058,0.0502064011441,0.0121246094858,0.0361387402101,0.957195582687,0.0542599775719,0.0469823160381,-0.105592829139,-0.112662904892,0.977599244638,-0.0226926543782,-0.0219880299404,0.0216137131683,-0.00274113025482,0.972309671745,-0.111136120657,-0.0386363786874,-0.0825739636227,-0.062661708613,0.367922896504,-0.551188056225,-0.456199141947,-0.393893579441,-0.541485621276,-0.390466727536,0.34314440372,-0.575161625408,-0.398623454674,-0.403021955233,-0.414531121635,-0.511393360245,0.887634812524,-0.0320902897811,-0.0992309065368,-0.198387919735,-0.0939071201576,-0.219279190963,
0.988403114747,0.112060578955,0.0448162846496,0.0536623540429,-0.024464934736,0.960916436506,-0.102748237772,0.0492851716491,0.0106256597996,0.0346647730185,0.956111391204,0.0535371832499,0.0465305695867,-0.106327874213,-0.113385699214,0.975420494826,-0.024145154254,-0.022895842363,0.0201365946507,-0.00419363013057,0.969967438846,-0.112697609257,-0.0396123090628,-0.0841619181314,-0.0642231972133,0.35022982428,-0.564508570866,-0.468953767346,-0.406348871804,-0.554301571003,-0.402615141417,0.408977999747,-0.525597741382,-0.351165170133,-0.356677449573,-0.366844657332,-0.466190709079,0.815247813241,-0.0865880090904,-0.151413424527,-0.24934578776,-0.146340532058,-0.268981538624,
